60 100
_ 0.06359555 -0.24559851 -0.17678036 -0.05333349 -0.088488825 0.059085626 -0.025356755 -0.08975701 0.0039237137 0.021541135 -0.06932024 0.008396235 -0.090300955 -0.10237237 -0.043680847 0.10655967 -0.10781898 0.12091016 -0.14838065 -0.051100817 0.026575487 0.10931075 -0.25108182 0.022930963 0.003762032 -0.016579436 -0.07383112 -0.03569537 -0.12279774 -0.007098601 -0.0012475784 -0.07035765 0.0825942 0.06677778 -0.09643256 0.163519 0.061994944 0.03900677 0.090790026 -0.034141213 -0.084272176 0.0126147 0.04971317 0.028733855 0.03358725 -0.012220716 -0.058794152 -0.007238861 -0.08823867 -0.16125217 -0.032800145 0.17656936 -0.08175338 0.10023948 0.086044654 -0.1492782 -0.1674919 -0.022819214 -0.014061754 -0.018890746 0.1321557 0.024517901 0.16494805 -0.030658914 0.012626608 0.123920865 0.003756553 0.013886226 -0.16537239 -0.040744606 -0.019950887 -0.020113003 0.27112952 0.014399957 0.12429416 0.22612117 0.029689154 0.06268758 0.014667022 -0.031810787 -0.03482765 0.0985676 0.054437276 0.07705454 -0.026488207 -0.1361644 0.05024105 0.14863205 -0.034647193 0.027671572 0.05410394 -0.1268157 0.11496839 -0.046182726 0.15785126 -0.13295648 -0.1540309 0.14709236 -0.06800034 0.009810085
e -0.02230489 -0.3299174 -0.27310297 -0.018911365 -0.13431698 0.10950433 0.012146465 -0.22411685 -0.016120309 0.002190628 -0.16171883 -0.032576833 -0.13642435 -0.10646948 -0.017281823 0.15134571 0.015796766 0.11416044 -0.090923294 -0.062103666 -0.028036794 0.10385348 -0.12094437 -0.050903786 0.0006991 0.023514107 -0.11566667 0.034549434 -0.1307818 0.03377938 -0.058986526 -0.07097923 -0.033428952 0.092906535 -0.082685485 0.21021958 -0.011826108 0.024901573 0.18997826 -0.02854435 -0.0026494504 0.018424783 0.14849576 0.015193021 0.059262667 0.023831185 -0.09065071 -0.01681716 -0.049113974 -0.12497276 -0.06443739 0.18388234 -0.06923257 0.030015294 0.06781085 -0.15977664 -0.14188786 -0.013166878 0.049715657 0.08400866 0.032687858 -0.030961577 0.07704175 -0.036357194 0.14932114 0.09698923 0.051608145 -0.03604842 -0.1949211 -0.117026985 0.06546577 -0.010112067 0.28235364 0.022995835 0.102149434 0.24891336 -0.0087070465 0.015370125 -0.008511587 -0.06435805 -0.11067648 0.060224645 -0.034447074 0.07410579 0.0153242955 -0.07558241 -0.01692985 0.068934225 -0.053135827 -0.013745339 0.046701796 -0.014115128 0.040285997 -0.017026724 0.076404266 -0.024425415 -0.060774643 0.092275575 0.026946517 0.015809692
t 0.02169571 -0.26773852 -0.26271936 -0.008139397 -0.16411732 0.015996939 0.0430285 -0.07777561 -0.029526055 -0.008361145 -0.13714853 0.001242965 -0.21360286 -0.13026625 -0.12964144 0.13820615 -0.09453229 0.13464732 -0.123766355 -0.021953965 0.03211813 0.11119826 -0.2166616 0.023595862 0.03413171 -0.012988418 -0.07621537 -0.032121778 -0.17485888 -0.05448768 -0.04498044 -0.09824819 0.059559166 0.12393979 -0.0669279 0.1621596 0.044765778 0.07618688 0.05104024 0.016561456 -0.16332763 0.035045236 0.10904189 0.063571684 0.08185534 0.0143584 -0.1191271 0.04628925 -0.030665135 -0.07989607 0.027409159 0.0656391 -0.006812493 0.13055846 0.14129707 -0.12561737 -0.031021979 -0.03084526 0.03928824 0.037711766 0.049570207 0.011595876 0.0184207 -0.034262817 0.07361065 0.10551015 0.023809273 -0.015992396 -0.12512633 -0.016027732 -0.041378032 0.035364706 0.29221383 0.0013382215 0.10726155 0.25543463 0.07931687 0.004163702 0.06206197 0.0010055522 -0.05378238 0.06529529 0.032543797 0.043363962 0.011477045 -0.11671942 -0.047704548 0.14841373 0.047960076 0.0012453096 0.1182015 -0.06785667 0.11604369 -0.0029974962 0.033305433 -0.014664107 -0.012856065 0.14401796 -0.0634866 -0.036130868
a 0.064666264 -0.24937272 -0.2658031 -0.01665988 -0.14896066 0.1303703 -0.03786213 -0.18362536 -0.033741497 -0.03511996 -0.0817757 0.0023295006 -0.108823 -0.10097137 -0.061543744 0.08039334 -0.0950624 0.11432675 -0.07527196 0.037689134 0.0076466347 0.15020843 -0.13708836 0.019320123 8.494147e-05 0.014213382 -0.09092759 0.0070495545 -0.1617892 0.01849773 -0.009234021 -0.13951872 0.022555856 0.039769717 -0.07189882 0.14466393 -0.026674302 0.07268258 0.2577541 -0.092837214 -0.07996377 0.0073966705 0.18248264 0.02219596 0.038684335 0.0111869965 -0.027298229 0.0061971173 0.02097844 -0.11032642 -0.11351828 0.1787455 -0.14032984 0.050279576 0.03873333 -0.037355766 -0.16089207 -0.032745246 0.028292801 0.045165084 0.040583163 -0.018513976 0.100523464 -0.013121828 0.031160071 0.18320651 0.041711807 -0.0052327765 -0.17552799 -0.061640147 0.07536244 -0.004874559 0.24322882 -0.007552446 0.09853688 0.18471448 0.014461601 0.116515934 0.12611926 -0.0821907 0.035897393 0.038223818 0.054585036 0.052800592 -0.006040224 -0.08119116 -0.014320662 0.059454426 -0.035436768 0.0058231717 0.04370077 -0.09150567 0.07594746 -0.030135604 0.1531984 -0.08412173 -0.088059895 0.09883941 -0.017177392 0.07635828
o 0.077998854 -0.13948037 -0.2966067 0.08051984 -0.10202427 0.089187786 -0.031059727 -0.19786145 0.0033489594 0.0014805853 -0.0939718 0.028227314 -0.113233425 -0.0649849 -0.121001616 0.13483208 -0.07631797 0.17573084 -0.11011716 -0.04579009 -0.007264662 0.15489471 -0.16224584 0.035506345 -0.0032954672 -0.026449593 0.007892122 0.04199496 -0.19177902 0.029291568 -0.016395535 -0.108982146 0.0060011996 0.05039958 -0.13388467 0.17272906 0.11026894 0.059720136 0.11450445 -0.034433935 -0.06332093 0.0034118986 0.20903943 0.0091783395 0.087690115 0.02373497 -0.08974691 -0.047236912 -0.009763618 -0.10744676 -0.068890765 0.13458154 -0.09412917 0.051648203 0.0072346833 -0.07831593 -0.0935518 -0.0007480701 0.0608134 0.031051492 0.065067954 0.026275968 0.1341654 -0.06252931 0.0841542 0.00520827 -0.020569088 0.016842628 -0.22305521 -0.023712816 -0.057382762 -0.025662731 0.33968908 -0.009214013 0.13072781 0.21642433 0.107156545 0.11855274 0.10953937 -0.0447587 -0.06793912 0.044370815 0.016954223 0.052286487 -0.073378384 -0.12030444 0.059709422 0.094216 -0.06319607 0.021174345 -0.026403878 -0.06993728 0.041358013 -0.0042841467 0.08976421 -0.06807206 -0.040693726 0.110722885 -0.01493996 0.058984403
n 0.05767233 -0.33352637 -0.26935965 0.026017347 -0.12754652 0.049982566 0.050183635 -0.06874119 -0.028837116 0.019519575 -0.19246508 -0.05146469 -0.13340336 -0.09657631 -0.014738227 0.04443101 -0.10358125 0.13964114 -0.044027306 0.060687467 -0.055441096 0.13528742 -0.25777328 -0.030372662 0.045461968 0.014527955 -0.08873031 -0.043658182 -0.12556943 0.024242066 -0.035835512 -0.091322534 0.014200922 0.016384108 -0.04381854 0.10301864 0.020285679 0.045223996 0.10206164 -0.0029830826 -0.05816726 0.019878652 0.0116918385 0.05582623 0.058249384 0.05172192 -0.10330736 -0.022155723 -0.02614403 -0.09871506 -0.09373487 0.13062118 -0.084887944 0.11848411 0.09142112 -0.062310226 -0.038327284 0.04276367 0.07385298 0.08327648 0.15010901 -0.00084994035 0.19111867 -0.0068107317 0.025577731 0.13635018 0.04738667 -0.06444698 0.030241515 -0.02907384 0.10469607 -0.031092564 0.31867683 -0.048446972 0.12915665 0.28337434 0.024452366 0.06481208 0.01659784 -0.09171365 0.043412726 0.03044967 0.04383708 0.06754446 0.031258665 -0.10638835 -0.038966194 0.06854696 0.028642353 0.0077914484 0.084831044 -0.11575551 0.06460907 -0.07435904 0.047858503 -0.038826607 -0.13186729 0.06983654 -0.03781414 0.08740021
i 0.030221533 -0.196196 -0.24994019 0.04301789 -0.15195382 0.046018895 0.040542956 -0.16488756 -0.077468 -0.08698192 -0.17620903 -0.038197886 -0.24807589 -0.10394446 -0.114589244 0.15346317 -0.083675906 0.17353351 -0.07630522 0.10208557 -0.021293737 0.089277245 -0.18641903 0.018334975 0.008299644 0.028691253 -0.093737565 -0.053009275 -0.03427873 0.08391875 0.015510971 -0.036109265 -0.03171459 0.18232994 -0.108241566 0.19160564 -0.04668953 0.10655997 0.2291609 -0.06432935 -0.13769218 0.036801975 0.24586757 0.06404989 0.075988285 0.04490338 -0.111887336 -0.00013353459 0.021007849 -0.14154996 -0.13062082 0.1281923 -0.12881242 0.062050965 0.047790017 -0.10490113 -0.13731875 -0.024266234 0.03721145 0.041499436 0.02846478 0.012448465 0.10915528 -0.0036407416 0.019502865 0.19865824 0.050614834 0.007413813 -0.11023961 -0.08040861 0.06305367 -0.0024091757 0.17669258 0.008569211 0.06777977 0.17373823 0.05074798 0.05198226 0.0645578 -0.08975594 -0.14102268 0.10987677 0.047600336 0.081672266 0.044047296 -0.059238948 -0.049538136 0.06716393 -0.014176247 0.016645158 0.05427271 -0.12998363 0.0799457 -0.039233018 0.079408124 -0.08381231 -0.043812864 0.12382105 -0.04301875 0.022407223
s 0.08966325 -0.24779442 -0.33947346 -0.025773255 -0.13331923 0.07493761 -0.04060275 -0.16902968 0.02224434 0.07705835 -0.049010266 0.067139976 -0.14322022 -0.13453235 -0.13448676 0.09982143 -0.059721682 0.16102861 -0.10544343 -0.027361393 -0.0031187201 0.14952847 -0.19154915 0.0029649269 0.031232081 0.013744601 -0.06581966 -0.028988652 -0.14931215 -0.052691936 -0.038738694 -0.13848943 0.09529484 0.0065618157 -0.09045701 0.12324286 0.0643763 0.11854451 0.098915875 0.029339232 -0.053568017 -0.005679786 0.07748731 0.024463201 0.06489364 -0.03883459 -0.078095056 0.02934761 -0.012170702 -0.047552377 0.033858273 0.04842747 -0.060098 0.11724449 0.10716081 -0.1311188 -0.06639499 -0.00936799 0.07075474 0.048485164 0.1161627 -0.026627721 0.19778775 -0.032992277 0.035759915 0.09072132 -0.022388877 -0.020210918 -0.072294906 0.009376978 0.03970681 0.023799604 0.2593957 -0.042487063 0.098540105 0.21827824 0.03257082 0.1045485 0.07589778 -0.0522805 -0.015815591 0.06533378 0.032897282 0.043712687 0.0047714547 -0.13592455 -0.0828394 0.14980203 -0.015925402 -0.0108056795 0.06226636 -0.08194663 0.11303564 0.008464051 0.069036745 -0.06607432 -0.027239757 0.11621983 -0.07328862 0.063183
h 0.08777111 -0.29779923 -0.33832568 -0.011065909 -0.13713126 0.049535967 0.010458719 -0.14536753 -0.02865953 -0.022660404 -0.11492194 -0.017289788 -0.24210714 -0.18217777 -0.082193375 0.09847729 -0.16610701 0.19921255 -0.13649544 0.014351858 0.011498192 0.14470872 -0.29130244 0.0073677576 -0.011770447 0.040238447 -0.13924336 -0.016041532 -0.10241408 0.05732813 0.02529385 -0.06906477 0.06891795 -0.0006570277 -0.10383949 0.16654208 0.11799591 0.029265618 0.102408655 -0.030969119 0.007367282 -0.101620466 0.07945306 0.071063854 0.10495533 0.026634648 -0.09359823 0.007879462 -0.081942774 -0.1789852 -0.015087485 0.092852294 0.041315902 -0.040859617 -0.10618815 0.0053718295 -0.1283613 0.02342731 0.0884676 0.025286078 0.13354895 -0.028075134 0.2186988 0.0698362 0.035443544 0.057267923 0.040753853 -0.02926236 -0.20045273 -0.0015734028 -0.017584832 -0.034026183 0.25155216 0.014696002 0.092848696 0.12065135 0.014147269 0.10077265 0.10239131 -0.027908552 0.051252 0.07943151 0.11466443 0.042784944 0.023434386 -0.047795206 0.046979364 0.062084805 0.012532328 -0.014501395 0.01589505 -0.14147294 0.08658608 -0.007601773 0.058920532 -0.0929369 -0.030534515 0.07600798 -0.038887575 0.015257862
r -0.029135888 -0.22620983 -0.16878118 -0.043838453 -0.07715499 0.086544804 -0.013400257 -0.10496154 -0.03818066 0.023841493 0.0025139318 -0.040693447 -0.21024476 -0.19231276 -0.17506024 0.14063765 -0.2011561 0.14529704 -0.16000266 0.07965934 0.03206699 0.16346405 -0.23207463 0.040768027 0.03469869 0.017881617 -0.11569489 -0.06266415 -0.14142157 -0.022500891 -0.03407786 -0.17609261 0.06936081 0.00903358 -0.06646618 0.12625849 0.041030657 0.08913605 0.09614873 0.040753588 -0.15720268 0.038225915 0.114916 0.04715467 0.032119926 -0.010849052 -0.09491202 -0.0015733959 -0.071311854 -0.09192238 -0.034432583 0.11010924 -0.009082111 0.08576629 0.1051895 -0.107797645 -0.10552107 -0.021261044 0.0031603782 -0.04423224 0.13389622 0.04115281 0.13349955 -0.05647655 0.07566303 0.13875914 0.06505547 -0.034486827 -0.12636055 -0.06998123 0.05876879 -0.0003151782 0.22587022 -0.02413237 0.0994878 0.23163995 0.07610191 0.09866764 -0.00513024 -0.13427308 -0.061721005 0.0988565 0.015974438 0.0637383 0.0374632 -0.09804091 -0.0664631 0.096280836 -0.0050027817 -0.026580526 0.08410317 -0.088525094 0.103195354 -0.026170237 0.06262129 -0.042329166 -0.07215509 0.07098729 -0.09100629 0.04007031
d 0.021056987 -0.22645378 -0.26885775 0.006860108 -0.0970427 0.056178022 -0.002660688 -0.15987228 0.0015987986 -0.0131800575 -0.10953437 0.016643068 -0.21624227 -0.1779856 -0.062186 0.11889531 -0.09007258 0.11741419 -0.09764936 -0.023622204 0.10056669 0.21215734 -0.2531181 0.049476538 -0.01631242 0.0015601419 -0.12855074 -0.045811877 -0.2045337 -0.0046843914 -0.02179425 -0.16262259 0.060535494 0.011956163 -0.12527116 0.16731207 0.02238906 0.044655003 0.0800106 -0.0833953 -0.05082302 0.012021739 0.1653107 0.048169702 0.08845952 -0.031578142 -0.106171265 -0.057439737 -0.09900877 -0.096647635 -0.019611364 0.082920074 -0.10622692 0.07907828 0.032099444 -0.19963913 -0.03060204 -0.042868394 0.028664675 -0.06375288 0.029202307 0.020222345 0.120288596 -0.060881667 -0.01753797 0.17367677 -0.052787695 0.07761403 -0.08891949 -0.03195949 0.0007975933 0.049510196 0.25327224 0.057938214 0.10728781 0.19508122 0.03456966 0.020122195 0.04941055 0.01068473 -0.061038304 0.025052365 0.03431555 0.019131351 0.07161891 -0.017339822 -0.05821741 0.04467896 -0.030597825 -0.017497007 -0.0032064319 -0.033775035 0.08839974 -0.011922265 0.052957725 -0.06631303 -0.040614538 0.07764154 -0.018605135 0.019210804
l 0.01709395 -0.18390004 -0.21450444 -0.02398831 -0.08084978 0.078520216 -0.023465028 -0.18268819 -0.087632574 -0.020717587 -0.14145672 -0.053753342 -0.21148115 -0.14619474 -0.13861196 0.10722249 -0.13278851 0.129838 -0.104953915 0.061560225 0.056016862 0.18127152 -0.17018022 0.0660216 -0.0011944019 0.032018058 -0.073888645 -0.020367332 -0.20096478 0.028115321 -0.024065435 -0.18804035 0.006854465 -0.008696808 0.00912422 0.027248686 -0.005759975 -0.012740657 0.026400473 -0.01752488 -0.03761406 -0.04389822 0.105144255 -0.024285728 0.09580514 -0.0058556916 -0.1598279 -0.048402708 0.021978978 -0.10643726 -0.09002252 0.06493037 -0.15833735 0.14068624 0.10667007 -0.12800698 -0.13211168 -0.021846177 0.01358447 -0.07173872 0.14521222 0.0201056 0.16528983 -0.017434364 0.04093634 0.18050827 0.055399608 -0.0016963437 -0.07230507 0.015830575 -0.022595977 -0.0008296082 0.24809442 -0.05615195 0.094752744 0.20515104 0.03932004 0.14709456 0.109191485 -0.12169212 -0.02408461 0.09542252 0.10536619 0.05014067 0.05631444 -0.088919066 -0.08402664 0.099142864 -0.0044888393 -6.884087e-05 0.015218187 -0.11137879 0.077748656 -0.07590845 0.036621828 -0.0724003 -0.087450184 0.13527131 -0.076406024 0.06918147
u 0.17192347 -0.25363496 -0.14105709 -0.08638149 -0.18932514 0.13265999 -0.041794136 -0.061108474 -0.04827588 -0.090012774 -0.28626674 -0.07584012 -0.20490015 -0.042111613 -0.040289287 0.14916004 -0.053468287 0.24111812 -0.19511281 -0.030885642 -0.104670554 0.056817543 -0.23546182 0.05407902 0.024514375 0.00970538 -0.021716435 -0.092229776 -0.23169383 -0.033746477 -0.04772019 -0.13286111 -0.03298676 0.16888064 0.08189492 0.037792955 -0.039893303 0.0254813 0.21557505 -0.062343433 -0.066101454 -0.06231325 0.15002723 0.00018439413 -0.0391163 -0.03439113 0.010487687 0.031162472 0.0002918363 -0.1378317 -0.07035508 0.13976407 -0.11586317 0.03456198 0.10754118 -0.12563585 -0.08029078 -0.03009074 0.022761961 0.1574744 0.15318418 0.014251935 0.22238185 -0.038933467 0.050227225 0.07377824 0.106109604 -0.048526987 -0.056886084 -0.03424998 0.080581784 0.022050567 0.1906681 -0.07118197 0.06951569 0.30148914 0.06471356 -0.015131053 0.023923632 -0.050590314 -0.19841877 0.062119696 -0.01621892 0.039590687 -0.019997122 -0.096226424 -0.10616356 0.07760416 0.03932756 -0.01371614 0.1043115 0.076085255 0.15385894 0.022805825 0.16237412 -0.055658426 0.01670695 0.23554608 -0.03097978 -0.0050293007
m -0.049190618 -0.22870459 -0.18601716 0.009657475 -0.058248185 0.075563155 -0.036946595 -0.1613844 -0.054767955 -0.064874046 -0.12603292 -0.0793036 -0.14657037 -0.1167807 -0.04531828 0.19585916 -0.11713119 0.13009483 -0.22577012 -0.12895867 0.13888524 0.24126817 -0.22372472 0.08818572 -0.023618342 0.014722008 -0.118841894 -0.000752414 -0.17899284 0.045998238 0.051792476 -0.20446782 -0.01450466 0.032129228 -0.04411 0.121186696 -0.013055091 0.03160634 0.08949032 -0.031874847 -0.07589235 0.073404714 0.066845424 0.00458773 0.058178034 -0.0003720325 -0.1055736 -0.08468483 -0.08883498 -0.07191514 -0.0034299935 0.14917377 0.006364667 0.082330614 0.08266853 -0.16970354 -0.07506252 0.0076656947 0.034001682 -0.033901893 0.13525736 0.051750176 0.19755042 -0.06604405 0.034155328 0.075548135 0.027204148 0.02599617 -0.12978351 -0.054764878 0.01713547 0.008162638 0.27031764 -0.062369272 0.11436812 0.22579068 0.055106003 0.04821106 0.028873608 0.035855398 -0.0688507 0.02475525 0.057117052 0.078167975 -0.04370132 -0.07928849 0.04285573 0.038881034 0.020921476 0.035940252 0.03743018 -0.03838946 -0.023983615 -0.07050138 0.0040296065 -0.060813192 -0.06884536 0.07423138 -0.049030486 0.047200635
c -0.0039927256 -0.29666957 -0.26435477 0.04456246 -0.062927365 0.066567175 0.026694631 -0.10537888 0.05390236 0.009204075 -0.0912919 -0.054538585 -0.14604162 -0.08509895 -0.010374088 0.106398456 -0.09966749 0.19099425 -0.15441711 -0.049654186 -0.069395944 0.16899829 -0.24663834 -0.035183735 0.0459031 -0.008843354 -0.07446834 0.04090548 -0.13637815 -0.08239212 -0.13583347 -0.09356303 0.048054107 0.063012555 -0.15315646 0.22235088 0.058563355 0.038283963 0.103969574 -0.0010586947 -0.115582705 0.0629076 0.09716694 0.06296791 0.010290349 0.002270476 -0.051857408 0.0009247093 -0.012643245 -0.063532315 -0.03278895 0.15259667 -0.15963355 0.18160291 0.12671591 -0.07798705 0.019145945 0.021233736 0.036166992 0.06967695 0.088400654 -0.023671197 0.099894 -0.007803983 0.046082616 0.06398002 -0.02793286 -0.028223326 -0.045999825 0.037483096 -0.07983078 0.006953064 0.24690795 -0.039218217 0.08756829 0.2561596 0.04307589 0.008592307 0.02556664 -0.019132955 -0.07156063 0.076042436 0.027492134 0.07325616 0.06155383 -0.08863792 -0.1338825 0.12194455 0.010642829 -0.007953975 0.063460946 -0.025045244 0.15980828 -0.04306993 0.14068879 -0.031115662 -0.03353083 0.08783282 -0.01554478 0.06790384
f 0.05004577 -0.4377011 -0.32111195 -0.084349625 -0.023505604 0.08975584 0.004592856 -0.14976217 -0.031165026 -0.01946652 -0.08323997 -0.07924652 -0.066176206 0.020432448 0.03250661 0.08978954 -0.066166244 0.12016182 -0.11977209 -0.06703672 -0.014427263 0.20422791 -0.22479452 0.041502167 0.012313117 -0.02398432 -0.061058097 -0.027403455 -0.2177287 0.053165983 -0.03353961 -0.19075815 -0.014659667 0.21440041 -0.090663224 0.19500823 -0.0499659 0.06777791 0.096614555 0.06456143 -0.12342899 0.038077705 0.112692274 0.062012892 0.06586391 0.03981918 -0.08938585 0.039095636 -0.16458221 -0.08960947 0.11486932 0.0887651 0.035353728 0.061893743 0.11206686 -0.063623495 -0.09858215 0.060129162 0.02373266 -0.0011312898 0.045277275 -0.06982893 0.17433767 -0.0059212535 -0.009356945 0.014956701 -0.0053765145 -0.026070049 -0.05522869 0.051674392 0.03541292 -0.017752634 0.2803587 -0.024820298 0.073463984 0.19358157 0.024091195 0.027509464 -0.02364202 -0.021042747 -0.06952719 0.053079307 0.033781987 0.032583036 -0.032339804 -0.08322781 0.020353612 0.028338159 0.015927503 0.075900815 0.074974224 -0.08460733 0.021932282 -0.07932288 0.1211171 -0.113647096 -0.10023857 0.03935682 0.042415973 0.044785555
w 0.05272866 -0.32728314 -0.24916849 -0.08712128 -0.14621726 0.045439135 -0.04436772 -0.088338576 -0.077957824 -0.0809854 -0.168519 -0.0969133 -0.08278281 -0.16679278 0.11902659 0.073832504 -0.1439504 0.055352382 -0.11271021 -0.06873447 0.041646726 0.16713528 -0.26042736 -0.07761833 0.02011329 0.0010589409 -0.12942915 -0.0606006 -0.16913757 -0.031739235 -0.06735266 -0.1620713 0.008278088 0.08018671 -0.0950124 0.19524246 -0.004679981 -0.06614423 0.1369902 -0.11249864 -0.09752368 0.053737763 0.08551882 0.051541757 0.057238355 0.036635324 -0.082076766 -0.0015976016 -0.12565066 -0.08530021 0.0701082 0.20993048 -0.032044657 0.14163613 0.06872921 -0.13853158 0.023136023 -0.01307045 0.046786066 0.007353661 0.04804712 -0.057920985 0.022746097 0.006474437 0.05478867 0.29622418 0.09286021 0.10221494 -0.1970661 0.017170984 -0.129736 0.01476274 0.2690335 -0.009444325 0.061859068 0.17431019 0.084563226 0.02583782 0.15892655 0.05789356 -0.0013522548 -0.0082799 0.1334692 0.0015683682 0.07725567 -0.08563732 -0.036070757 0.02667052 0.083870634 0.008429091 0.13857862 -0.04095396 0.04531278 -0.11336886 0.051920317 -0.019548511 -0.052072465 0.10379624 0.07951957 0.032523774
y 0.047734443 -0.21214737 -0.2104743 0.06826208 -0.12599225 0.12059211 -0.00016556057 -0.14588904 -0.015593354 -0.012956367 -0.08049887 -0.014042397 -0.115942046 -0.07123592 -0.13728365 0.084624216 -0.0034822829 0.2129765 -0.16920768 -0.106189296 -0.05322793 0.06771132 -0.11158016 -0.06814988 0.013536298 -0.015886895 -0.1423157 -0.067929864 -0.31520516 0.06498868 0.05226558 -0.19637212 0.09441043 0.05447905 -0.12493229 0.24930373 0.024538413 -0.008110226 9.2080496e-05 0.0118604405 0.060639974 -0.08855149 0.29561406 0.055705804 0.0044425316 -0.04249329 0.039667755 0.040352006 -0.103124075 -0.13067372 0.021966403 0.16481927 -0.20596899 0.061287127 0.04255165 -0.15674233 -0.13344075 -0.023039587 0.051024903 0.1217689 0.0658684 -0.042342305 0.21461149 -0.05190969 0.054988034 0.17937027 0.011770116 -0.04685766 -0.05251359 -0.024297882 0.10629671 0.0041311616 0.28814822 0.05325142 0.10256264 0.23073465 0.10274839 0.06746045 -0.015905173 -0.14460619 -0.07438541 -0.030417057 -0.103121564 0.003845936 0.00017804648 -0.15774779 -0.07474042 0.09146274 -0.08158984 -0.050756384 0.023287535 -0.0013143303 0.08433252 0.03678225 0.123061776 -0.026006617 -0.0728426 0.035178985 0.012895539 -0.0015555506
g 0.019526336 -0.25491062 -0.31330812 0.121673435 -0.19845116 0.08135893 -0.036926974 -0.13401474 -0.07738125 -0.06384309 -0.15965602 0.02610345 -0.008096994 -0.06246725 -0.016179772 0.06002138 -0.085995905 0.13434911 -0.15180843 -0.023168 0.05489594 0.22923672 -0.21257558 -0.0018186092 -0.009394533 -0.038082685 -0.067736216 0.03359047 -0.33273306 -0.07800516 -0.044530604 -0.22969694 0.15496475 0.07638482 -0.166019 0.24851306 0.023935568 0.10449456 0.18820731 -0.09994308 -0.0072340197 0.028606812 -0.061830316 0.026862625 0.081604294 -0.008320636 -0.11002299 -0.06638151 -0.023707978 -0.11462359 -0.046550095 0.18141413 -0.13817455 0.08976837 0.060632206 -0.12337591 -0.09225638 -0.056010548 -0.026120298 -0.0778415 0.015477165 -0.007002426 -0.026040718 -0.01712913 0.0108747855 0.1327718 -0.0007979923 0.058899205 -0.119948864 -0.0064347098 -0.10648554 0.017114038 0.1925957 0.0016960282 0.07777636 0.16892153 0.04128676 0.016490843 0.11475426 0.044318166 0.03639711 0.060713332 0.07428922 0.05925474 0.08647055 -0.08020971 -0.084447265 0.11047949 -0.05102021 0.0012772455 0.05535282 -0.09360291 0.03723875 -0.051761515 -0.03384791 -0.022891887 -0.0082742805 0.09255171 0.007066788 -0.015881654
p -0.030542802 -0.27335608 -0.2797961 -0.036966484 -0.06747551 0.10898039 0.008869435 -0.27635884 0.017582573 0.009627105 -0.113055415 -0.056455415 -0.14526528 -0.10695873 0.033685792 0.1507629 -0.11953037 0.16546257 -0.20201446 -0.16208738 0.056304 0.19528338 -0.13694687 0.032333724 0.008836717 0.02674333 -0.11252976 0.028787596 0.01670885 0.031416923 0.012019435 -0.09527324 0.016410617 0.029361831 -0.12471109 0.1792196 -0.09083516 0.06993888 0.16455686 -0.05404928 -0.12649243 0.09827507 0.1373397 0.0042898064 0.049866796 -0.0621276 -0.06458704 -0.00017789734 -0.08957474 -0.01878103 0.070648715 0.15891391 -0.05647457 0.18628466 0.15553573 -0.12086008 -0.022448627 0.024051603 0.04540592 0.025686225 0.052310783 -0.11875651 0.23861936 0.014256288 -0.08986609 0.082508825 -0.08637078 0.0531478 -0.051366586 0.08569794 0.022753092 0.06061162 0.3100325 -0.06688867 0.11186308 0.20901212 -0.031936266 0.040780645 0.025295509 0.06297003 0.027010769 -0.013947193 0.08408775 0.06733803 -0.0022429537 -0.07125205 -0.038038425 0.04760236 -0.042242732 0.060699362 0.038499247 -0.062014665 0.033206657 -0.064698175 0.14572543 -0.07387178 -0.068873994 -0.026655992 0.047442418 0.1365314
<s> -0.05182977 -0.042346176 -0.28086394 -0.18034755 -0.03703666 -0.27141038 0.023510488 0.07212232 -0.13490434 0.009016187 -0.26183197 0.03309253 -0.33668733 -0.18913683 -0.1153883 0.17978483 0.13723297 0.4156221 -0.3035045 -0.33502004 -0.019808557 0.18471466 -0.15064281 -0.26590693 -0.043016452 0.117254235 -0.557526 0.07221732 -0.22478998 0.2531425 0.23040695 -0.17393847 -0.112709455 0.09294933 -0.082691416 0.44072965 0.09801949 -0.13446681 -0.019451505 -0.10160477 -0.0020250226 -0.06624954 0.33491635 0.024815211 -0.008888908 0.05669487 0.08123968 0.10762479 -0.100476496 -0.13368575 0.12513474 0.04346385 0.14566404 -0.066793084 0.1011736 -0.06927279 -0.114766434 -0.12065257 0.19269858 0.19967152 0.12663181 -0.012514094 -0.109590195 -0.037955873 0.29438528 0.06200477 0.25259534 -0.1022461 -0.47111315 -0.043057043 -0.19060925 0.040488802 0.23690765 -0.05453023 0.07008688 0.11224982 -0.17929682 -0.025037643 0.30201423 0.26013398 0.27087608 0.06723347 0.32393005 0.11786679 -0.06277193 -0.2927044 0.1009323 0.20721345 0.24123259 0.10027389 0.237779 -0.22303785 0.23185137 -0.33441976 0.079102345 -0.18109497 -0.097097255 0.36904067 0.035893466 0.08513616
</s> -0.2547343 -0.20789275 -0.25012854 0.42135215 0.06391961 0.11982535 0.29042375 -0.16291253 -0.12897108 -0.17265375 -0.17219445 -0.32410407 -0.20868067 0.024099505 -0.027887538 0.044147853 -0.11530855 0.24964125 -0.2832937 -0.21753344 0.044843417 0.41368207 -0.1529511 0.23127571 -0.196928 -0.023860889 -0.11085046 0.35525087 -0.49439123 0.1488075 0.023691807 -0.40274653 -0.0101922015 0.005259538 -0.29126552 0.3286214 0.055013165 0.41329953 0.15835729 0.24662127 0.15298769 0.017148523 -0.41847783 0.19855924 0.11964598 -0.08161748 -0.35053733 -0.334246 0.45042595 0.20582835 -0.24696855 -0.16573268 -0.108164705 0.05049759 0.12238851 0.44966635 0.15489975 -0.110711515 -0.2629265 0.018088222 0.012823243 0.06211272 0.41251162 -0.17213494 -0.18283704 0.33897033 -0.07468056 0.11993471 -0.05989743 -0.09090281 0.186149 0.117645435 0.28380063 -0.04249098 0.18368456 0.3019031 0.14485988 0.065752655 -0.14422496 -0.22574343 -0.7597478 -0.0035698065 -0.057261933 0.09080789 -0.30878282 -0.17203711 0.1960137 0.078245364 0.084902465 0.10375334 0.08003517 0.22894627 0.032286935 -0.015053268 0.51164675 -0.1371389 -0.12947954 0.0137020005 -0.22919734 0.104930975
, 0.16404219 -0.1861021 -0.29881126 -0.047715027 -0.039569482 -0.011539798 -0.022297157 -0.008664936 -0.0087430915 0.07580968 -0.2552013 0.06411985 -0.16819523 -0.07478194 -0.04913534 0.1295086 0.035592325 0.3524079 -0.22907402 -0.12292664 -0.13589787 0.17530003 -0.2730284 -0.1332855 0.02144971 0.020204863 -0.20351577 -0.011840921 -0.22518435 0.11746276 0.025365215 -0.1121184 -0.08843635 0.06429793 -0.06386854 0.1386931 -0.03214687 -0.1305815 0.05482509 -0.21865067 -0.09774339 0.049310762 0.27782547 -0.019298801 0.02051549 -0.002789328 -0.083894074 -0.104151 -0.08544951 -0.056655437 -0.094634734 0.021839818 -0.2170555 0.0329809 0.06801944 -0.0082589 -0.23534144 -0.033386435 -0.049453836 -0.022887092 0.1498797 0.016267005 -0.01175296 0.05728425 -0.052446097 0.25500438 0.047073614 -0.085569836 -0.09890882 -0.018392801 -0.03987803 -0.034813985 0.12778327 -0.05750561 0.13677345 0.25900003 -0.17373072 0.03823405 -0.0750144 -0.045806043 0.20901248 0.01936137 0.026525294 0.06555231 -0.008277636 -0.0076544895 0.0054077716 0.036909156 -0.096735045 0.08867195 -0.08829041 -0.111150526 0.13685761 -0.19309637 0.1350943 -0.15532927 -0.24574453 0.13690448 -0.007855751 0.16213848
b 0.07612731 -0.32798195 -0.34332016 0.037383545 -0.028830783 0.09222894 -0.05685119 -0.13161227 -0.011887141 -0.02764148 -0.037903097 -0.059703037 -0.03641677 -0.08825806 -0.019794144 0.055676322 -0.10208501 0.022368416 -0.0009483812 0.016737452 0.123338714 0.19721301 -0.2511113 0.016076826 0.015970519 -0.03205389 -0.12193878 -0.03593815 -0.2806973 -0.02758027 -0.023636345 -0.19892126 0.022211742 0.09590478 -0.027862608 0.11034996 0.058433484 -0.0051154257 0.060056992 -0.03922381 -0.15751079 0.04222263 0.18586317 0.08189118 0.06915012 0.0872189 -0.046615206 -0.019396907 -0.105369285 -0.15006125 -0.04191156 0.19620964 -0.067865826 0.07908832 1.71681e-07 -0.08775851 -0.10987797 0.015127139 0.118750855 0.012719285 0.2243675 0.049066555 0.250046 -0.081410654 0.059323177 0.14725439 0.013672147 0.032412827 -0.12550382 -0.0013263018 -0.022133538 -0.0374972 0.22086257 -0.015150547 0.056738418 0.14179145 0.06797427 -0.013828183 0.119775675 0.046320193 -0.02292142 -0.014867425 0.058152955 0.017848505 0.08050446 -0.0037394802 -0.07446529 -0.0069236765 0.09514893 -0.012087283 0.07358278 -0.06644193 0.14212237 -0.07260084 0.16017811 -0.0983798 -0.011873103 0.05458199 0.075252526 0.07246296
v 0.06899539 -0.20090379 -0.19413643 -0.12093308 -0.050215952 0.02081424 -0.10450129 -0.15008783 0.0016113553 -0.09461963 -0.16929162 0.031173648 -0.13390094 -0.034291416 0.032449175 0.10935556 -0.14769274 0.14783113 -0.16118257 0.017487895 0.17576618 0.31426197 -0.27823114 0.17676425 -0.008530368 -0.0091494415 -0.09636609 -0.11253907 -0.24370952 0.01177351 0.083638504 -0.21058714 0.06098083 0.07383559 -0.102345385 0.15163203 -0.124705695 0.10342618 0.02955492 -0.07740354 -0.0066495785 -0.0061506173 0.113360465 0.044334266 0.039466582 0.01888917 0.02777828 0.046562657 -0.016991865 -0.06722851 0.047961015 -0.055379294 -0.04496058 0.089238286 0.049848523 -0.12717052 -0.11201209 -0.04380527 0.10777378 -0.04839593 0.086584955 0.008821728 0.18911113 -0.1239217 -0.07293339 0.20560524 -0.110642605 0.04372513 -0.028336301 -0.0053612664 -0.013679553 0.08967012 0.29394126 0.031347975 0.101840064 0.3199981 0.0031474975 -0.09045556 0.10937677 0.15716073 -0.00044883706 0.013710455 0.15711321 0.006815039 0.104837425 -0.031530663 -0.06710964 0.030466896 0.080015466 0.032084864 0.08015511 -0.08460908 0.015840532 -0.068929575 0.037846353 -0.10711416 -0.08852214 0.1756153 -0.07026261 -0.014014956
. 0.020813325 -0.27072445 -0.25328252 -0.13146509 0.023330046 0.023743661 0.05311227 0.041209433 -0.17560688 -0.29436663 -0.27640963 -0.2541309 -0.23123954 0.048551932 0.16417865 0.17974052 -0.007841789 0.20716357 -0.22419427 -0.41319528 0.17932759 0.39108157 -0.103392765 0.07966493 -0.033878244 -0.04714616 0.051870517 -0.03193142 -0.16898105 0.018601026 0.050192103 -0.03281325 -0.28185695 0.014389623 -0.32784948 0.5041406 0.13219285 0.27389 0.03528697 0.1172305 0.05548332 -0.057750855 -0.24992584 0.13581245 0.32249042 0.016823102 -0.23437476 -0.16387987 0.45118082 -0.0032883522 -0.20996882 -0.11010666 -0.15919422 0.11833545 0.100284144 0.12163437 -0.053500652 -0.035011314 0.06500505 0.09442731 0.18978031 -0.120282926 0.35554466 -0.15334263 0.012162108 0.13885829 -0.24033357 0.004626963 -0.1944352 -0.15208393 0.09841824 -0.020180972 0.27239412 0.08922373 0.082104 0.20969653 0.43583295 0.1066048 -0.18814003 -0.37080482 -0.1689337 0.2456656 -0.23443568 0.292523 0.122411944 -0.16021235 -0.12812497 0.1493315 0.01371576 -0.13864228 -0.16828953 0.0506086 0.1424921 -0.06946655 0.3717563 0.16153648 0.23104908 -0.14205529 0.19510055 0.18025443
k 0.1542803 -0.31278256 -0.249621 -0.18153001 -0.24502648 0.10253212 0.044518095 -0.12045306 -0.030450787 0.0073689083 -0.27869457 -0.006026714 -0.23081103 -0.17899553 -0.04181041 0.021614697 -0.21580279 0.11411082 -0.12524524 -0.05763058 0.057348527 0.051786765 -0.20456713 0.10317938 -0.018547427 -0.0065769725 -0.06738473 -0.06994047 -0.31288576 0.0062306174 0.009615931 -0.1733107 0.09655905 -0.060721416 -0.052414156 0.104600854 0.08062116 0.008457176 0.033178594 -0.106609285 -0.08776613 -0.12903556 0.18312298 0.021072537 0.13947472 -0.095676005 -0.13856745 0.03793817 0.024163425 -0.09875265 -0.0061091715 -0.020652523 -0.045023087 0.11075217 0.067360304 0.009799028 -0.15104122 -0.13666335 -0.014710061 0.031139525 0.09045567 -0.03964683 0.09646075 -0.0074193347 -0.09235918 0.12007796 -0.040115915 0.07891599 -0.09456889 0.06291635 -0.04641425 0.09922689 0.21346839 0.08977065 0.082932554 0.114051096 0.087898366 0.07202625 0.093675144 -0.07489122 -0.013804162 0.039558638 0.10735615 -0.022456247 -0.04206016 -0.15881349 0.06503345 0.16395627 0.0065243044 -0.00681681 0.09061282 -0.05504946 0.12761992 0.054819155 0.14654711 -0.009524535 -0.08643319 0.108367786 -0.055078123 -0.0525026
; 0.2824158 -0.25439295 -0.38312864 -0.16544987 0.09871328 0.0131502515 -0.10333717 -0.018915014 0.053479552 0.15548262 -0.16058135 0.11058587 -0.16960302 -0.036530856 -0.1115695 0.22884464 -0.07377916 0.42633367 -0.2722617 -0.054676965 -0.17770857 0.24663115 -0.27868503 -0.084754124 0.051152457 -0.0712595 -0.036452614 0.041136365 -0.38475975 0.052536055 -0.12283964 -0.08687033 -0.17548174 0.26730135 -0.028830899 0.12639675 0.004260905 -0.17000555 -0.074393526 -0.16371536 -0.18797237 0.105825454 0.1721952 -0.022136046 0.036534857 0.08760345 -0.10214014 -0.13415067 -0.114087045 -0.0342904 -0.098919764 -0.12644732 -0.2687041 0.020207355 0.12612976 0.15905291 -0.4504874 -0.014529299 -0.118339695 -0.17638098 0.21989228 0.06841612 -0.20200166 0.02560927 0.021172728 0.20021759 -0.015118502 -0.17742878 -0.1524031 0.034682453 -0.24778761 -0.13078299 0.087426245 -0.050688803 0.15789893 0.3462913 -0.2569697 -0.06741035 -0.20903888 -0.03523697 0.31805035 0.022429189 -0.06959392 0.02283436 -0.00528548 0.13253286 0.03139742 0.010316518 -0.13205424 0.13306324 -0.2443794 -0.05964047 0.16482519 -0.22574787 0.26297992 -0.20001261 -0.25872347 0.09536974 0.053315125 0.16542819
" -0.12541448 -0.2839182 -0.15586574 0.26294336 -0.45778522 0.12314986 0.15659982 0.124959975 -0.3326386 -0.36616609 -0.122186325 -0.11623603 -0.101741046 -0.016550852 -0.2239575 0.0740902 0.35462445 -0.06692369 -0.18045495 -0.40509608 0.22418474 0.16343291 0.045266494 0.051216662 -0.038256243 0.07955361 -0.22641712 -0.1953892 -0.068593726 0.1757367 0.2812883 -0.27740926 0.15725105 -0.4746699 -0.16592635 0.16673538 0.034114875 -0.01946453 0.047868114 -0.1693984 -0.06142149 0.019512717 0.4351656 -0.08376352 -0.017456815 -0.33421904 -0.020425593 -0.03216665 0.1568428 0.086937845 -0.020946248 0.17060858 -0.2699038 0.058532264 -0.09014224 -0.25305447 0.24405818 -0.046234023 0.050202865 0.13983494 0.11334613 -0.049548633 0.5990641 0.109273754 -0.13323982 0.23083583 0.09149312 -0.09512739 -0.31027398 0.0047331555 0.36201143 0.28370938 0.44102997 -0.022421895 0.19723757 0.058613256 0.23064794 0.16561161 0.2080251 0.21372865 -0.15692915 -0.09277354 0.10185057 0.33761838 -0.07766628 -0.29755643 -0.07970781 0.22594792 -0.07568859 0.027900718 0.3529489 -0.26525167 0.17964152 -0.027978174 -0.15590176 -0.1489061 -0.032072626 0.17258325 0.04530295 0.09516704
x -0.123428985 -0.25707215 -0.19908355 -0.05789237 -0.12116047 -0.028055009 -0.058501434 -0.34748805 0.043921065 -0.06970483 -0.03153322 0.100001074 -0.25808224 -0.14396755 -0.15020648 0.41468093 0.042672694 0.24821714 -0.2976732 -0.103496194 0.064316414 0.35560706 -0.35129505 0.10576143 0.056170445 0.059462197 -0.20832118 0.038014177 0.1671892 0.03404512 -0.03768472 0.12551633 0.021679008 -0.0008041726 -0.09953201 0.11081746 -0.1685289 0.14676546 0.1851148 0.09845887 -0.06434193 0.096175484 0.13588372 0.037959434 -0.03082267 0.031119868 0.07210539 0.16685323 0.32331568 0.11807712 -0.0151640605 -0.03052301 -0.18104129 0.22595415 0.13695386 -0.23256597 -0.038332935 0.11895578 0.10271955 0.061206218 -0.03992538 -0.084702134 0.13279267 0.05587355 0.030197097 -0.04331811 -0.13438047 -0.13882779 0.047035143 -0.07970218 0.17600857 0.0021166592 0.32176727 -0.074793726 0.09854152 0.25729707 -0.05582919 0.060623042 0.054673936 0.10152373 -0.009513628 0.08605979 0.05602608 0.1736273 -0.042437248 -0.12543304 0.0061888695 0.18504265 0.0009600841 0.049775116 0.04678536 -0.13526848 -0.048653897 -0.045941584 0.081801265 -0.14402126 -0.08804088 0.1055526 -0.07593658 0.031322483
' 0.17190693 -0.38922268 -0.45591906 0.14916182 -0.26567352 0.19836852 0.052224953 -0.22577727 -0.19565344 0.121507995 -0.32757723 -0.12210544 0.15112877 -0.23126577 -0.3330858 0.06872736 0.1676342 -0.09355682 -0.1325595 -0.3873422 0.19752671 -0.059155393 -0.31883636 -0.07893578 -0.002345302 -0.07145312 -0.33740598 0.008783122 -0.2198052 -0.0057225893 0.2967831 0.0008379993 0.23159471 -0.061434627 0.20444241 -0.10053755 0.22971138 -0.07194263 0.0067454306 -0.14381245 -0.421085 -0.025405662 0.124357425 -0.08355761 -0.03881448 -0.1926172 0.03304246 0.0920706 0.28370768 0.026791042 -0.06303426 0.22058935 -0.004679828 0.114776574 0.116193384 0.044763718 -0.10921563 -0.19986959 -0.16861352 0.086947605 0.38403141 0.07734307 0.0025115374 -0.0049718744 -0.16030122 0.15360184 -0.0059685092 0.17912258 -0.14127414 0.05258404 0.1168873 -0.025478132 0.27699485 -0.14519975 0.107930996 0.010629623 0.30063674 0.24069315 0.12008607 -0.1518308 0.018943831 -0.052622985 -0.044915177 0.08385833 -0.29103842 -0.25250223 0.15166657 0.22910987 0.1136058 0.0012327133 0.08605472 -0.012582462 0.3410868 -0.039033256 0.3661829 0.024325019 0.06689003 0.0723842 0.08899143 0.046290033
q 0.11934725 0.07320883 -0.35601637 0.37638807 -0.080292776 0.042031057 -0.04162246 -0.33468652 -0.08161386 0.018255122 -0.037902765 -0.011235215 0.02240361 -0.08663789 -0.14693166 0.1550466 -0.06615524 0.18737446 -0.061343413 0.030881286 0.08639464 0.2687286 -0.28199005 -0.10456933 0.05956058 0.009511159 -0.18472393 0.15023881 -0.15150253 -0.15998122 -0.16859865 -0.06223699 0.24616516 0.07416078 -0.10384395 0.10677614 0.1130991 0.19873567 0.113616824 0.088737175 -0.20308907 0.06637416 0.14626177 0.19538963 0.23031762 0.11534703 -0.30268615 -0.07696655 0.14306228 -0.06915356 -0.034272585 0.23626955 -0.1729961 0.14795975 -0.027916176 -0.015381839 -0.1314399 0.14300948 0.16948596 0.06785579 0.2291502 -0.18246002 0.35211605 0.1983168 0.00068681914 0.096281655 -0.03344799 -0.052657895 -0.03026103 0.33701724 -0.28067088 -0.042497043 0.2858642 -0.23550092 0.07790159 0.24169661 -0.28835413 -0.16809642 0.18972233 0.26509905 -0.06168267 -0.041038144 0.17836307 0.0752648 0.22167791 0.14128743 -0.24558294 0.0186528 0.08267197 0.048735455 0.13480623 -0.08750451 0.1806079 -0.07091929 0.1898614 -0.22641309 0.1837772 0.026107742 0.17971419 0.12439861
j 0.18352601 -0.067998305 -0.21544476 0.07993292 -0.094798364 0.0664537 -0.058676764 -0.26740363 -0.020974763 0.11892831 -0.08046789 0.034232967 -0.08350346 -0.17007571 -0.21941167 0.2494509 -0.08214172 0.14895387 -0.18871395 -0.15658969 0.26569876 0.1549056 -0.250188 0.12949435 0.02701348 -0.032580186 -0.14132784 -0.0013902864 -0.4166052 -0.07298305 -0.04406475 -0.14417906 0.15439345 -0.017615743 0.12815963 -0.038503263 0.13129276 0.126834 0.18030939 -0.0043778145 -0.22316687 -0.012027525 0.3034762 0.058004316 0.21722525 -0.0251653 -0.29954568 -0.10754932 0.09368325 -0.045446143 -0.03389744 0.08322466 0.045445878 0.020249875 -0.01937071 -0.22364786 -0.23245388 0.04898967 0.14791201 0.1846431 0.23792163 -0.075055026 0.34346524 0.06549811 0.064995565 -0.056227367 0.06026654 -0.08941511 -0.098573536 0.043347836 0.113330714 -0.039911427 0.19413312 -0.1554086 0.09178264 0.15627007 -0.13327949 -0.06707718 0.039930075 0.14892353 -0.21951972 -0.17557119 -0.040909257 0.0968462 -0.048698023 -0.0284508 0.036948834 0.06955575 0.028090155 0.0059555094 0.20774737 -0.0016645427 0.06834056 0.09915775 0.19671538 -0.2113251 0.045288447 0.07440503 0.1536539 0.047019314
z -0.044016823 -0.26511487 -0.15645339 0.3563809 -0.5680113 0.021933895 0.3447625 0.23196627 -0.26718095 -0.3298152 -0.14131024 0.006534329 -0.30802685 -0.110976435 -0.23101225 -0.03913587 -0.23155661 0.082381204 -0.10798181 0.08219005 0.09188842 0.00830244 -0.061459444 0.30162013 -0.016246837 -0.08713532 -0.07777194 0.013567564 -0.52041376 -0.041536663 0.0404693 -0.18264684 0.078786656 0.29438326 0.13875036 0.106914856 -0.22337924 0.14807552 0.20546754 -0.18999565 -0.17916709 0.019909758 -0.12968142 0.12439121 0.16702542 0.0030296375 -0.119920745 0.039950557 0.0791451 -0.048827942 -0.23707715 0.23256987 -0.24609914 0.16485664 0.1426657 0.057654455 -0.1771208 -0.08764761 -0.06383101 -0.0036371907 0.052833777 0.0506679 0.19541867 0.043378666 0.055870306 0.24194263 0.19302134 -0.08940695 -0.04443077 -0.15577428 0.14493234 -0.033916812 0.33740625 0.13119294 0.22270758 0.14276603 0.0061803753 -0.012764872 0.1229555 0.041956663 0.59241235 -0.11412993 -0.05113909 0.081219465 0.024046814 -0.1452992 -0.104034275 0.20489757 -0.1093236 -0.054594804 0.06938281 -0.25773835 0.11896732 0.07683046 0.11204354 0.08063266 0.00041202115 -0.19007303 0.05954656 -0.08003018
? 0.1535663 -0.20660682 -0.20607188 -0.051582877 -0.19332643 0.08582254 -0.031257138 0.42786962 -0.38905066 -0.44058448 -0.33649167 -0.19437926 -0.119448155 0.14053248 -0.071099736 0.21185327 0.3392855 0.22618829 -0.4360703 -0.7506121 0.1862691 0.28521693 -0.07856129 -0.045622203 -0.07345394 -0.0011386347 -0.014570502 -0.08904382 -0.2419929 0.12838618 0.26756024 -0.19068912 -0.16810259 -0.27190107 -0.28050366 0.35044464 0.33031082 0.05489516 -0.09120239 -0.012415891 -0.02520291 -0.13632594 0.029975636 0.11551468 0.33082557 -0.12671736 -0.27554077 -0.20965296 0.4574644 -0.016432557 -0.02330486 -0.35862523 -0.21658605 -0.05114977 -0.20763782 0.010088857 -0.052348703 -0.046313394 0.031694125 0.0020554517 0.26928905 -0.15439744 0.48455653 0.07855854 -0.03706997 0.29203954 -0.05069722 -0.106676005 -0.4775155 -0.056370042 0.07334602 0.06603179 0.32448167 0.049435437 0.138617 0.15710504 0.56217545 0.24687082 -0.14268985 -0.32486194 -0.06765302 0.25861982 -0.18559508 0.38824034 0.1955879 -0.116969615 -0.20698541 0.20831342 -0.040076014 -0.15230024 -0.047650624 -0.09937982 0.29483092 -0.018247833 0.20617203 0.0036742713 0.3619331 -0.042024035 0.26645014 0.21355526
: 0.23811744 -0.28132805 -0.36819133 0.15773912 0.06720975 0.025235213 0.0103707705 0.15687512 0.026023602 0.008686271 -0.104468875 0.09524388 -0.034031436 0.11910905 -0.12000944 0.121108435 0.34269315 0.3063587 -0.24518909 -0.39860418 0.02960483 0.21603304 -0.12622842 -0.06294315 -0.043804705 -0.023057275 -0.18251467 0.04547718 -0.2936253 0.10431267 0.16200393 -0.19235025 -0.025174603 0.00425087 -0.107168406 0.13256294 0.017974136 -0.104682036 -0.08507938 -0.28480428 -0.25538456 0.15324005 0.31065375 -0.041647192 0.12098276 -0.22120194 -0.2415349 -0.3014252 -0.15782979 -0.012287588 -0.08084269 -0.05023143 -0.3331653 -0.11904344 0.05964986 -0.21913704 -0.42349654 -0.041434918 -0.1740457 -0.14961551 0.24066593 0.14020635 0.06838173 0.14178924 -0.23640941 0.2831539 -0.07473878 -0.18706915 -0.20104995 -0.018913276 0.16934444 0.011765624 0.09316847 -0.06745032 0.24202381 0.24889238 -0.16899183 0.0666383 -0.23685841 0.115849376 0.2393619 0.0126937665 -0.087280184 0.25640085 -0.17387451 0.083325155 0.093089804 0.10216838 -0.20794609 0.17273372 -0.1893133 -0.2072292 0.23280163 -0.15649739 0.06942099 -0.30955616 -0.15306553 0.15449958 -0.027548674 0.18899329
é 0.20770858 -0.29012072 -0.32073477 0.1351255 -0.27206877 0.20044868 0.035385128 -0.12651168 -0.13265643 0.056385063 -0.2337341 -0.07076201 0.08319744 -0.10342903 -0.27372155 0.14226331 0.35608485 0.023978684 -0.24827069 -0.4717947 0.099809654 0.040872578 -0.29883355 -0.03459822 0.050303195 -0.017700406 -0.20389389 -0.071758404 -0.13173786 -0.08921665 0.14838405 0.004916575 0.19749583 -0.09171578 0.05479649 -0.067859896 0.08427352 0.027997961 0.10119154 -0.16263025 -0.35206965 0.032288082 0.21010968 -0.100640915 -0.07315868 -0.2540364 0.037559263 0.106920496 0.32159346 0.09341752 -0.08494108 0.09970462 -0.17201734 0.12687053 0.08285611 -0.08949054 -0.107025325 -0.09375929 -0.17828189 0.024975397 0.2534316 0.021020459 0.1634139 0.06200229 -0.22712564 0.11596682 -0.13755603 0.055045333 -0.03619118 -0.026794745 0.2457635 0.013837041 0.24787216 -0.122938216 0.17318326 0.22598559 0.18448794 0.21240853 -0.040931363 -0.11842488 -0.16738875 -0.0062679024 -0.16402009 0.19548292 -0.16211033 -0.13771796 -0.012338733 0.21117748 -0.05418525 0.017450513 0.01599817 -0.04030739 0.21963589 0.030967189 0.28703284 -0.057435635 0.052230135 0.046377275 0.026345896 0.077218376
æ 0.10609475 -0.29743877 -0.2500847 0.07954292 -0.10317372 0.13781743 0.052613884 -0.083980896 -0.10356055 -0.12728083 -0.17217773 -0.13002113 -0.07665417 0.02676976 -0.018967098 0.13036856 0.12448909 0.23413144 -0.2719621 -0.37664992 0.028403275 0.237872 -0.17246993 0.022509998 -0.015343431 -0.02074116 -0.034445703 0.01854618 -0.24135654 -0.021771336 -0.046616483 -0.119348265 0.053619422 0.00800802 -0.15423134 0.14300291 0.034570944 0.09858344 0.084032595 0.020197358 -0.10944793 0.03535321 0.12291992 0.0749064 0.15465423 -0.1074652 -0.2025446 -0.12895069 0.16934212 0.048970032 -0.030130843 -0.025432304 -0.1588769 0.021670148 -0.02111058 -0.033738676 -0.055925317 0.010046098 -0.026850944 0.04976947 0.083163194 -0.06386738 0.24467655 0.07530682 -0.14301394 0.16767712 -0.085648045 -0.028752137 -0.056561552 0.023796834 0.16421911 0.073684536 0.23106034 -0.058766667 0.14433087 0.28454512 0.13861611 0.08082349 -0.16361932 -0.10075181 -0.24082623 0.02739553 -0.16136356 0.18007322 -0.054531753 -0.058020256 -0.0521155 0.1042895 -0.057746835 0.004363601 0.041784693 0.017869718 0.10745496 0.034330297 0.18587565 -0.07385032 0.08464303 0.03622241 0.04693712 0.09818023
ê 0.06494682 -0.28684157 -0.27967057 0.11012329 -0.13544223 0.105234675 0.060478546 -0.025944063 -0.13955094 -0.11635313 -0.16058965 -0.13826293 -0.067486584 -0.037517864 -0.09745214 0.07706554 0.032494567 0.108376704 -0.16820686 -0.1991147 0.082813784 0.16362643 -0.23583207 0.056373026 0.0050443434 -0.022486564 -0.077861995 -0.007321605 -0.18938632 0.03877344 0.081470735 -0.13652335 0.09403891 -0.04348474 -0.11714559 0.11079891 0.050278377 0.1268534 0.0900105 -0.027283458 -0.04635994 -0.014192045 0.011270991 0.065229945 0.095046565 -0.10908014 -0.13158004 -0.11110702 0.18658979 0.039223183 -0.029940505 -0.012040423 -0.080001965 0.020850811 -0.033108257 0.07662244 -0.09281828 -0.03690749 -0.094726354 -0.021446006 0.14672644 0.0034588277 0.25769332 -0.002895716 -0.17880386 0.2853037 -0.080671445 0.07916276 -0.08317656 -0.0048346603 0.14106344 0.004759578 0.2637022 -0.007564687 0.1435675 0.21044718 0.22520015 0.15264697 -0.08126244 -0.1828571 -0.18786475 0.031744838 -0.092511974 0.111709364 -0.08171991 -0.09074046 0.037042387 0.09788996 -0.028731696 0.0068846866 -0.018869901 -0.04659364 0.10614771 0.0046929014 0.1977856 -0.031080678 0.0021442317 -0.014799897 -0.013333241 0.087197244
ö 0.038374346 -0.22454178 -0.23911008 0.048170425 0.029362256 0.07432058 0.047814123 0.0048753936 -0.09024712 -0.06723603 -0.11993616 -0.1616235 -0.077903956 -0.015315025 -0.015759794 0.07746447 0.05026549 0.12952788 -0.16854899 -0.27043703 0.06328694 0.20774919 -0.14099637 0.020237675 -0.10216905 -0.011737617 -0.0579819 0.092566386 -0.27853087 0.061068896 0.030204613 -0.21725884 -0.033593774 -0.02797017 -0.13930413 0.19429974 0.086025015 0.15940072 0.080445595 0.031514205 0.032683186 -0.040493775 -0.055147592 0.13230008 0.13052012 -0.076964244 -0.17001693 -0.17830569 0.18615887 0.011081795 -0.06507068 -0.0432805 -0.11418645 0.037403215 0.006848299 0.040045023 -0.024470886 -0.05030415 -0.061329648 -0.0066751246 0.09476011 -0.048572578 0.2828707 -0.012761237 -0.12158055 0.30529743 -0.058444392 0.08628516 -0.124367684 -0.0021418678 0.08069757 0.023594763 0.28843543 0.013434775 0.13191997 0.26626062 0.22649135 0.15395764 -0.073690675 -0.23743232 -0.3792469 0.059088837 -0.09483479 0.103307545 -0.048900116 -0.078338414 0.01602137 0.08081375 0.014098762 0.0016404602 -0.0028195765 0.045827243 0.1258625 -0.01603874 0.299926 -0.09051443 0.06612938 0.03211798 0.020246454 0.12558769
è 0.019209987 -0.22454529 -0.22384125 0.13229588 -0.05073685 0.06814445 0.09453087 0.012378382 -0.1148528 -0.13274108 -0.16720761 -0.2058211 -0.061397165 0.007882192 0.0153737245 0.03898464 0.089253604 0.10533221 -0.17653434 -0.31161317 0.07395997 0.18814483 -0.12934609 0.045932606 -0.053291053 -0.0002980684 -0.07603098 0.10312828 -0.26465192 0.0147714475 0.060211044 -0.21795064 0.027464716 -0.038289517 -0.12615147 0.14307317 0.051604915 0.17573798 0.037853993 0.08302014 0.0031826282 -0.013616018 -0.07542207 0.15547536 0.13718103 -0.088691294 -0.19508937 -0.13913375 0.18164285 0.044925 -0.012225581 -0.032245807 -0.06430981 0.049495805 -0.0018368401 0.1057293 0.043821752 -0.005012381 -0.017859252 0.059937093 0.051876854 -0.087290384 0.35747418 0.011909257 -0.17477253 0.34082472 -0.09558773 0.09305647 -0.038524248 0.03331775 0.14900988 0.075351276 0.35886988 -0.024776602 0.16117285 0.30604574 0.18940671 0.08640639 -0.06747328 -0.14823893 -0.3672673 -0.0044463407 -0.06525661 0.11984805 -0.023240473 -0.107749365 -0.025840683 0.070191704 0.061530422 -0.011987309 0.11536307 0.0717453 0.10854029 0.0010973462 0.3062662 -0.054700278 0.07427636 -0.010976198 0.034417894 0.094745606
ë -0.0028129986 -0.28358218 -0.2760867 0.09143952 0.0032590737 0.097536914 0.0639555 -0.13464476 -0.030874219 -0.088350795 -0.1266684 -0.13927136 -0.08787992 -0.0055329683 0.03240931 0.068878934 -0.03688973 0.124704085 -0.14311975 -0.1725938 0.08483244 0.23957773 -0.15200128 0.0990953 -0.05051788 -0.028939994 -0.014260577 0.09958532 -0.26418346 -0.008123667 -0.03418119 -0.17207505 0.01221857 0.010254105 -0.15235363 0.16208668 0.017948152 0.17874613 0.08220152 0.080746 -0.02466065 0.004422724 -0.060895566 0.11411898 0.15854469 -0.045086563 -0.21032025 -0.13505562 0.21885437 0.047884338 -0.049690537 -0.07720257 -0.10045364 0.0711254 -0.0063265194 0.11092729 0.02378626 -0.00847327 -0.035774585 0.037827782 0.051222134 -0.07123599 0.31085983 -0.020714693 -0.14680243 0.2369483 -0.13778561 0.06852251 -0.0052402304 0.012128917 0.13103445 0.025915504 0.30582702 -0.0017617581 0.1402103 0.29627624 0.17796199 0.108402476 -0.085287265 -0.2095448 -0.32002988 0.040877864 -0.107773036 0.08143089 -0.027683556 -0.063246526 -0.03715687 0.074681796 0.03135495 -0.009410564 0.013741276 0.07736171 0.05667465 0.030720582 0.27939335 -0.03064294 0.06985226 -0.08112962 0.016938368 0.07900906
à -0.002671016 -0.2371455 -0.2201861 0.13505109 -0.13298276 0.09217949 0.060277455 -0.02153251 -0.14420895 -0.15023835 -0.12428902 -0.12996155 -0.06369382 -0.030289784 -0.09389817 0.10488867 0.16334994 0.10534645 -0.2044008 -0.28413513 0.057404988 0.15587568 -0.10458463 -0.014500384 -0.046277594 0.0079392055 -0.09764522 0.04976107 -0.17093533 0.04622869 0.073307246 -0.15134074 0.04749044 -0.08667995 -0.12092901 0.124412246 0.07048535 0.09346458 0.11357532 0.020787328 0.0049303467 -0.025194947 0.046502084 0.06774505 0.08243473 -0.108795434 -0.14010026 -0.089640796 0.16374092 0.030743677 -0.026831329 0.024328686 -0.14684784 0.061312146 -0.05416214 -0.0051292535 0.03262944 -0.011153422 -0.026046919 0.054892287 0.09601018 -0.048594676 0.30590314 0.028568659 -0.07495167 0.2440442 -0.027400332 0.040005255 -0.12893596 0.0003261809 0.112057045 0.06126099 0.2911427 -0.026878398 0.14176795 0.197086 0.19016512 0.13490795 -0.00952235 -0.123139866 -0.3056875 0.03587608 -0.06349743 0.1537171 -0.052330527 -0.13604991 -0.008441292 0.11029691 -0.0088078305 -0.002834118 0.086885154 -0.019881507 0.1227282 -0.011404371 0.2028066 -0.099209495 0.025156401 0.060986523 0.010495688 0.089273326
ô -0.0155337155 -0.2600164 -0.24247834 0.09284555 -0.0031310564 0.10797446 0.033989135 -0.15738238 -0.015582819 -0.1034228 -0.09408714 -0.14537944 -0.08178524 0.0183721 0.044877216 0.09626384 -0.070003115 0.12374627 -0.13525178 -0.13505416 0.08629536 0.23694097 -0.13771452 0.10253659 -0.03925634 -0.035333164 0.004042156 0.04898288 -0.20247456 -0.0058652144 -0.042765025 -0.15590572 0.023089219 0.002639426 -0.16333356 0.1675925 0.024289181 0.15077332 0.07803726 0.09473873 0.02197441 0.0044733104 -0.08258635 0.12484716 0.15616956 -0.048900116 -0.20565234 -0.12798046 0.17034812 0.036446545 -0.02299701 -0.055791497 -0.06918385 0.068860546 -0.0086935265 0.082484245 0.05991042 -0.00583531 0.005108663 0.046115525 0.019167973 -0.08047838 0.32040536 -0.033315845 -0.14035217 0.24300294 -0.1402796 0.06769889 -0.025771892 -0.0067333085 0.1430937 0.04576403 0.32373932 -4.5844925e-05 0.12723064 0.29346284 0.19791074 0.06558264 -0.09667736 -0.17631972 -0.33914018 0.039136253 -0.06936312 0.08427177 -0.008495446 -0.039305646 -0.02876253 0.040167753 0.031874757 -0.0015549097 0.024332076 0.0796211 0.025612723 0.036626518 0.2221856 -0.022074174 0.032068316 -0.03710438 -0.004554676 0.07893608
ñ -0.032053396 -0.20340414 -0.1714296 0.23545709 -0.15541674 0.10384374 0.12773591 0.013728524 -0.1777219 -0.22833396 -0.13120672 -0.16485646 -0.07080355 -0.016557628 -0.062354352 0.07286215 0.13393357 0.11228201 -0.2092916 -0.31671628 0.07537756 0.2043152 -0.10468192 0.061679795 -0.083771944 -0.0035269738 -0.08244032 0.06393958 -0.25778967 0.04975394 0.06741878 -0.21434689 0.023949072 -0.0792137 -0.14179596 0.1625814 0.036321856 0.15988386 0.099199854 0.015253238 0.02213 -0.025355779 -0.058380913 0.1479933 0.17114954 -0.13923198 -0.22094841 -0.18017389 0.21264838 0.05699312 -0.03812479 -0.03759586 -0.15029441 0.012592946 -0.09282173 0.07098303 0.046967868 -0.027443338 -0.055008907 0.025914434 0.054407526 -0.07433475 0.4326775 0.055706568 -0.19323272 0.36103356 -0.063174464 0.05514305 -0.08357406 -0.009341934 0.21553159 0.092025764 0.3225432 0.011179927 0.18453845 0.24514216 0.1771055 0.113530904 -0.046824995 -0.10980821 -0.25275233 -0.03681001 -0.071389206 0.14551958 -0.047492966 -0.11702243 -0.0018303726 0.083940394 -0.0082547255 -0.008107819 0.09302405 0.015489755 0.088548124 0.046141252 0.22953187 -0.07606605 0.07092078 -0.023934567 0.037840325 0.08421997
ä -0.0005581421 -0.21217445 -0.22793344 0.07424787 -0.030891705 0.045528818 0.05827931 -0.0123248035 -0.0966405 -0.10835583 -0.13483389 -0.14686982 -0.08777784 -0.04130082 -0.0052657924 0.0752242 0.05222307 0.112618096 -0.15010488 -0.20509328 0.057938088 0.17444731 -0.12417701 0.022325315 -0.058886424 -0.0030211401 -0.090073384 0.077863395 -0.21821791 0.02248835 0.025112309 -0.17843422 0.019939952 -0.04480153 -0.13436271 0.18089926 0.092822045 0.15524058 0.05829738 0.09485964 0.013054801 -0.030430453 -0.027362674 0.1397232 0.11313568 -0.049514357 -0.16298231 -0.092146225 0.19807015 0.023617897 0.0024603663 -0.06787444 -0.06574426 0.036250602 -0.024975808 0.062357016 0.020411635 -0.006254054 -0.01283085 0.02659687 0.075043604 -0.04670999 0.25651312 0.005505673 -0.07546858 0.25345945 -0.03659372 0.054157685 -0.0808502 0.005804024 0.08758262 0.03737132 0.31116 -0.012438925 0.12957682 0.26489207 0.19729944 0.116114415 -0.018414365 -0.15721671 -0.29999423 0.040730536 -0.05262816 0.09236481 -0.020695621 -0.11984381 -0.006503359 0.10114091 0.074201114 -0.009797863 0.08846384 0.025988659 0.0778067 -0.0013919128 0.21365637 -0.06293824 0.07646842 0.023437213 0.0007711735 0.06840366
ï -0.022874307 -0.22511606 -0.24915478 0.09101998 0.022690536 0.08441796 0.03910255 -0.12637772 -0.045063198 -0.07645382 -0.11921863 -0.14034575 -0.08532067 -0.009476299 0.039365377 0.090278216 -0.04345523 0.12782554 -0.15181911 -0.14762844 0.07641958 0.24150012 -0.12680888 0.08284718 -0.067217566 -0.031152647 -0.029359631 0.065619946 -0.2513563 0.022184586 -0.016429503 -0.17296222 -0.020132814 -0.012069277 -0.16101545 0.19480933 0.032893874 0.16372336 0.07007323 0.08722134 0.027989082 0.00056499627 -0.10888908 0.13410836 0.14277314 -0.010231715 -0.1864502 -0.12246257 0.20478147 0.042156424 -0.034222715 -0.09863652 -0.056509227 0.061569937 -0.0045684474 0.085661285 0.02455641 -0.004576139 -0.023664784 0.017823717 0.034899443 -0.05885729 0.2944924 -0.043460354 -0.1166754 0.24056137 -0.14788963 0.06460073 -0.021366052 -0.018163469 0.119645126 0.0389894 0.28158575 -0.007013812 0.11120268 0.27345082 0.15608318 0.066396035 -0.063128054 -0.15957765 -0.34773195 0.041592345 -0.068575345 0.07561108 -0.02900622 -0.06016049 -0.007085694 0.05128423 0.051453657 0.01408169 0.031162353 0.06270324 0.030331424 0.013957637 0.2374953 -0.047562726 0.041491143 -0.02579919 0.0025323762 0.07237682
â 0.009492176 -0.22745134 -0.23479815 0.12458041 -0.07647272 0.079715095 0.07791156 -0.044621658 -0.1254395 -0.115886405 -0.14591074 -0.13135597 -0.07119976 -0.026128668 -0.050803304 0.10279047 0.08374066 0.1330738 -0.19473639 -0.2468061 0.059751447 0.18884525 -0.1203069 0.017916817 -0.04979877 -0.012781869 -0.07546442 0.047220457 -0.20641297 0.038387474 0.040301293 -0.12058849 0.016121514 -0.03112897 -0.12952481 0.16692734 0.036121335 0.12927753 0.07644045 0.015702045 -0.022332614 -0.0060669924 -0.015892006 0.09480741 0.09081652 -0.06582041 -0.1357151 -0.09665772 0.19571081 0.039967056 -0.050387025 -0.035249643 -0.13553095 0.061036017 -0.0023170768 0.0027870636 -0.029110698 -0.0036989017 -0.058625165 0.0008420658 0.09513944 -0.04014301 0.27264366 0.015975665 -0.107657254 0.23631945 -0.06793965 0.018508911 -0.07757018 -0.032912772 0.12845476 0.048278075 0.24596232 -0.007943328 0.13443984 0.20812668 0.14493214 0.09690612 -0.05673137 -0.10868848 -0.21262679 0.018745797 -0.08310588 0.11828158 -0.044734668 -0.095118344 0.008943673 0.11064286 -0.008346043 0.0038046713 0.019457944 0.0053002182 0.07614539 0.013704344 0.2272187 -0.062715285 0.040573604 -0.0014467537 0.02391579 0.072937354
ü 0.005748234 -0.24842103 -0.21655832 0.11458545 -0.039865673 0.120818734 0.04749533 -0.12041234 -0.06432349 -0.14276737 -0.11473532 -0.15718439 -0.084287696 0.015551388 0.05981921 0.07552948 -0.040045813 0.1302671 -0.15693735 -0.16336499 0.05467008 0.20685148 -0.1356114 0.09919571 -0.05704463 -0.027885696 0.010600866 0.04471831 -0.23129503 -0.017500827 -0.037474003 -0.17178826 0.014417356 0.004869626 -0.17028534 0.17655008 0.018138876 0.1924322 0.088513024 0.07216711 0.04874688 -0.01551747 -0.099546924 0.16165616 0.16597106 -0.04976 -0.21051335 -0.13169466 0.16752306 0.04538255 -0.02018279 -0.06691167 -0.095518984 0.045177773 -0.033653878 0.08850207 0.032487147 0.013321529 -0.029585237 0.0062784827 0.045770623 -0.06754542 0.34870836 -0.004807769 -0.11604431 0.25088805 -0.102688 0.05570504 -0.012510702 -0.0047295284 0.11339744 0.035304975 0.27019432 0.021067174 0.11941963 0.2807149 0.14166948 0.06311834 -0.0628895 -0.13577136 -0.2801052 0.008734999 -0.0804566 0.07256103 0.0008453803 -0.051564053 -0.034895524 0.033245012 0.018416287 -0.018659022 0.045885287 0.059075095 0.014947418 0.059273597 0.20896098 -0.029570086 0.04132588 -0.039119676 -3.1289972e-05 0.04747135
ο 0.020146238 -0.2581948 -0.22709846 0.07470306 -0.08278475 0.11472826 0.031796996 -0.11770503 -0.04304936 -0.08747262 -0.12846334 -0.09465883 -0.106201425 -0.021310939 -0.011899369 0.08574348 -0.037364163 0.09929906 -0.146756 -0.11746334 0.057363547 0.18555522 -0.15286383 0.07499064 -0.028185634 -0.016491836 -0.026628358 -0.008601123 -0.17908163 0.016658539 -0.0019595686 -0.14596349 0.014143743 -0.013407784 -0.131766 0.1430061 0.0040032715 0.1368398 0.083432555 0.033252705 -0.013426501 -0.00016215985 -0.02509664 0.087930776 0.12474303 -0.05004182 -0.16058066 -0.098688304 0.16412196 0.036654416 -0.05252277 -0.027858224 -0.099083535 0.060837433 0.0047743437 0.04611163 0.024898572 -0.027539447 -0.023777725 0.031883154 0.06178782 -0.039356675 0.27914634 -0.031668182 -0.100035846 0.20960538 -0.08535503 0.043593056 -0.04480115 -0.018833479 0.12788948 0.033785816 0.2745375 -0.011562661 0.11133226 0.25015658 0.17272763 0.0725421 -0.042196494 -0.13328528 -0.24425323 0.030405017 -0.05851889 0.0803924 -0.014133059 -0.082002364 -0.0263669 0.065075375 -0.0132741425 0.00048257402 0.041421883 0.02171847 0.049589906 0.013636571 0.17955166 -0.037518553 0.0009094352 0.004676322 -0.018665055 0.049973037
ἶ 0.05008148 -0.2632182 -0.22266842 0.055772748 -0.10071281 0.12810522 0.014181748 -0.14141762 -0.023751615 -0.04656289 -0.09922713 -0.04650763 -0.09568613 -0.0068548447 -0.031161051 0.07919733 -0.06492097 0.09319978 -0.11629478 -0.050993975 0.042057715 0.16484976 -0.16663387 0.090615205 -0.00038169397 -0.03431294 0.01320649 -0.022644188 -0.16289034 -0.0021074924 -0.014053595 -0.10519447 0.022645298 0.02927883 -0.09674473 0.106176056 -0.014138923 0.10254484 0.08949135 -0.016873637 -0.04881217 0.030353978 0.01606805 0.045250304 0.08588495 -0.031877328 -0.1292184 -0.06768699 0.10730726 0.014507057 -0.08490084 -0.010673044 -0.11034444 0.05334142 0.03193114 0.022109492 -0.009292016 -0.0058972016 -0.019214366 0.018168043 0.078425035 -0.016754735 0.21463008 -0.034594007 -0.09835431 0.13306777 -0.08242933 0.0095482385 -0.03192909 -0.026250757 0.108189054 0.022246221 0.21448322 -0.011697013 0.10936209 0.2158297 0.103155345 0.03214064 -0.06975842 -0.08988749 -0.13777618 0.021795057 -0.062781945 0.0636102 -0.018996097 -0.03325318 -0.043124784 0.034365736 -0.034646627 0.005592221 0.0027622285 0.014128275 0.06362085 0.025133967 0.12988427 -0.050008774 -0.01814951 -0.00047770355 0.00021445165 0.035789296
δ 0.045375593 -0.23365918 -0.1959823 0.04099197 -0.074530974 0.111453645 -0.0004747155 -0.11525422 -0.028832637 -0.06592617 -0.10439517 -0.04798117 -0.09295094 -0.008102071 -0.0130726835 0.08633171 -0.066097826 0.112186395 -0.12490014 -0.06507102 0.038043864 0.16549978 -0.15541145 0.08026067 -0.0038516591 -0.027763456 -0.0035677522 -0.014753277 -0.1522334 0.011738875 -0.025993122 -0.124005884 0.012660493 0.01636858 -0.10025687 0.12385348 -0.01306789 0.10431 0.09391996 0.0021831996 -0.045432057 0.019822735 0.01496534 0.050626095 0.089212716 -0.03417008 -0.115995415 -0.07444453 0.099039346 0.01517425 -0.07069775 -0.005180833 -0.11784284 0.070124306 0.015876042 0.01957712 -0.0073339418 -0.0019519675 -0.014347293 0.0045463773 0.071897954 0.00094866334 0.20191327 -0.019599712 -0.0807171 0.14466652 -0.07004631 0.0051831324 -0.024555065 -0.024872854 0.098616906 0.012085804 0.21292344 -0.011660551 0.09816723 0.2011883 0.100455604 0.05376064 -0.047160093 -0.09175202 -0.15250446 0.029909074 -0.059412327 0.08133975 -0.0056457785 -0.031159127 -0.04978941 0.04327646 -0.028986346 -0.0018823774 -0.009494158 -0.002795926 0.05188428 0.001926508 0.1363004 -0.03594969 -0.029084036 -0.0045666127 -0.02844574 0.043074995
α 0.058853332 -0.24680859 -0.2267924 0.059639838 -0.08961146 0.13248567 0.014096827 -0.1437936 -0.022772761 -0.036116127 -0.11445353 -0.062108215 -0.07219822 -0.03336379 -0.032872062 0.070128515 -0.07270575 0.09968509 -0.11099803 -0.056672826 0.055521056 0.18089768 -0.15087415 0.09020824 0.00073992554 -0.028021103 0.009569179 -0.011568909 -0.17826502 -0.0031714265 -0.021156933 -0.12998776 0.024933625 0.02088424 -0.096187994 0.11061092 -0.0014098901 0.09172454 0.08696044 -0.009253957 -0.06438689 0.01900892 0.0060937074 0.052931923 0.09644199 -0.024105614 -0.14366269 -0.08457358 0.0994791 0.0023252899 -0.06845296 -0.01027254 -0.112822585 0.053274162 0.025304046 0.03312901 -0.016552575 -0.022195136 -0.03006999 0.007514132 0.07616294 -0.017624963 0.20270345 -0.028216155 -0.09287003 0.1416371 -0.08551556 0.01935875 -0.032048922 -0.014650383 0.089915946 0.006667526 0.22657359 -0.013839258 0.10021399 0.20924874 0.1261973 0.040264867 -0.062829405 -0.10741926 -0.15166707 0.030543704 -0.06351248 0.06381925 -0.018681038 -0.04321427 -0.049942892 0.0369105 -0.036971685 -0.009134619 -0.008935498 0.008754547 0.06012073 0.02092723 0.15174948 -0.03764226 -0.013923824 -0.0025303012 -0.011978371 0.03739435
π 0.010469882 -0.19718674 -0.16613585 0.04891375 -0.02868008 0.0666789 0.032669313 -0.09515399 -0.028914452 -0.055193298 -0.087195255 -0.082534954 -0.066832505 -0.020678923 0.008652459 0.064149655 -0.036559686 0.06719018 -0.08873627 -0.087668896 0.048775923 0.14249177 -0.10844132 0.043097146 -0.022943383 -0.017760647 -0.024099689 0.022956781 -0.14051598 -0.012502631 -0.007268751 -0.08825324 0.02702675 0.015445465 -0.084589474 0.10257019 0.02156367 0.11304997 0.06935272 0.033382397 -0.013131564 -0.002996119 -0.026329184 0.055258956 0.09265217 -0.021648929 -0.12135183 -0.04681341 0.13412836 0.019424912 -0.04085737 -0.019029254 -0.04485937 0.057875223 0.014226936 0.037897542 0.007377662 -0.02255576 -0.004637973 0.025421202 0.05294561 -0.028285597 0.18323712 -0.030692628 -0.074051194 0.13511772 -0.07912489 0.04479084 -0.027887696 -0.0048701763 0.07983007 0.024257207 0.19833817 -0.0055951057 0.083019 0.17696358 0.1273695 0.05310773 -0.0331368 -0.11501869 -0.17096941 0.028256828 -0.04396027 0.061736163 -0.015371373 -0.04120937 -0.025607007 0.043834098 0.00817193 -0.023259487 0.016037924 0.038252674 0.048938397 0.027872073 0.14188503 -0.006765777 0.017020749 -0.008787132 0.010530439 0.03856424
ν 0.00477369 -0.17484038 -0.16549051 0.06889699 -0.03189317 0.06828816 0.04445041 -0.06047008 -0.042959817 -0.046781056 -0.09823753 -0.08710282 -0.046785682 -0.02443938 -0.011651058 0.051557478 -0.011509389 0.077853374 -0.10390801 -0.12083774 0.061155654 0.14074555 -0.100026876 0.043076254 -0.043680936 -0.024141401 -0.024056131 0.033501837 -0.16805227 0.01179445 -0.0047486704 -0.11983916 0.027558807 -0.0077834087 -0.08456445 0.11260604 0.02341173 0.11569146 0.060144216 0.04738533 0.005398263 -0.0051303753 -0.044917062 0.07320963 0.1012703 -0.038004395 -0.12241203 -0.08187496 0.14250965 0.013235394 -0.025902182 -0.039238084 -0.053089093 0.039827023 -0.005115328 0.051665936 0.002325241 -0.026134819 -0.01877066 0.022094358 0.0423938 -0.034474306 0.19914483 -0.01572938 -0.077437274 0.17285877 -0.06971322 0.051760208 -0.036862988 0.0010739318 0.08025699 0.03657459 0.20113426 -0.013898567 0.09347714 0.17172483 0.12684439 0.053943902 -0.043105204 -0.11208211 -0.21121882 0.021619955 -0.040739357 0.05963333 -0.029698702 -0.058591027 -0.017622657 0.045217093 0.025271077 -0.0019632624 0.03140274 0.025252404 0.064621754 0.012575943 0.16881602 -0.034054235 0.02602505 0.0014051654 -0.009056123 0.061017297
υ 0.014609635 -0.14634077 -0.14783198 0.053345505 -0.040775433 0.054925203 0.02691622 -0.06829043 -0.05310133 -0.05331496 -0.081647076 -0.07568386 -0.048286393 -0.02193963 -0.015608343 0.049905177 -0.015367404 0.07140245 -0.0847341 -0.095565595 0.051083054 0.11279143 -0.09034043 0.032590978 -0.030174874 -0.0058029615 -0.027332716 0.007776061 -0.13533157 0.011450442 -0.00028582977 -0.08894673 0.019410701 -0.0006838846 -0.07907145 0.08695741 0.023052683 0.09938483 0.054412413 0.021442318 -0.0046397555 -0.002438506 -0.008567344 0.06192986 0.06919276 -0.03906673 -0.09565668 -0.06244196 0.12380249 0.0029237152 -0.035057902 -0.019406324 -0.042345703 0.027326185 0.0065742983 0.0198482 0.003367929 -0.010447127 -0.014623734 0.02711243 0.0503943 -0.029740766 0.16527146 -0.0038241353 -0.060396835 0.14437954 -0.051906772 0.025600437 -0.040220518 -0.005652561 0.058951266 0.021294152 0.18224558 -0.012102417 0.07812883 0.1552985 0.1074116 0.060765352 -0.015587436 -0.09855333 -0.14392869 0.030183077 -0.038496252 0.04614042 -0.025935303 -0.0627152 -0.007201508 0.053399984 0.018784486 -0.005236907 0.023811433 0.018442128 0.035611995 0.00033961848 0.13071117 -0.034662392 0.018401664 -0.0028999671 0.009978934 0.034278903
ς 0.013437452 -0.15142061 -0.14161442 0.04882243 -0.03362505 0.055898532 0.03785688 -0.053854354 -0.038142074 -0.06924561 -0.08183694 -0.08296192 -0.05318883 -0.021671308 0.0070435735 0.0534342 -0.014264554 0.0583063 -0.07546517 -0.09030178 0.053327233 0.11468255 -0.08820968 0.044841297 -0.037406534 0.0017896158 -0.028071668 0.024756739 -0.12945417 0.011045683 0.005711124 -0.106682904 0.007419753 -0.010891854 -0.07505962 0.0958806 0.018615292 0.094880715 0.043748353 0.046438538 -0.00034865894 -0.008808761 -0.037261557 0.05935569 0.08336161 -0.03197805 -0.10695974 -0.068506084 0.11512687 0.012311138 -0.02365856 -0.018248815 -0.042371213 0.031703133 0.0035404242 0.03039607 0.03249267 -0.008695291 -0.010845336 0.029910507 0.03413093 -0.040454727 0.1873438 -0.020340279 -0.063052975 0.13448046 -0.049840577 0.028933765 -0.028324781 -0.016701268 0.0666732 0.025045928 0.16533472 -0.009827903 0.07227695 0.15008773 0.1131105 0.059614234 -0.033813678 -0.08833881 -0.19465034 0.025579296 -0.029065268 0.060157277 -0.017552797 -0.04697429 -0.027774636 0.036678083 0.016070435 -0.01875828 0.03576207 0.037395664 0.034648824 0.007217049 0.14156209 -0.026790028 0.01808785 -0.010760737 -0.001975217 0.049382485
å 0.0064906897 -0.13479489 -0.12485624 0.0450427 -0.024860108 0.06213036 0.019383589 -0.076175936 -0.021563822 -0.05537339 -0.058202937 -0.0710647 -0.052341733 0.001532249 0.010217752 0.047549043 -0.021737255 0.06643971 -0.07653648 -0.05625938 0.025139315 0.107208714 -0.097721145 0.058233917 -0.013573995 -0.018747987 0.0024513726 0.025569161 -0.105001375 -0.005005026 -0.015224607 -0.08574295 -0.0031358344 0.012483858 -0.07640816 0.08615354 0.013367673 0.090152815 0.061878383 0.03158036 0.0018643632 -0.0038875975 -0.03738415 0.0677668 0.070451096 -0.017446592 -0.10445891 -0.05375897 0.10277185 0.020467415 -0.040657263 -0.034749433 -0.047192484 0.034623165 0.012146513 0.038057778 -0.005905216 0.0018865778 -0.023320183 -0.006640371 0.03126783 -0.018579416 0.15308487 -0.021801041 -0.062943205 0.11994634 -0.058887385 0.027743405 -0.0011904063 -0.016980678 0.06358618 0.021192573 0.14581549 -0.015699593 0.066381015 0.14679502 0.08876664 0.028223861 -0.041739244 -0.08018016 -0.14024791 0.01939326 -0.044231273 0.05028598 0.0073149577 -0.02619489 -0.030235657 0.020364806 -0.005018295 -0.0053196577 0.00029915606 0.024581838 0.013231854 0.015469463 0.12421378 -0.015122592 0.009953145 -0.020193014 -0.00066624786 0.034538105
ç 0.007956628 -0.1282868 -0.13380685 0.06193477 -0.015277872 0.06636226 0.025418246 -0.07434691 -0.02185195 -0.046957307 -0.059096865 -0.057525128 -0.050040424 -0.0017102232 0.007873601 0.03336196 -0.011996701 0.070923805 -0.08399038 -0.07673604 0.026350899 0.10950566 -0.07982895 0.03499691 -0.014243095 -0.02385848 -0.014387587 0.008055839 -0.111560196 -0.0032017776 -0.026957536 -0.08917495 0.008623056 0.0065692076 -0.089439526 0.08303417 0.0069726277 0.09465804 0.055746917 0.035244323 -0.019217506 0.015737316 -0.0157978 0.06002944 0.07190341 -0.018963885 -0.11399881 -0.05934227 0.09802494 0.025085013 -0.02908863 -0.028510813 -0.050847825 0.024151698 -0.0012745076 0.041130368 0.018681997 0.00042738573 -0.02898714 0.01590377 0.03808963 -0.018327374 0.15057509 -0.009145508 -0.061727062 0.09495191 -0.076794535 0.02060423 -0.0017330227 -0.015941732 0.06481189 0.014975024 0.14017808 -0.017486501 0.061961003 0.13204595 0.06207614 0.025966223 -0.051682502 -0.080171786 -0.14362723 0.0027304487 -0.04263477 0.05245621 -0.005149702 -0.010254039 -0.020291757 0.021847818 0.005481285 0.0005212892 0.015233327 0.044726614 0.039169636 0.020080158 0.12219897 -0.028288968 0.0016072209 -0.010949741 0.00038235565 0.031493623
î -0.0077672214 -0.1442601 -0.11350487 0.054897714 -0.029483337 0.0648843 0.037710015 -0.05578114 -0.04066785 -0.068476334 -0.07064337 -0.08567228 -0.06418519 -0.019020556 0.012663142 0.041912418 -0.027694805 0.06010181 -0.08488679 -0.08493564 0.030079994 0.11562818 -0.07722328 0.0570773 -0.021388944 -0.017887097 -0.0024549179 0.011497894 -0.12912153 -0.00450136 -0.018171556 -0.09074803 0.0056362487 -0.015588835 -0.08238636 0.09120337 0.020188987 0.0925162 0.05389683 0.045889582 0.025741076 -0.019897819 -0.029414812 0.07040299 0.07431449 -0.01882286 -0.10613698 -0.07249299 0.092116974 0.026631515 -0.03354332 -0.04014854 -0.049209576 0.026764693 0.002593938 0.032068625 0.01243345 0.001971397 -0.014101963 0.02840017 0.025528986 -0.021736754 0.1669491 -0.024862552 -0.061522722 0.121767476 -0.040058512 0.031696256 -0.023384346 -0.007310032 0.0734978 0.029451037 0.16018237 -0.008652546 0.07711547 0.14410242 0.09799056 0.04990041 -0.030230178 -0.10564201 -0.16732979 0.021242153 -0.04540147 0.051213037 -0.009928851 -0.03261264 -0.020312998 0.035612613 0.025451785 -0.019540539 0.02261638 0.029164892 0.038101267 0.02529575 0.11407886 -0.022361102 0.019726437 -0.017130617 -0.0022060887 0.028143367
