60 100
_ -0.032889582 -0.020136712 -0.079964735 0.030919207 0.15277392 -0.014770191 0.027031988 0.003102252 0.068960994 0.096121706 -0.016238824 0.035278764 -0.080368795 0.008634665 -0.03464363 -0.013844731 0.051241506 0.058556303 -0.034539003 -0.12205495 -0.061076093 0.09452562 -0.021488357 -0.09253862 -0.07005684 -0.016186208 -0.04804235 0.017619733 -0.11461483 -0.012948778 -0.10015134 -0.038950257 -0.08651992 0.281841 -0.062471937 -0.004164617 -0.067632146 0.016296271 0.059559744 -0.18035585 0.019728374 -0.05946447 -0.018144194 0.043677155 -0.027174933 0.0015546212 -0.010533668 0.05221242 -0.03963072 -0.13855183 -0.05196295 0.032830607 0.03730178 -0.07268604 -0.013516406 -0.0912192 -0.10443644 -0.075497076 -0.0041872575 -0.041092686 0.293645 -0.055839572 -0.00564271 -0.086549535 0.026614478 0.055428285 -0.039810214 -0.036147974 -0.17616676 -0.21068446 -0.11467489 0.105929166 -0.004163815 -0.07075846 0.047075376 0.37136206 -0.008057948 -0.012785711 -0.0011111331 -0.075727046 0.24678954 0.120234996 0.034925055 0.015234455 0.019523017 0.11106379 -0.08963486 0.048164126 0.028469438 0.08265963 -0.040114313 -0.07685625 0.089981034 0.04638764 0.061558623 -0.053453643 -0.045191806 0.07038839 -0.080300346 -0.1107987
e -0.015569477 -0.080982365 -0.13784389 -0.031271312 0.28600284 -0.035361037 -0.0013316517 0.015197241 0.13418533 0.12543252 -0.01046989 3.88153e-05 -0.14344598 0.07022579 0.036953855 0.07887703 0.011940327 0.023999881 -0.019855125 0.025030572 0.043292116 0.07258825 0.023566216 -0.059095144 -0.042922284 -0.037199978 -0.115201615 0.044390887 -0.10657708 -0.013035807 -0.07805928 -0.04094781 -0.044864174 0.2708351 -0.041496377 -0.0578008 -0.053326037 0.096639365 0.08983812 -0.1398073 0.050629504 -0.042714525 -0.082929656 0.08303689 -0.072919816 -0.14005443 0.015362485 0.11591996 -0.04828229 -0.090706356 -0.07057646 0.06096472 0.07905153 -0.030670458 -0.0272968 -0.07914969 -0.08866741 -0.06280293 -0.046411462 -0.037622545 0.13738146 0.0049387133 -0.040126514 -0.017972188 -0.028693695 0.08545737 0.020523068 0.013378444 -0.17743558 -0.175807 -0.09379656 0.12340693 0.050112832 -0.07192147 0.04763015 0.44205865 -0.017184326 -0.027378691 -0.04084265 -0.15304376 0.17815554 0.06753424 0.029300608 0.0019328481 0.08988293 0.08340893 -0.04267738 -0.027772756 0.00771774 0.059686013 -0.042537276 -0.045993797 0.023038754 -0.04436109 0.09832028 0.020619292 0.0020296057 0.039208155 0.08925985 0.031871587
t -0.0019098656 -0.021637153 -0.13007088 -0.020470476 0.117614105 0.020067127 0.010397711 0.021277256 0.003675879 0.076517 -0.039109778 0.03701131 -0.06600173 0.03027948 -0.0044679493 -0.009242624 0.06345053 0.08331253 -0.06493586 -0.11685024 -0.1099325 0.07043219 -0.032947343 -0.18010251 -0.0714837 -0.072889656 -0.12762907 0.031289566 -0.15985507 -0.10498984 -0.19866152 -0.01485236 -0.026598496 0.1758485 -0.011678775 -0.0044408166 -0.048876215 0.06503083 0.05592722 -0.13452728 0.0016718132 -0.08696317 -0.07961626 0.12346783 -0.08254292 -0.03378303 -0.022492161 0.13048016 -0.036021072 -0.1291691 -0.04636638 -0.014547668 0.07409833 -0.12474043 -0.048279032 -0.120711036 -0.13407132 -0.11489653 -0.0042334395 -0.026187992 0.15988727 -0.08478116 0.032685004 -0.07393053 0.061800495 0.008629481 -0.0006379584 -0.069656365 -0.08804274 -0.08973525 -0.08821376 -0.0068694046 0.045022886 -0.06686242 0.048176467 0.5126419 -0.023873884 -0.006689089 0.02587225 -0.10634677 0.08577386 0.13613686 0.062186565 0.10603952 0.02595968 0.015555437 -0.018726584 0.07068856 0.046876807 -0.03943885 0.09129337 -0.07910647 0.05692058 0.030079115 0.006736294 0.018967528 0.01606948 0.06306133 0.0302721 -0.032765746
a -0.052902166 -0.067511454 -0.1345881 0.021716742 0.18440714 -0.083715424 -0.00010941013 -0.015073711 0.1037176 0.15841807 -0.07515784 0.03825441 -0.06473056 0.03540177 0.04458053 0.06967231 -0.055617824 0.07223516 -0.0395883 -0.0038247732 -0.080054924 0.14551991 -0.03578586 -0.11756941 -0.0713646 -0.14575796 -0.098089255 0.015903419 -0.03677795 -0.12861875 -0.117120475 0.031326815 -0.031862784 0.19273217 -0.04406531 0.028769778 -0.11586207 0.08601927 0.086693905 -0.25403482 0.04831742 -0.119198516 -0.040648304 0.048818484 -0.06347954 -0.1026436 -0.03452941 0.14483152 -0.04224632 -0.11326962 -0.00011420826 0.097908355 0.0720968 0.020294989 -0.06853677 -0.06830589 -0.001915727 -0.11162725 -0.09551286 -0.05534736 0.06995259 0.051615622 -0.03958142 -0.04422235 0.03216536 0.041003674 -0.022755766 0.0012882606 -0.18578671 -0.17817141 -0.11473497 0.120929234 0.12699647 0.017748276 -0.0004959482 0.34236172 0.03290883 -0.019129673 -0.07687105 -0.15682214 0.076881155 0.036311943 0.0020456507 0.031167684 0.004950959 -0.0021472469 -0.0063758083 0.04423243 0.04593606 0.0857983 -0.085118055 -0.055255294 0.06079686 -0.031012317 0.061559606 -0.047401294 -0.13920641 0.087513834 -0.023828741 -0.08702306
o -0.059407875 -0.069018185 -0.15514551 0.046424042 0.27258542 -0.087587036 -0.023290316 -0.010831369 0.015868008 0.102460146 0.014978223 0.07889277 -0.07813431 -0.02417388 0.043014105 0.020337656 0.018092103 0.0072485236 -0.026826302 -0.029599337 -0.11068369 0.04440759 -0.025331901 -0.1534562 -0.042069223 -0.07787198 -0.06503374 0.019430766 -0.055547025 -0.080574006 -0.08956659 -0.054000545 -0.038408943 0.19295862 -0.018639987 0.028606836 -0.118930824 0.069212005 0.1282746 -0.25888187 0.045570076 -0.064892896 -0.04748858 0.07834713 0.04113431 -0.062058948 -0.13269782 0.11620629 -0.051197097 -0.08188631 -0.0594952 0.012796363 0.088762105 -0.028044064 0.009784338 0.01910264 -0.062239166 -0.05453149 0.008628996 -0.045453493 0.06870422 0.05337262 0.051518932 -0.06246219 0.04752063 -0.033597846 -0.010755142 -0.02772273 -0.23298433 -0.19607532 -0.15592347 0.08662669 -0.011472927 -0.07181118 -0.012660154 0.39876896 -0.023633545 -0.009401657 -0.029708527 -0.15312958 0.14342742 0.12580796 -0.0058135865 0.005030644 0.07590614 0.06314765 -0.059684496 0.0009047647 0.076901734 0.08289544 -0.044036344 0.033162646 0.054730516 -0.04173488 0.06599888 -0.039226837 -0.07402235 0.07776072 -0.05802931 -0.06307915
n 0.0274794 -0.10072342 -0.07490773 0.015977776 0.073480844 0.034921117 0.00060544204 -0.04699257 0.16350971 0.14917724 -0.027187817 -0.010075191 -0.11356308 0.06706821 0.08267185 0.06804599 -0.011650831 0.14701079 -0.11200941 -0.17540286 -0.119339235 0.14009061 0.0015201941 -0.15683012 0.011909451 -0.13967746 -0.007889942 -0.051265806 -0.12038649 -0.072556466 -0.13260148 -0.044628885 -0.06901996 0.18685758 -0.07282357 0.028119871 -0.02531239 0.014571751 0.042424403 -0.14735486 -0.02012909 -0.02895636 -0.035833728 0.087902196 -0.07773336 -0.1310649 -0.09319535 0.09515896 -0.052326575 -0.10209223 0.004889289 0.09221262 0.0962526 -0.028592648 -0.0610765 -0.10716789 -0.038030013 -0.022331424 -0.009254973 -0.049520466 0.36354515 0.055286236 0.08129415 -0.08906832 -0.008978645 0.06169049 0.048498835 -0.013797716 0.0028904625 -0.13939522 -0.051016826 0.034226105 0.101278685 0.018699614 0.045863595 0.43816745 0.044870917 -0.0322509 -0.07597105 -0.05042613 0.13581792 0.022898106 0.046160776 0.0018659318 0.02636789 0.024226274 0.008022664 0.03393857 0.057532508 0.09208401 -0.047496423 0.023256535 0.0712334 0.0779392 0.043104336 -0.039027385 -0.060874764 0.034283977 0.044675853 0.055667635
i -0.021737672 -0.12002881 -0.099490725 -0.031937398 0.19479202 -0.124284066 0.011381595 0.048036758 0.027433716 0.06593576 -0.015425978 0.02024383 -0.1129117 0.014395886 0.043991797 -0.005579874 -0.057288934 0.04745091 -0.04625403 0.024453398 -0.17813735 0.15174192 -0.12223875 -0.1116312 -0.053712875 -0.1318518 -0.15567681 0.019284405 -0.0475224 -0.10330439 -0.12827727 -0.017361864 -0.03473813 0.21209522 -0.08398164 -0.04663989 -0.05195902 0.14396435 0.118888095 -0.11310346 -0.0072568157 -0.07338579 -0.04954188 0.054818645 -0.041369833 -0.063485585 -0.03216451 0.09133806 -0.07659659 -0.11446591 -0.04689384 0.04712718 0.13997526 -0.04612588 -0.124487855 -0.083768114 -0.101736195 -0.17305474 -0.13273251 -0.10127445 0.13698933 0.05889863 -0.022344965 -0.10026586 0.0700822 0.009241734 0.036787834 -0.041426662 -0.19016197 -0.17262799 -0.13140309 0.09805065 0.15447891 -0.01948327 0.011010616 0.3240683 0.016368581 0.021784948 -0.013112751 -0.16107923 0.13721414 0.08593357 0.012616623 0.04613741 0.027074276 -0.007839013 -0.019746844 0.05528427 0.088502705 0.08612508 -0.027869359 -0.033971425 0.032534253 -0.019215772 0.052595425 -0.018017745 -0.0706646 0.045756564 0.061402604 -0.05499818
s -0.016621917 -0.04494466 -0.20906644 0.018795365 0.1317213 -0.027789569 -0.0019513395 0.013149381 0.06153637 0.20868959 -0.05275144 -0.0015451775 -0.048984304 -0.05227706 0.03716185 -0.019448726 0.0118283965 0.025991816 -0.028372493 -0.064966395 -0.03816936 -0.020448634 -0.015247726 -0.16045769 -0.021650461 -0.088087685 0.0019624564 -0.010539459 -0.16306098 -0.10426473 -0.16134492 -0.051031265 -0.087121546 0.14580141 -0.070309676 0.058994133 -0.066009544 0.15167958 0.095236816 -0.23863225 0.041861538 -0.0057232417 -0.04136312 0.08273614 -0.014992014 -0.09555077 -0.02234433 0.07013339 -0.031388707 -0.07706451 -0.024704376 0.05856959 0.07290553 -0.02578977 -0.017478172 -0.1171111 -0.07561026 -0.0744852 -0.01302681 -0.03639913 0.25804633 0.004253289 0.02233121 -0.12591238 0.029679451 -0.0041259886 -0.06471474 -0.04356699 -0.07720934 -0.13012797 -0.062302653 0.027016476 0.12078911 -0.036783684 0.032631308 0.3935728 0.009516093 -0.021824999 0.013868445 -0.07696522 0.030939877 0.06651074 0.05613151 0.054459084 0.123099774 0.06355993 -0.11686287 0.024522055 0.07922228 0.046551 -0.02466884 -0.012765392 0.045950882 -0.02001807 0.10701572 -0.014758062 -0.05131155 0.043801636 -0.04844245 -0.11541973
h -0.04214265 -0.086893216 -0.17126533 0.06378253 0.19849135 -0.116541065 0.006773923 0.069064654 0.09216613 0.18230121 -0.06370508 0.031407125 -0.12104687 0.037478253 0.060939 0.07411611 -0.013821468 0.056017976 -0.1625724 -0.05612688 -0.09987852 0.12669529 -0.051402576 -0.15753643 -0.06715344 -0.18050699 -0.09595889 0.01955055 -0.082008675 -0.07679462 -0.06992256 -0.04708186 -0.08333252 0.27687782 -0.09540185 0.061482776 -0.102829605 0.11209782 0.09060618 -0.2549472 -0.019199537 0.042735025 -0.037567396 0.027053915 0.021407058 0.055000197 0.0020920353 -0.046863228 0.020378169 -0.08723223 0.006089664 -0.014511673 -0.0061521647 0.00044136832 -0.040871754 -0.09573446 -0.0922702 -0.02720594 0.0021848215 -0.05925407 0.27871555 0.051541973 0.036032166 -0.06333438 0.029836854 0.06338152 0.004835659 -3.0185354e-05 -0.16433755 -0.19001177 -0.15587166 0.041757073 0.113833465 -0.021295957 0.0047591655 0.37202248 -0.026765252 0.014037569 -0.045442827 0.053453706 0.04647014 0.06308905 0.018544791 0.10235867 0.043014932 -0.07630239 0.030056419 0.08435968 0.11615792 0.09002332 -0.03133995 0.03512764 0.079762176 -0.0297863 0.08638409 -0.09837781 -0.08124355 0.08190814 0.083811924 0.018079188
r 0.0032319056 -0.10805289 -0.15085505 -0.01694483 0.10399928 -0.06634425 -0.0029137132 0.017429613 0.014801806 0.12142958 -0.014437978 0.04666832 -0.01306536 -0.0766324 0.056358695 -0.028978622 0.004074082 0.0878463 -0.09272478 -0.15288107 -0.12545781 0.04679832 -0.078533664 -0.1788495 -0.06352678 -0.10413803 -0.06767586 0.010435713 -0.1135371 -0.16542861 -0.20412165 -0.045566384 -0.023487162 0.2457011 -0.043307785 -0.033381928 0.010545347 0.10868923 0.00049735815 -0.09394814 -0.015831005 0.007887822 -0.013234365 0.038715854 0.002278347 -0.12760986 -0.02297784 0.045568362 -0.041440703 -0.07314126 -0.09484239 -0.0006227976 0.04270271 -0.010123986 0.0046432735 0.010026271 -0.09126231 -0.037547786 -0.018679585 -0.04572461 0.31305823 0.055063885 0.10155316 -0.17395402 0.05384476 -0.023491131 -0.018403169 -0.058080807 -0.12943308 -0.17959216 -0.10399259 0.053197455 0.085255146 -0.042134557 0.018172218 0.39556295 -0.010819148 -0.009901229 -0.010644675 -0.020450443 0.20122562 0.05273996 -0.011700723 0.01180517 0.055502523 0.028398443 -0.05478646 0.017025912 0.052427884 0.043721095 -0.031764753 -0.034584448 0.029604152 0.0036020023 0.008262101 -0.01837893 -0.050853595 0.007192576 -0.028688194 -0.0561685
d -0.0056916396 -0.09408673 -0.11438374 -0.043494362 0.2723404 -0.09891429 -0.003997652 0.09023424 0.09562032 0.16716316 -0.06989563 0.09749165 -0.09261139 0.019306444 -0.025917212 0.02426153 -0.03267302 0.055544868 -0.15333177 -0.02254482 -0.06856127 0.05807923 -0.03698132 -0.2137468 -0.07923353 -0.07092318 -0.10623821 0.052396398 -0.09352484 -0.063298166 -0.087954715 -0.059218984 -0.062207863 0.23685893 -0.0301992 0.0028461881 -0.023563458 -0.021995809 -0.0111617865 -0.09230755 0.07864069 -0.09759473 -0.069955714 0.07160845 0.0067698895 -0.04188077 0.025903216 -0.012501973 -0.007290365 -0.029497134 -0.061837256 0.037363134 0.12763314 -0.04209624 -0.049976163 -0.07097955 -0.08235783 -0.0969115 -0.094699085 -0.05296269 0.15861958 -0.0034702322 0.01642631 -0.076681025 0.029263413 0.06745298 -0.021520138 -0.03268432 -0.070415065 -0.0044679004 -0.006655107 0.013098209 0.07138067 -0.07386242 0.023754368 0.45000735 -0.042591657 -0.023499047 0.010298487 -0.008238124 0.1786972 0.097862184 0.015564273 0.0651838 0.08903281 0.059618123 -0.10552512 0.07741998 0.0062387553 0.040304936 -0.0019870282 -0.071137875 0.05675673 -0.020891894 0.02972977 -0.019006232 -0.10030868 0.08479635 -0.049822282 -0.12475021
l -0.031156307 -0.038376544 -0.15265177 -0.03589044 0.17152461 -0.008989324 0.022488484 -0.05989903 0.087597586 0.14348224 -0.048359077 0.023188692 -0.14834729 0.024844984 0.10291141 0.04375204 -0.02801285 0.13604388 -0.13953526 -0.15450503 -0.068064205 0.07363917 -0.08092802 -0.21409595 -0.03685175 -0.08270287 -0.06384534 -0.0038569001 -0.09410246 -0.026558962 -0.051951833 -0.02065603 0.014235554 0.12600747 -0.013182797 -0.01619531 -0.08410244 0.08482944 0.0673791 -0.06322926 0.049331564 -0.0243363 -0.051712 -0.008924284 0.06950076 -0.022364117 -0.06735046 0.052753903 -0.026327554 -0.07583033 -0.054908328 0.092658564 0.15796176 0.0045894803 -0.04618567 -0.093282476 0.013699689 -0.026795948 -0.0005762106 -0.024521226 0.26858017 0.04418596 0.07457209 -0.15906216 -0.013657015 -0.025426801 -0.056232587 -0.033987224 -0.09351001 -0.105539456 -0.027547741 0.06592318 0.05147291 -0.00047601183 0.015955199 0.44485825 -0.030215582 -0.061384015 -0.0990395 -0.11826061 0.15665649 0.077132545 0.026566103 0.04035806 0.06872163 0.10728642 -0.11547605 0.061312772 0.03109721 0.08642543 -0.09525159 -0.047984183 0.06169524 -0.013298227 0.042874802 -0.029299943 -0.07330467 0.07490264 -0.0038011072 -0.072153784
u -0.033703823 0.047441162 -0.037713807 -0.039692182 0.1692507 0.015356891 -0.0086541595 0.14397672 0.028581467 0.1159306 -0.080188885 0.054638974 -0.17788374 0.0040075867 -0.09687829 -0.013352939 -0.07634653 0.114062704 0.027675046 0.04272556 -0.095334135 0.103955366 -0.10550984 -0.035585813 -0.058074716 -0.11322455 -0.058637496 -0.0738298 -0.2421379 0.0208649 -0.1756254 -0.02150645 -0.21011408 0.07692743 -0.18282153 0.072626896 -0.0677763 0.1043593 0.24063255 -0.2262993 0.07214048 -0.1486022 -0.018352376 0.06231212 -0.07170962 -0.059548553 -0.04366021 0.13746208 -0.16763465 -0.1767678 -0.08470576 0.18274385 0.051399678 0.024709562 0.020206597 -0.14901145 0.014241588 -0.103838675 -0.070865035 -0.041091256 0.18877487 0.018489324 -0.10744896 -0.17792727 0.008762823 -0.089901604 0.033157557 -0.04916912 -0.14410286 -0.16571893 -0.026331306 0.10541014 0.08227575 -0.054910325 0.085593455 0.3424662 0.071017854 0.06838586 0.03659047 -0.16971682 0.11393739 0.17516333 0.10438329 0.09460543 -0.044346724 0.064616375 -0.020176088 0.013824865 -0.09977762 -0.023421792 -0.10719936 -0.027191037 0.049344704 -0.007003101 -0.00695269 -0.0032552425 0.021579769 0.05176654 0.047402587 -0.04830167
m -0.06325046 -0.03373745 -0.112288326 -0.026261788 0.25153324 -0.005095976 0.010914741 0.028856859 0.030114226 0.15146236 -0.021238761 0.09545165 -0.09850576 -0.022208754 0.082559414 0.053354204 -0.035863552 0.07064269 -0.13249306 -0.08188574 -0.11334049 0.106869936 -0.04660056 -0.28361517 -0.112824745 -0.1356131 -0.1515395 0.0060025705 -0.07253307 -0.01035875 -0.019657722 -0.07388828 -0.009765214 0.19503023 -0.049780402 -0.056698456 -0.06668262 0.06327391 0.094388366 -0.08999936 0.09590008 -0.11316394 -0.08976875 0.06498343 -0.016119782 -0.031630665 -0.02457229 0.099768616 -0.084588684 -0.106483094 -0.123063795 0.11857363 0.06168924 0.05920189 0.046470266 -0.101928815 0.001877036 0.0020540294 0.022000188 -0.047595415 0.18927988 0.015113838 0.030121248 -0.095481284 -0.031137142 -0.0066696727 -0.058651853 0.030619474 -0.119734935 -0.077491574 -0.017577853 0.06818208 0.0043912437 -0.07995779 0.009308264 0.40224192 -0.02673149 0.0044077863 -0.008912936 -0.011144541 0.20062648 0.07345416 0.027850155 -0.030267665 0.0368336 0.08070798 -0.08079255 -0.017629905 -0.055126555 -0.027300527 0.007302701 -0.056090083 0.05544129 0.033383608 0.009265164 0.010182005 -0.07657048 0.09056303 -0.05656496 -0.09260566
c -0.08381924 -0.07189691 -0.15916468 0.03737446 0.19019571 -0.026134904 0.025769457 0.07415008 0.1098518 0.17781672 -0.02273199 0.07921434 -0.09911759 -0.039007224 0.0028032204 -0.01953882 0.025973279 0.039945483 0.019198447 -0.09268154 -0.08968155 0.055688813 0.033373512 -0.15380596 -0.100789025 -0.020998038 -0.04485595 0.07874682 -0.20003127 -0.092579834 -0.23500964 -0.089393586 -0.07684446 0.20859393 -0.09484443 0.011257776 -0.09285935 -0.0053616334 0.044956844 -0.17127754 0.016904155 -0.053615954 -0.07330166 0.13936147 -0.011615904 -0.10137775 -0.07810114 0.05668685 -0.04698666 -0.06618235 -0.017845789 0.008031381 0.07496617 -0.12252951 0.0060250773 -0.106276885 -0.112396814 -0.058592346 0.03518393 -0.035851743 0.14245601 -0.08950082 -0.024504285 -0.07846663 0.056488667 0.004205864 -0.08282735 -0.06076097 -0.033044256 -0.09726817 -0.04971753 -0.0047834404 0.04652671 -0.092191346 0.048996236 0.3832005 0.08853227 -0.0143816415 -0.020636495 -0.15384622 0.13117887 0.07369877 0.039646327 -0.008753015 0.08186301 0.14396073 -0.08680369 0.008262896 0.0019525195 0.012373571 -0.01625542 -0.04159574 0.029041419 0.017949421 0.019601226 -0.009966112 -0.017108394 0.04677817 -0.085751034 -0.09309123
f 0.035150487 -0.057732787 -0.18061323 -0.016094558 0.16879156 0.024619883 -0.012099914 -0.012738683 0.10742798 0.18038417 -0.074278854 0.023773871 -0.09067457 0.02174804 0.018477887 0.057678502 0.05000303 0.021916274 0.019851513 0.025078611 -0.010951043 0.17117304 0.09559598 -0.1556836 -0.13432957 -0.22439694 -0.18009277 0.094716914 -0.20644553 -0.1646065 -0.26708263 -0.05696036 -0.04239878 0.23649997 -0.01467549 0.04740463 -0.086387984 -0.013823073 0.027525274 -0.18211682 0.05324563 -0.11359126 -0.08112946 0.15479518 -0.12297756 -0.029984882 -0.05627151 0.15717368 0.012263573 -0.13798076 -0.05022315 0.017921614 0.0035307815 -0.08876321 0.03269997 -0.0272725 -0.05588609 -0.045101207 0.10198137 0.0420866 0.2608396 -0.055151194 -0.037556965 -0.15115805 -0.0003810497 0.01833446 -0.07370072 0.039527435 -0.08008137 -0.033092577 -0.051688034 0.039651822 0.0008215108 0.010153924 -0.002012647 0.36625978 -0.07387919 -0.06044533 -0.021505538 -0.015786503 0.14248997 0.079673424 -0.018991297 0.015774097 0.047888324 0.03498601 0.009751732 0.004493841 0.044718698 -0.03380372 -0.0026639479 -0.027841905 0.04171469 0.011942407 0.051771034 0.022928787 0.0097402185 -0.025219804 0.0132965855 -0.024098964
w -0.20697214 0.09792059 -0.14202075 0.08536406 0.1950596 -0.08451456 0.072906926 0.07077263 0.04889585 0.18636715 -0.05893109 0.13578343 -0.07944273 0.00211471 0.031886466 0.09378318 0.05198727 0.07084553 -0.024637153 -0.11902912 -0.025478147 0.16550802 0.02930142 -0.2499977 -0.19584364 -0.09658068 -0.19543394 0.14267361 -0.08091496 -0.10565011 -0.15046805 -0.0042713997 0.023507139 0.18313013 -0.09665905 -0.032367993 -0.04235281 0.05329484 -0.029708588 -0.03641576 0.029608704 -0.01996774 -0.049054496 0.0509548 -0.07613708 -0.017890908 0.06588194 0.13118196 -0.008462009 -0.10412694 -0.037796974 0.04450428 0.051678862 -0.09677879 -0.026228342 -0.20598261 -0.1497976 -0.08213875 0.008471347 -0.048669986 0.2317391 -0.11479478 0.016170437 0.01494848 0.03714525 0.11787985 -0.04573792 -0.040429533 -0.14039154 -0.14257343 -0.09749646 0.012858068 0.0019800283 -0.09927364 0.08347866 0.43150824 -0.011460925 -0.007993115 -0.046869725 -0.15964818 0.092418574 -0.0042792866 0.009163566 0.040326864 -0.037331942 -0.0006313499 0.0026505364 0.059820034 0.019431293 -0.03259526 0.04022593 -0.1142401 0.09755235 -0.004644562 0.069546506 -0.0430315 -0.013817748 0.12748006 0.06947289 -0.027185205
y -0.011595926 -0.07237158 -0.2309108 0.082523674 0.2008817 -0.024427632 -0.08214769 -0.0013744452 0.10067865 0.09102883 -0.028459407 -0.009032791 -0.11420031 -0.009829536 0.032576807 0.047951158 -0.0032400393 0.112026915 0.060127232 0.001081625 0.017065618 0.02142973 -0.06768154 -0.14758484 -0.023759672 -0.18546498 -0.092593774 0.02029201 -0.18727583 -0.09086949 -0.18422367 -0.070714206 -0.16814955 0.23764963 -0.095645875 0.12519032 0.029148903 -0.048081774 -0.03457451 -0.09313567 0.0605165 -0.09738034 0.008763579 0.10286203 -0.078558534 -0.20970933 -0.02335141 0.13210881 -0.10602777 -0.015332939 0.041709043 0.18305676 0.13320029 -0.008772992 -0.006322395 -0.027715988 -0.10934873 -0.03500673 -0.06412815 -0.07713105 0.095603205 0.11496416 0.031011581 -0.10192388 -0.0056458004 0.017246528 0.07113618 -0.023114486 -0.16680655 -0.12630443 -0.08380012 0.178006 0.1392126 -0.033854526 0.012664097 0.32724914 0.03802043 -0.024630647 0.047003165 -0.1293671 0.015362333 0.12937388 0.10227673 0.10446092 0.122349314 0.16005954 -0.11359842 0.003516523 0.071469195 0.15244426 0.005746483 -0.108640015 0.032723695 -0.12061917 0.15624383 -0.027047103 -0.03753736 0.0675412 0.014155666 -0.03044826
g -0.023965215 0.013353585 -0.16623239 -0.010664162 0.3254774 -0.058853682 0.056535758 0.03413854 0.07274934 0.27143297 -0.08954974 0.10522675 -0.07079277 0.07327462 -0.046388306 0.041084968 0.057105716 0.016017638 -0.15352975 -0.08644767 -0.01804231 0.07693215 0.05617515 -0.19303615 -0.049620178 -0.11524184 -0.028099267 -0.0031161245 -0.17228371 -0.08313118 -0.13695557 -0.082675934 -0.047367092 0.26404256 -0.049007494 -0.014774079 -0.028665064 0.07706277 0.08304281 -0.23303819 0.06917572 -0.032510135 -0.011051726 -0.0154996645 -0.033595625 -0.047608018 0.0019359374 0.103570655 0.06720936 -0.15010846 -0.111564904 0.01159807 0.11086643 -0.06803161 -0.103561826 -0.085184775 -0.08697918 -0.15057294 -0.058971345 -0.022600837 0.060427934 -0.10355206 0.07285999 0.07913137 -0.017371478 0.09234848 -0.049206264 -0.053997792 -0.03915161 -0.030782197 0.030332124 0.04782838 0.0069680233 -0.029244104 0.058658548 0.32754952 -0.04739315 -0.08095331 -0.027562203 -0.14537266 0.14673522 0.066685826 0.061494417 0.07400371 0.00091172854 -0.029930126 -0.11023286 0.0058094077 0.060416836 0.041890718 0.060570356 -0.1083958 0.04399543 -0.0075465334 0.028164238 -0.026594693 -0.061929982 0.08250223 -0.026586631 -0.15244941
p 0.039729804 -0.17271161 -0.19063187 0.062458117 0.15199426 -0.011508552 0.06559156 0.084972605 0.073628165 0.253822 -0.054232918 -0.022229394 0.036970425 -0.0068250606 0.041254777 0.037937477 0.027896123 -0.089661926 -0.049978144 0.023213994 -0.077906035 0.084597714 0.03490293 -0.12101346 -0.1077344 -0.14306368 -0.16802067 0.08223417 -0.15940678 -0.08598581 -0.094088055 -0.20376398 -0.006347307 0.18432161 -0.08659156 -0.054903362 -0.052485533 0.020226557 0.023307197 -0.1270711 -0.021334765 -0.11163308 -0.18053356 0.1951146 -0.061546467 0.020346746 -0.049461503 0.09317718 -0.044043854 -0.1475482 -0.07349269 -0.0022284272 0.098360986 -0.09688943 -0.07708642 -0.10548334 -0.0064585316 -0.036262516 0.04419317 -0.03461405 0.24717814 0.010879023 -0.06563425 -0.16122504 -0.04051345 0.009666833 -0.12916847 0.06435915 -0.015209313 -0.034681097 -0.06580627 0.017090905 0.17656085 -0.028296126 -0.029892439 0.40797624 0.09219434 0.023211475 -0.11435143 -0.08994396 0.18426049 0.024875756 -0.058060143 -0.03289042 0.033001274 0.12760285 -0.03214868 -0.00618198 0.020715404 0.013049477 -0.016213816 -0.08483432 0.060850143 0.031340703 0.043859262 -0.010820878 -0.06533366 -0.021415418 -0.03747099 -0.036506146
<s> -0.10665057 0.1364929 -0.059500262 -0.0017571978 0.2418867 -0.13026537 0.07685292 0.08095902 -0.42951837 -0.0096630445 -0.20578636 -0.16531342 -0.18468085 -0.025855465 0.32788646 -0.024533795 0.2704955 0.13893871 -0.020191891 -0.31195688 -0.15119386 -0.3116397 0.044980396 -0.62534916 -0.1553848 0.055082582 -0.4078266 0.16714698 -0.03171321 -0.0758846 -0.09664192 -0.05389417 -0.010750427 0.33774638 -0.011636886 -0.033207573 0.06330781 0.2175394 0.06324937 -0.1924486 -0.18279655 0.009889057 0.09571813 0.07771845 -0.16481377 0.24979028 0.14528228 0.08512528 0.017625919 -0.17106333 0.185927 0.047378756 -0.20750721 -0.13515389 -0.15222517 -0.422432 0.12472066 -0.11674676 0.07444504 0.1082718 0.38235793 -0.011100866 -0.3499135 -0.06354765 0.2400607 -0.10243175 0.039534926 -0.0013964121 -0.23793095 -0.22179455 -0.23036851 0.07351472 0.01780103 -0.15427597 0.04420008 0.3788858 0.0070934743 0.12517385 0.028866807 -0.30070454 -0.024533419 0.13900048 0.18262298 0.14039099 0.056615457 -0.07835896 -0.01795488 -0.0050626895 0.34799692 0.076352745 0.3016718 -0.11038779 0.22973312 -0.24759024 0.377848 -0.14490755 -0.09298808 0.27630728 0.18232337 0.22799619
</s> -0.15800223 -0.2098724 -0.16818699 0.03868982 0.3702357 -0.15406324 0.12027277 0.24683712 -0.021769296 -0.070102386 0.029767621 -0.20158897 -0.35159484 -0.032059897 -0.14446037 -0.2334918 0.11331005 0.107194655 -0.34111923 -0.53563553 -0.20711757 0.42476586 0.26882604 -0.08654192 -0.14810902 -0.10194172 -0.00089971616 0.08858883 -0.4417133 -0.12553026 -0.33704278 -0.25176084 -0.1519852 0.1772752 -0.03159506 0.0148034785 0.0033148436 0.26716545 0.15636076 0.12892531 0.4705842 -0.2796961 -0.31658983 0.23657303 0.23746814 -0.29264084 -0.43730953 -0.06833431 0.16965647 -0.09722606 -0.009835132 -0.23314083 0.2576924 0.028616395 -0.24400696 0.21393493 0.315544 -0.16382518 -0.026749512 0.078422114 0.22439612 -0.05026869 0.534766 -0.31475553 -0.10902164 0.24532436 -0.15262121 0.20518336 -0.3238426 -0.030025914 0.15455775 0.57060057 0.17460506 0.03119945 0.14803892 0.24854943 0.20811284 0.1265594 0.091861345 -0.33609697 -0.2745414 -0.025155844 0.10140301 -0.17888518 -0.05805308 0.12552245 -0.15894227 -0.16869359 -0.02296784 0.062383633 0.037159756 0.093725525 -0.23611128 0.1096009 -0.032424636 0.09233671 0.2920155 -0.23158276 -0.30985954 -0.26128888
, 0.08753108 -0.16298865 -0.19308202 0.020825706 0.3131071 -0.007376801 -0.010619415 -0.0017151458 0.037874464 0.15448423 -0.12641436 0.09416575 -0.16300738 0.06412215 0.04191858 0.0015970046 0.12406561 0.16381218 -0.16333441 -0.21757668 -0.1581014 -0.019479075 -0.20461896 -0.11542324 -0.1462707 -0.0060195266 -0.26210994 -0.0036469135 -0.13740613 -0.010835107 -0.075099304 -0.07078063 -0.1344083 0.20822288 -0.018163368 0.022330679 -0.007855207 -0.054574747 0.05191071 -0.10882446 -0.07024751 -0.14451493 0.12269555 -0.018001676 -0.15096377 -0.03750778 -0.018752284 0.07405065 0.0074241455 -0.15690629 0.026465418 -0.09394045 -0.02654264 -0.12280423 -0.0796419 -0.18947735 0.0072651287 -0.049310483 -0.009990313 -0.016274167 0.22062379 0.009682458 -0.23348014 -0.11016704 0.12036871 0.052730143 -0.02712111 -0.042579938 -0.09336137 -0.104617536 -0.13218768 0.010053826 -0.018817768 -0.052473288 -0.039817546 0.29504952 0.054366805 0.055393863 -0.110130355 -0.19479157 0.07189571 0.045575548 -0.06728606 -0.0035349147 -0.030870946 0.08117135 0.0113826245 0.09638901 -0.006468259 0.13561283 -0.119581796 -0.11563072 0.19915645 -0.1074589 0.0002629988 -0.12826157 -0.21154873 0.20158401 -0.16828105 0.08815617
b -0.07767518 -0.0010137085 -0.041143414 -0.038351588 0.26720008 -0.024912398 -0.039011218 -0.04630051 0.10125108 0.062828235 -0.011024576 0.0974243 -0.05948639 -0.012697037 0.122496985 0.03552074 -0.027348116 0.112525195 0.052126843 -0.084934644 -0.085373245 0.16191866 0.086026184 -0.28397176 -0.16703483 -0.17517804 -0.153758 0.11710889 -0.12789601 -0.0368502 -0.13752358 -0.08339398 0.00028648792 0.13198803 -0.0830645 0.04179758 -0.09049643 -0.08054557 0.026296776 -0.12351184 0.023324398 -0.023579637 0.036375944 0.017437473 0.03198897 -0.18099163 -0.1688903 0.029033436 -0.0250938 -0.03919108 0.016538762 0.14057566 0.09465007 -0.058618363 0.008101985 -0.041738093 -0.088661976 -0.08720801 0.0052844197 -0.041311417 0.2654417 -0.04963164 0.020769743 -0.119373515 0.10216601 -0.06390716 -0.07651813 -0.048445154 -0.10650509 -0.14726393 -0.10587761 0.0069775474 0.03672014 0.0039978754 -0.010409029 0.3507982 -0.012640515 -0.024004947 -0.019925922 -0.014236344 0.17903869 0.10924061 0.021238668 0.0056257113 0.048937555 0.030785602 -0.021357778 0.013760094 0.08477625 0.030462397 -0.026417961 0.0025148606 0.012874257 0.017896691 0.029298497 -0.03325884 -0.16328506 0.05903258 -0.055267815 -0.18482958
v 0.00036842615 -0.06276638 -0.15403196 -0.08300179 0.19761416 -0.010294193 0.060229845 0.0753084 0.012620336 0.11378702 -0.13600214 0.0020960157 -0.04256425 0.019080523 0.07420269 0.0123836715 -0.0026485224 0.1561157 -0.010665976 -0.18611012 -0.053494245 0.12394794 -0.06042067 -0.19106396 -0.09119105 -0.18476115 -0.0632539 -0.0011028835 -0.15115817 -0.1219874 -0.16362642 -0.021278108 -0.055008586 0.22775446 -0.14087501 0.012051184 -0.0330394 0.016364366 0.0023905695 -0.09977713 0.07219008 -0.14468053 -0.027536377 0.038506746 -0.06600398 0.07999489 0.1116091 0.051395074 -0.036805592 -0.07262569 -0.029047167 0.15847686 0.03871282 0.013279486 0.010623075 -0.06917075 -0.03164854 -0.07111665 -0.022460477 -0.028445113 0.14669408 -0.0874183 -0.11412189 -0.09350378 0.025605319 0.07818657 -0.1319952 -0.04748499 -0.07464676 -0.04813226 -0.007951937 0.09622802 0.1968218 0.002166189 -0.024335003 0.47792393 0.08960385 -0.07273252 0.0144188 0.055195253 0.094280034 0.009171535 0.026821494 0.021896983 -0.015517942 -0.017934136 -0.0401879 0.029572366 -0.0015694798 -0.084442616 0.049028344 -0.10902093 0.058381647 0.061236423 0.0128265675 0.004862481 -0.11230391 0.08666037 -0.03166531 -0.28240335
. 0.08572429 -0.22753069 -0.33098117 -0.17495134 0.37467292 0.02101157 0.016586687 0.03860924 -0.2132094 -0.1193319 -0.11104994 -0.1540217 -0.11270131 0.054854408 0.20384625 -0.011700385 0.09959452 0.31635898 -0.098759145 -0.4566008 -0.03433272 0.053842526 0.044544935 -0.14874326 -0.11368474 -0.20409398 0.022382122 0.010286589 -0.29239267 -0.034577172 -0.14483097 -0.10400909 -0.18312155 0.09467244 -0.29820108 0.18855503 0.082827434 0.5771966 0.11112869 -0.024952512 0.4620244 -0.33599797 -0.40193608 0.48172215 0.27117178 -0.33036327 -0.2508432 -0.15446357 0.05405196 0.00599819 -0.06444703 -0.08958996 0.110521846 -0.036285114 -0.05744683 0.17569633 0.014730485 -0.067591116 -0.093838 -0.024864798 0.022891473 -0.07871275 0.15755412 -0.016875306 -0.13196903 0.27950054 -0.016025838 -0.008080563 -0.13775344 -0.13026221 -0.013549717 0.0019525898 0.06758154 0.037544146 0.0033850914 0.17343369 0.2428062 -0.016456844 -0.15296513 -0.22588369 0.39268458 0.050126716 -0.1316332 -0.17919794 0.12926278 0.13717867 -0.080963135 0.048249952 0.1335251 0.060616832 -0.20690146 0.2713172 0.044134032 0.032506123 0.17993958 -0.011134767 0.22531429 -0.10436644 0.11419767 -0.24431595
k -0.048665076 0.03995208 -0.21037397 0.0043638097 0.072631404 -0.0023035319 -0.011296746 -0.04767373 0.053881064 0.16190273 -0.11673963 0.06482686 -0.1475807 -0.004656599 -0.044364374 0.040942155 -0.10046025 0.10319441 -0.21103182 -0.054672986 -0.031170368 0.086306855 -0.0487504 -0.23989439 -0.047962826 -0.12968785 -0.07983081 0.008911342 -0.15059526 -0.12609579 -0.15679903 0.062802896 -0.113226704 0.11951703 0.004838125 0.18035062 -0.061794627 0.13165611 0.015684774 -0.18201391 0.2152029 -0.16664845 -0.15480326 0.12661515 0.034983933 0.020210728 0.077131875 0.05225425 0.0071162903 0.008462164 -0.0061758 0.06358154 0.06773359 0.021645661 0.0018910267 -0.06491461 -0.07993851 -0.14885183 -0.14633183 -0.062256232 0.24090411 0.03273101 0.066716515 -0.13717951 0.016577812 0.013418894 0.04114327 -0.08823338 -0.11772196 -0.11429183 -0.027518898 0.020479241 0.0625122 -0.008443186 0.077961266 0.3674785 -0.10945794 -0.037539773 0.031483695 0.00064800325 -0.060014974 0.116330214 0.08940989 0.21759148 0.008260048 -0.009287887 -0.051039662 0.17260888 0.003821581 -0.026536703 -0.041975252 -0.12092381 0.16747504 7.318885e-05 0.111844935 -0.012559035 -0.11880478 0.14463559 -0.009878553 -0.16864
; 0.21501409 -0.23110843 -0.36845794 -0.079956435 0.4195582 0.12596934 -0.066987775 -0.13962659 0.07566733 0.15555654 -0.2031249 0.18457986 -0.24567907 0.16215223 -0.003627619 0.06311766 0.1202264 0.32264113 -0.21405116 -0.2766941 -0.09547586 -0.0073949737 -0.25410044 -0.06356595 -0.17068087 -0.010460924 -0.23405692 -0.026341513 -0.2822001 -0.04315349 -0.25036404 0.00595039 -0.18107799 0.2835536 0.022941353 0.079708114 -0.09790916 -0.20188326 0.09007858 -0.1607346 -0.102878995 -0.18390481 0.1835512 -0.092138134 -0.043924376 0.07818005 -0.10669797 0.0072410046 0.10756315 -0.047023978 0.077838086 -0.2720185 -0.15399928 -0.20136715 0.04583292 -0.14234588 -0.02841976 0.021231137 0.11456626 0.040221065 0.13312106 -0.0735604 -0.33071086 -0.12614247 0.1978247 -0.07708904 -0.11210282 -0.23242404 -0.058148824 -0.1809387 -0.2071022 -0.1337444 -0.21075 -0.03716183 -0.053964645 0.20599678 0.044501435 0.007197851 -0.23162709 -0.33597106 0.10021788 0.08963084 -0.11151774 0.0029054948 -0.114292316 0.16395305 0.026758892 0.15335944 -0.13628268 0.10878508 -0.27446562 -0.13577603 0.18404062 -0.1296364 -0.15150459 -0.14763404 -0.14508319 0.22776826 -0.20369577 0.104860336
" -0.16470107 0.23436418 0.21294874 0.23739257 0.029745381 -0.10845376 0.03614128 0.35853937 -0.11236575 0.20270745 -0.13386051 0.10662907 0.17892873 -0.070684545 0.03783653 -0.011711412 0.012119222 -0.043544613 -0.14720123 0.113865025 -0.24764371 -0.121312276 0.025128525 -0.68978727 -0.12094778 -0.32208687 -0.24292165 0.06691024 -0.039647404 0.06210634 0.23987411 -0.43401176 -0.07758411 -0.33848953 -0.20832035 0.13058493 0.2998981 0.15943368 -0.0398415 0.016417867 0.21418802 -0.17977075 -0.12732902 0.2118779 -0.07667702 -0.51552624 -0.20852932 0.10037236 -0.051691834 -0.055062942 0.022652982 0.3458912 0.024761558 0.18629006 -0.1830035 -0.15605605 0.15599445 -0.07826223 -0.20447715 -0.13597529 0.41061527 0.21970496 0.11594141 -0.018930687 -0.099825144 0.32193682 0.08392773 0.14613728 -0.37946135 -0.11175698 0.06181872 0.405372 0.31451827 -0.18156931 0.13127053 0.44750986 0.13605212 0.09126096 0.10180315 -0.04432652 0.21167293 0.013295923 0.2171508 0.108529314 0.14291732 3.5412588e-05 -0.2404956 -0.020921985 0.08972051 0.2367007 0.3807545 -0.22832154 0.095833614 -0.08931747 0.17494793 -0.106987014 -0.1126372 0.19350722 -0.0110341115 -0.05473662
x 0.0873548 -0.20871785 -0.2504979 0.04442765 0.05208261 0.01605859 0.10569602 0.0017306934 0.14378132 0.24106584 0.03572663 -0.1630821 -0.053900436 -0.015728645 0.18772715 -0.058799785 0.020839984 -0.061989684 -0.015750717 -0.05576026 -0.1953326 0.012469197 -0.23301612 -0.16687196 0.01559131 -0.08322901 -0.19523123 0.045996152 -0.20634331 -0.028324353 -0.06820674 -0.2582022 0.018033653 0.10198933 -0.10797017 -0.18742019 -0.15948905 0.2771859 0.3017015 -0.4706706 -0.15104164 -0.042446002 -0.1335799 0.1377559 -0.06451925 0.088655055 0.089239925 0.011392975 -0.054032583 0.10854551 0.016871475 -0.058499414 0.056269817 -0.05008051 -0.01706222 -0.026867356 -0.10816537 -0.0245501 -0.026415927 -0.08191327 0.18788476 -0.02373957 -0.28550878 -0.09235287 -0.007421255 0.08851319 -0.11669185 -0.045781158 0.032683983 -0.038383983 -0.02571627 0.03885226 0.3881027 -0.094125755 0.0051112454 0.43297434 0.19233996 0.06895673 0.075378425 -0.061398286 0.026390988 -0.06885218 0.0103384955 -0.16078089 0.16961583 0.21362635 -0.20214167 -0.03231213 0.04211494 0.070310876 0.020124556 -0.08142159 -0.06356716 0.17323382 0.12318844 0.07194918 -0.10003403 -0.091878206 -0.106432274 -0.16243993
' -0.05276928 0.06696571 -0.20108442 0.09171758 0.1538157 0.07069619 -0.020852491 -0.22617534 0.12886545 0.286116 -0.063083895 0.067300975 -0.06752439 -0.18504798 -0.15187377 -0.121221416 0.06813323 -0.10155581 -0.037211783 -0.21390986 -0.08282421 -0.067666516 -0.055093363 -0.24967057 -0.29133838 -0.032069363 -0.22662543 -0.0081077 -0.2808757 0.19811992 0.12548403 -0.23368648 -0.015404681 -0.1484844 -0.0051957206 0.11779254 0.09273013 0.2747772 -0.045168296 -0.2748558 0.24687329 -0.2756972 -0.057998788 0.22194852 -0.07403203 -0.37040827 0.040935084 0.11561279 -0.0372717 -0.15072061 0.027178176 0.1865104 -0.04811008 0.04206914 -0.17308637 -0.17547882 0.019570805 -0.23301329 -0.30744177 -0.05532804 0.4359157 -0.0033166346 0.29675165 0.052621473 0.00747821 -0.35197985 0.14851871 0.05937429 -0.07222452 -0.42457044 -0.0495294 0.0007095397 -0.081657425 -0.05274668 0.21533546 0.31610683 -0.28952917 0.3241683 0.17299283 -0.11554805 -0.14644057 0.07973869 0.03890773 0.018342637 -0.2772028 -0.056001358 0.041514717 0.08304387 0.13383092 -0.058407344 -0.03751464 0.14248258 0.059304696 0.03920991 0.29662952 -0.17921677 -0.34847447 0.02737854 -0.18980178 -0.22051111
q -0.16155683 0.14323355 -0.017468901 0.054943662 0.44950765 -0.008654909 0.059844546 -0.06091761 0.08144059 0.058895685 -0.0077148792 -0.022418559 -0.015509707 0.11178038 0.20434353 0.11079443 0.15147376 0.027415715 0.06116306 -0.24229293 0.08263247 0.06246841 0.16504243 -0.31446332 -0.2197431 -0.13343811 -0.24925491 0.21819623 -0.3913914 0.17954953 0.032624647 -0.40507555 0.13297616 0.13567045 -0.19245636 0.02598986 -0.24246955 -0.14406325 0.0739885 -0.41882402 -0.08743171 0.09344453 -0.0652859 0.022338774 0.30911192 -0.16830698 -0.3156028 -0.063928045 0.035390537 0.061913908 0.044121575 -0.0012948227 0.34921193 -0.18215322 -0.10278063 0.049726866 -0.17433359 -0.03465005 0.0002778566 -0.10255351 0.181782 -0.008955692 0.13856293 -0.13684824 -0.06627045 -0.22416294 -0.13466644 -0.12865232 0.21989451 0.078971066 -0.014536836 -0.13249974 0.22674079 0.10949341 -0.065489374 0.44361278 0.07498856 -0.05970657 -0.1884523 -0.018882412 0.06787095 0.15593086 0.04210972 0.20140351 -0.0054214303 0.115638316 -0.042920414 0.0037350047 0.040394183 0.025628505 0.011475494 -0.13876179 -0.10941351 -0.16634032 -0.1433092 -0.10701847 -0.3678268 0.09369252 0.022455016 -0.015489101
j -0.010409313 0.10927433 -0.035951227 -0.043199543 0.029944446 0.18518801 -0.041615017 -0.03252766 -0.031360634 -0.014431497 -0.013025836 0.0057031573 0.022690736 -0.029266663 0.12839195 0.05061278 -0.060906284 0.067307316 -0.18674335 -0.02497558 -0.04604291 0.09041105 0.043488555 -0.34632578 -0.17845535 -0.1897273 -0.21728826 0.06372829 -0.32531747 0.09927862 0.013782413 -0.2676907 0.025869202 0.1667154 -0.02977263 0.002896991 -0.15278308 0.13894215 0.1835641 -0.3261675 0.12692478 -0.06844108 -0.14995062 0.108800806 0.14041938 -0.17719047 -0.11151571 -0.061165396 -0.11347024 -0.062378928 -0.1224714 -0.061545163 -0.021801276 0.04523914 0.10265695 -0.15266179 -0.04827694 -0.011926176 -0.022647306 -0.090213515 0.19759636 0.06546555 0.1000657 -0.2694795 -0.03473515 -0.19109175 -0.11354694 0.02683853 -0.13741305 -0.12792446 -0.005815116 0.09755495 0.18119022 0.0016577478 -0.020568023 0.39445138 -0.07939976 0.09173519 -0.03991936 -0.049474858 -0.0052482965 0.21218008 0.11578086 0.15837331 0.0707591 0.12345255 -0.0066447584 -0.019988006 -0.13774547 -0.08377343 -0.073815584 -0.21008968 -0.03142922 -0.15290709 -0.11431427 0.00798552 -0.3404667 0.13237973 -0.11257896 0.06260093
z 0.12758526 0.022102518 0.029641021 0.011168554 0.3385693 -0.09745953 -0.09867837 0.019868612 -0.1686178 0.01781075 -0.058429047 0.012364489 0.022250807 0.25202963 0.024455162 0.15185541 -0.052928027 0.19527511 -0.19902337 0.03070453 -0.19757745 0.121122584 0.17461361 -0.38503438 0.2278045 -0.2633175 0.07634438 -0.10270852 -0.070250794 -0.06858339 -0.15263511 -0.06618124 -0.08725447 0.21965343 0.12314524 0.1565189 0.3411216 -0.078391515 -0.06713096 -0.48561817 -0.18291263 -0.0006018935 0.024744002 0.019817546 -0.04366695 -0.26129586 -0.10040069 0.055125464 -0.03681292 0.09277939 -0.02279702 0.11927394 -0.120524086 -0.08842716 -0.22571585 0.23771368 0.3067243 -0.22652787 -0.3705094 0.13758995 0.24856542 0.22377801 0.090546735 -0.08861793 -0.02778 0.03764819 0.36034474 -0.28956643 0.05646216 -0.08981925 0.23502561 0.19799052 -0.29191023 -0.0042501017 0.32760325 0.50256866 0.08044528 0.009958677 -0.04251753 -0.052478362 0.30073702 0.044490717 0.12681392 0.013770749 -0.20795457 0.14395775 -0.04658504 -0.19680382 -0.12544464 0.12010953 0.005952066 -0.22740832 0.25528765 0.11994044 0.0008019167 -0.046245676 -0.18344063 -0.0056178896 -0.12872261 -0.3312356
? 0.1436707 0.031106723 -0.15894784 -0.0917523 0.19309925 -0.041794825 0.015910571 0.37086734 -0.31493223 -0.08281422 -0.24743515 -0.11844982 0.0949728 0.19974372 0.07362247 0.08759538 0.3758389 0.37569758 -0.31408048 -0.6914654 0.0072418996 -0.06192763 -0.074569486 -0.3796299 -0.2380853 -0.195303 -0.2513654 0.12519662 -0.30620793 0.20436673 0.30820805 -0.2777245 -0.22214636 -0.27739573 -0.36972547 0.2603515 0.33061284 0.5072937 0.053795815 0.005665302 0.4623052 -0.40631288 -0.31161904 0.40781423 0.24033397 -0.5478721 -0.27695167 -0.20040835 0.1678822 -0.012494945 -0.11066952 -0.13537657 0.109441966 -0.028866617 -0.1491458 0.17658798 -0.01242594 -0.056988448 -0.19810078 -0.02180412 0.1090716 -0.067934826 0.24501301 0.13873628 -0.16533901 0.57525635 0.19629203 -0.08044246 -0.34467733 -0.05103651 -0.043210063 -0.03392291 0.06398366 -0.10746083 0.1085351 0.38589957 0.20960249 0.13937068 -0.09685091 -0.20628396 0.38643888 0.19478263 -0.1642711 0.09574054 0.12643649 0.07457642 -0.08843381 0.28426117 0.15271094 0.16387612 -0.12644978 0.021164525 0.31285378 -0.11641 0.27620104 -0.18551332 0.10104455 0.1749299 0.17527504 -0.039998177
: 0.41683853 -0.22601916 -0.12532751 0.042929716 0.2563143 0.11709799 -0.15423033 0.027328761 0.23621514 0.2722317 -0.13778263 0.20130008 -0.07525959 0.18799351 -0.122299835 -0.06862743 0.3164348 0.15267618 -0.21879846 -0.14106892 -0.21352296 -0.09804247 -0.34702888 -0.122796774 -0.19664414 -0.16263117 -0.36495435 -0.037875086 -0.31991976 0.14922102 0.093896076 -0.34376135 -0.18960823 -0.06172576 -0.054004893 0.07954058 0.100477405 -0.14129059 0.03368437 -0.16805026 -0.10428369 -0.17505547 0.1634472 0.0021792306 -0.072431736 -0.31119883 -0.24114694 -0.18955769 0.071873985 -0.1910405 0.08965763 -0.27906427 -0.1894749 -0.17733945 -0.17885521 -0.20290835 0.05602241 -0.007136951 -0.03371456 -0.008882289 0.23995711 0.015862847 -0.18044603 -0.10512364 0.105733715 0.15049657 -0.08058517 -0.0128238 -0.3093492 -0.12775585 -0.16816133 0.055438954 -0.09284482 -0.12359726 -0.036938313 0.21135919 -0.07249367 0.2539022 -0.118244864 -0.27246106 -0.005952622 0.21462081 -0.14659171 0.06744805 -0.009940794 0.23565933 0.0040546944 0.11879077 -0.012204832 0.24780002 -0.2014868 -0.1342796 0.10293968 -0.1983482 -0.12012921 -0.20556076 -0.30481306 0.2081196 -0.4054852 0.07123594
é 0.11926702 0.016863171 -0.14605463 0.07504761 -0.015727272 0.2011208 -0.06742646 -0.1812512 0.18614519 0.2418364 -0.038516697 0.11082119 0.079900205 -0.107280314 -0.11758538 -0.10216482 0.077356495 -0.02859136 -0.09263535 -0.17828166 -0.077427976 -0.015917258 -0.10332365 -0.112754084 -0.1996107 -0.08487748 -0.16896336 -0.06449292 -0.31853393 0.22465657 0.13853508 -0.30121467 -0.067095965 -0.25823197 -0.10593994 0.15125133 0.08600253 0.2520187 0.0009746653 -0.20839356 0.22676866 -0.19943343 -0.059725862 0.20096129 0.044494167 -0.4958387 -0.08524456 -0.09008509 -0.007033232 -0.05268605 -0.009144755 0.044195194 0.039608274 0.0036703274 -0.14625365 -0.094339594 -0.05211667 -0.17063014 -0.28927222 -0.13831945 0.40463984 0.009021615 0.19464576 -0.08734074 -0.0075988714 -0.19304134 0.024626054 -0.03578999 -0.122278914 -0.3595666 -0.045528833 0.030814528 0.10532964 -0.03129074 0.118287265 0.46412164 -0.108459786 0.21413283 0.07666825 -0.08166557 -0.14677449 0.05710635 -0.00082789606 0.053860426 -0.10956118 0.007693063 0.00419713 0.11138512 0.049471527 0.0070799086 -0.10068663 0.032120705 0.050276194 0.010526554 0.13838077 -0.10086021 -0.3449519 0.05298817 -0.26357093 -0.26357552
æ 0.058586814 -0.105844654 -0.14919941 0.099019624 0.16525778 0.03411056 0.019485578 0.009770217 0.19515063 0.1257035 0.03257679 0.054534063 -0.039395493 0.07087171 -0.096882835 0.008859196 0.09668027 0.00858919 -0.19609661 -0.17475398 -0.05771451 0.13914774 -0.043021686 -0.04527425 -0.07834889 -0.0956123 -0.12482118 0.0011675773 -0.27811015 0.10279592 0.023347272 -0.23973066 -0.06262805 0.002988867 -0.07982036 0.025723942 -0.06846432 0.075464435 0.047203965 -0.15854271 0.2251304 -0.21810648 -0.22688724 0.25744846 0.08282748 -0.344697 -0.17327599 -0.066632524 0.02750405 -0.008989176 1.9382194e-06 -0.12673569 0.13792095 -0.090140566 -0.14034432 0.031428475 -0.053159963 -0.020737294 -0.095129326 -0.07452989 0.17623486 -0.0068596965 0.1857484 -0.032807264 -0.11729705 0.19586316 0.011203914 0.012184466 -0.10016861 -0.101227105 -0.0069270353 0.09224157 0.1367574 -0.02129616 0.07437328 0.4871695 0.056939118 0.08492018 -0.07016299 -0.1378107 0.010557989 0.075148046 -0.046278793 0.011251542 0.0022883837 0.13602105 -0.029279012 0.06504308 -0.020604404 0.10258944 -0.08032427 -0.044385865 0.019020034 0.024023134 0.0352219 -0.036190003 -0.10773032 -0.011429371 -0.19629063 -0.1046599
ê 0.009104375 -0.10373627 -0.13409616 0.10827427 0.18856925 -0.005625857 0.016666181 0.06527704 0.0821247 0.104816236 -0.021422217 0.013970766 -0.06388305 0.037269164 -0.039235346 -0.05991254 0.030719366 0.080005236 -0.20186436 -0.20307714 -0.11926207 0.10626859 -0.047970794 -0.12254652 -0.09696238 -0.14167552 -0.08213818 -0.023642829 -0.22616538 0.059405614 0.018389953 -0.20953175 -0.13053557 -0.041651815 -0.114943415 0.09891266 0.08049499 0.16181566 0.055809513 -0.07406037 0.19195968 -0.18020834 -0.12046343 0.16840969 0.02507036 -0.28109893 -0.15450354 -0.021720761 0.02228594 -0.03764877 0.0068416614 -0.0051754476 0.14372939 -0.025911884 -0.14701667 0.04481808 0.0012637316 -0.10539592 -0.16938764 -0.0816513 0.22521466 0.022801297 0.18839674 -0.081987076 -0.053466752 0.17835341 0.041766886 0.01947906 -0.17208631 -0.11141322 -0.012203621 0.12741697 0.12581107 -0.043184523 0.061668113 0.35336164 0.09719569 0.10076033 0.03133487 -0.10450167 0.01314821 0.035403226 0.021314034 0.0041445647 0.007290545 0.032130018 -0.04843703 0.059580363 0.05149305 0.118924305 -0.026694449 -0.014138208 0.050143782 0.02793936 0.060565356 -0.0375445 -0.09130332 0.01385353 -0.13316312 -0.12666304
ö -0.022724792 -0.10016463 -0.20793457 0.063424915 0.22241418 -0.07610529 0.03120899 0.044528387 0.043697465 -0.0035453183 -0.0026899993 -0.10155679 -0.14560631 0.06823133 -0.0015077569 -0.01662732 0.16109577 0.08207415 -0.20783623 -0.31504026 -0.04753721 0.21991962 0.036320373 -0.059887975 -0.16137518 -0.070024244 -0.15284896 0.093741484 -0.23965272 0.0020641487 -0.06696998 -0.14825971 -0.13643365 0.03749252 -0.08930225 0.12082772 0.00898552 0.17526759 0.0125712 -0.010541601 0.3060643 -0.2560073 -0.22462688 0.2524232 0.111796066 -0.17711635 -0.18662529 -0.08246728 0.09982396 -0.05018824 0.007250565 -0.17151928 0.16158971 -0.06620229 -0.12725997 0.07817331 0.030023813 -0.07015531 -0.04598194 -0.0070591597 0.16094401 -0.067507565 0.24640422 -0.067769594 -0.08239452 0.26209715 -0.0379247 0.065116294 -0.2223522 -0.09400403 -0.040233694 0.13238353 0.13437773 0.033098318 0.06363502 0.42610943 0.09478997 0.1025201 -0.07479018 -0.23798035 -0.08983142 0.083816975 -0.06650311 0.00033821323 0.034430884 0.13280936 -0.033747554 0.08840729 0.06540543 0.096680276 -0.16144274 0.07251278 0.03393974 0.026948528 0.10418297 -0.025679756 0.031800047 -0.03079308 -0.13388489 -0.070468664
è -0.06741552 -0.02138349 -0.13339135 0.07084233 0.22032905 -0.07714818 0.060068775 0.15217645 0.005520124 -0.016399205 -0.034495454 -0.075717755 -0.08615859 0.06523802 0.012613962 0.020210598 0.16655758 0.0727284 -0.1753468 -0.31447658 -0.034789387 0.19698235 0.075631894 -0.15192655 -0.16449805 -0.08803152 -0.14876515 0.1372094 -0.25789034 0.06459589 0.007829895 -0.20000726 -0.11436134 -0.016183145 -0.12685841 0.10603573 0.03659335 0.13899767 0.03710562 -0.060593173 0.29196063 -0.21596521 -0.22690164 0.24236882 0.11310022 -0.28560558 -0.20616995 -0.08573455 0.07934937 -0.008567944 0.0147405565 -0.08542159 0.1446222 -0.046908267 -0.122551315 0.091678485 0.013687026 -0.043493226 -0.068879105 -0.03137087 0.13433994 -0.05983689 0.2528099 -0.0460015 -0.094958544 0.27155238 -0.009463908 0.04890485 -0.18244797 -0.074037224 -0.011502283 0.14498599 0.18319757 -0.0057911105 0.079975866 0.44418445 0.09464064 0.06981238 -0.026554452 -0.1423352 -0.036537625 0.07054632 -0.016951058 0.040085815 0.05219014 0.07676889 -0.042076673 0.07133034 0.034480896 0.080883026 -0.047158945 0.0013969578 0.03657508 0.007676613 0.08105727 -0.03492498 -0.011616566 0.0105885165 -0.09590927 -0.090117306
ë -0.045110542 -0.087889016 -0.18148959 0.041069593 0.26300326 -0.03628102 0.050602168 0.03159585 0.038772188 0.014496327 -0.016032554 -0.07396025 -0.099631526 0.07008358 0.049467128 0.0041536824 0.073317826 0.09246536 -0.1686391 -0.27075407 -0.026619518 0.20580624 0.073334806 -0.09071975 -0.10785783 -0.08936244 -0.05497154 0.098607056 -0.2753859 -0.040494017 -0.13162415 -0.12756208 -0.1181283 0.061946377 -0.0882838 0.10090058 0.0056658513 0.12406629 0.014903859 -0.055529576 0.24878399 -0.20576113 -0.22808902 0.22436744 0.10450573 -0.1752387 -0.15970343 -0.026288603 0.050385166 -0.007454689 -0.010618003 -0.075021416 0.16894367 -0.055596214 -0.11027899 0.12310149 0.024950603 -0.07430875 -0.06948791 -0.01201394 0.11670315 -0.045513716 0.24113923 -0.085158974 -0.098995715 0.18758334 -0.035351247 0.022784276 -0.097190686 -0.06670593 0.020411875 0.09812711 0.09928796 0.03658281 0.06595645 0.3996145 0.08064131 0.02299131 -0.06360988 -0.14916542 0.007884611 0.051721804 -0.022645913 -0.018484555 0.014050456 0.0820915 -0.04210651 0.021970933 0.04189776 0.048379824 -0.05911023 0.027283246 0.024765473 0.049592245 0.065583706 0.016502108 0.021499004 -0.06866403 -0.091803774 -0.14635758
à -0.027781066 -0.048324484 -0.121052794 0.051256493 0.16078642 -0.057248447 0.03659567 0.10884475 0.08022882 0.098113246 -0.007945545 0.014886895 -0.055894937 -0.0075614923 -0.03662179 -0.010550146 0.08386845 0.027164048 -0.12401844 -0.16141045 -0.06912358 0.12016746 0.023974065 -0.16404031 -0.124229945 -0.110458426 -0.13239111 0.053783324 -0.18818541 0.03752091 0.018327236 -0.19163918 -0.08583991 0.0023057114 -0.096689366 0.067855105 0.033228 0.10409731 0.033126302 -0.104803175 0.1805993 -0.15526034 -0.10728885 0.15031597 0.0226894 -0.25600907 -0.12577024 -0.0017149504 0.016354261 -0.04021658 -0.008178009 -0.0007373937 0.13472778 -0.0153326625 -0.13053572 0.037745874 -0.005519622 -0.07847026 -0.09178903 -0.054201577 0.20335859 -0.009193935 0.1770371 -0.071090944 -0.030140167 0.11453153 -0.00524814 0.012989991 -0.17338672 -0.13771196 -0.046416793 0.11199165 0.1384878 -0.03619384 0.07461177 0.39460513 0.04532397 0.07890072 0.0030386462 -0.118330635 0.0006779372 0.07102918 0.009016305 0.04245939 0.018965723 0.05431713 -0.05152404 0.03499353 0.041842844 0.065804906 -0.03450713 -0.030223181 0.030440459 -0.004800404 0.085439526 -0.057096355 -0.09962075 0.03246553 -0.10935266 -0.12294767
ô -0.07996027 -0.102515794 -0.1510764 0.060627017 0.20920458 -0.06866113 0.06627198 0.10670716 0.03454783 0.0039818734 0.014374594 -0.089618 -0.110088155 0.043856986 0.032459997 -0.005775289 0.06199455 0.060102265 -0.1426744 -0.25636053 -0.058674015 0.19735183 0.080170766 -0.116388954 -0.11257508 -0.09555431 -0.08213966 0.11313441 -0.23486675 -0.020648949 -0.09232479 -0.16484717 -0.07126261 0.03974009 -0.10435549 0.044391084 0.0018400932 0.15968259 0.048895597 -0.018943097 0.25066453 -0.18657862 -0.26685125 0.24751344 0.12628737 -0.21927701 -0.19664724 -0.022772595 0.041986942 -0.000355757 -0.017816715 -0.0748182 0.19274342 -0.03211116 -0.09839509 0.12864497 0.028361801 -0.07833137 -0.050726287 -0.026230779 0.093673706 -0.058444116 0.25106698 -0.089923054 -0.10191747 0.21612962 -0.04520508 0.0655866 -0.11331414 -0.056817956 0.022036117 0.13181946 0.18942787 0.022575453 0.05621293 0.40293446 0.1253488 0.025950383 -0.03921835 -0.15415855 -0.030240795 0.025677465 -0.0018750043 -0.041386336 0.04838624 0.08309851 -0.044289052 0.004046005 0.04658051 0.058849443 -0.020811241 0.03436824 -0.036217425 0.063987724 0.06207968 0.036349136 0.03506948 -0.0641012 -0.08085701 -0.11032311
ñ -0.024586134 -0.052381407 -0.092386514 0.077201575 0.2342708 -0.0678674 0.045654338 0.101830475 -0.0043185526 -0.0017679988 -0.01307995 -0.054895677 -0.060590584 0.07795542 -0.015679182 0.019033942 0.10389033 0.05928228 -0.19144395 -0.23761204 -0.07514728 0.19936074 0.09075953 -0.1581005 -0.10543582 -0.112792246 -0.12863073 0.0888938 -0.23547113 0.03324816 -0.019126777 -0.21098031 -0.10684097 0.011644252 -0.07957535 0.08825609 0.11493745 0.124406084 0.000406101 -0.05917077 0.23997189 -0.20932 -0.2205727 0.21211644 0.10808379 -0.26418677 -0.19461831 -0.06513646 0.09891531 0.0053578867 -0.020559065 -0.13059229 0.13700214 -0.06658576 -0.1819931 0.173635 0.09724581 -0.12548693 -0.1377706 0.0072755194 0.1697752 -0.020319344 0.30567557 -0.08795641 -0.10082751 0.25793764 0.03470719 0.045054466 -0.17736796 -0.0637752 0.05333426 0.21385965 0.11027194 0.0007400482 0.14231235 0.4513062 0.12351461 0.08709607 -0.021338474 -0.17458981 -0.021529876 0.008874744 -0.019680224 -0.024661865 -0.037451632 0.06569213 -0.030739952 -0.009407212 0.011717872 0.075969264 -0.04172563 0.008154122 0.038130097 0.073843874 0.085342824 -0.0042568888 0.016236989 -0.06417903 -0.1468612 -0.16260149
ä -0.023740547 -0.023580654 -0.11863139 0.021760553 0.18817294 -0.023919368 0.018341398 0.055234205 0.016823076 0.049179304 -0.03045769 -0.045458827 -0.101873495 0.009085499 0.019366067 -0.02975747 0.09555071 0.056881085 -0.09257004 -0.21504456 -0.060057104 0.108649455 0.05367906 -0.17474966 -0.13721263 -0.074142836 -0.14046784 0.09598377 -0.21402141 0.008605688 -0.08190509 -0.13515803 -0.08212527 0.07329237 -0.06768936 0.083725646 0.025335401 0.11149486 0.014667094 -0.089898795 0.1626417 -0.14046071 -0.12633978 0.17623226 0.05089126 -0.15979387 -0.11269033 -0.0011501065 0.022709941 -0.05559874 -0.0063203624 -0.030123934 0.10310993 -0.066836394 -0.10737383 0.012478043 -0.008405049 -0.11005846 -0.080705635 -0.03394234 0.19652231 -0.043740224 0.17830479 -0.07819403 -0.008800979 0.044137698 0.004127861 0.007660362 -0.14033252 -0.13231659 -0.03459705 0.09448526 0.107998215 -0.01192555 0.07123614 0.37775475 0.05325048 0.062454864 -0.0024132219 -0.15096769 -0.050896935 0.06372706 0.007145827 0.02764801 -0.0011896417 0.043511223 -0.021145469 0.024144804 0.06711707 0.024348339 -0.035507474 0.017586563 0.04553229 0.009189921 0.10857848 -0.036776207 -0.036004085 0.016118899 -0.076107666 -0.11688899
ï -0.06835314 -0.10968686 -0.182431 0.037154716 0.22961986 -0.046878085 0.068005286 0.06451749 0.01501753 0.02384363 -0.008978677 -0.083076164 -0.11477645 0.03602915 0.039793447 -0.023555076 0.038368583 0.063737854 -0.1547167 -0.2445749 -0.06071275 0.19640069 0.05025118 -0.07019892 -0.10718966 -0.083830535 -0.06953194 0.07415438 -0.23857221 -0.045150425 -0.10324153 -0.13157181 -0.098582625 0.074257694 -0.08807812 0.047525924 0.0015147822 0.17704448 0.05206926 0.00033551193 0.23168439 -0.18423241 -0.23788926 0.21443371 0.104473226 -0.15094769 -0.16077071 0.005588111 0.05619831 -0.014047361 -0.02690608 -0.09810869 0.18506055 -0.043840483 -0.09033491 0.12846872 0.030312927 -0.07822427 -0.07026166 -0.016350014 0.08609089 -0.06954478 0.22614962 -0.103894725 -0.078844786 0.23661776 -0.064115524 0.052841034 -0.13348581 -0.05515232 0.01771429 0.15015773 0.15832643 0.009504779 0.04768812 0.40281057 0.12949817 0.025570003 -0.0255079 -0.17382535 -0.0016301179 0.017450754 -0.027539216 -0.06892142 0.012435959 0.0668044 -0.04930928 0.020455938 0.043509535 0.055292413 -0.04472232 0.03836213 -0.014089121 0.07479338 0.052168004 0.03466116 0.07263351 -0.06730149 -0.07979009 -0.13338932
â -0.0027488647 -0.09420707 -0.13969706 0.02706846 0.1901773 0.0047434624 0.027653696 0.027580267 0.028104208 0.045858297 -0.020759609 -0.031260043 -0.06814713 0.032683894 0.017951565 -0.019869465 0.084447294 0.06824895 -0.15380292 -0.25900447 -0.060788356 0.16026632 0.050661027 -0.098775215 -0.12279264 -0.09844865 -0.09906328 0.059197616 -0.2480424 0.031317867 -0.045184515 -0.17724432 -0.07079934 0.03355516 -0.10524125 0.06922105 0.009414849 0.16184837 0.032834664 -0.06986368 0.19232886 -0.16093837 -0.17205858 0.20289092 0.10368654 -0.2290599 -0.17904341 -0.075786605 0.054396797 -0.016282419 -0.022751348 -0.12978265 0.10940193 -0.07750584 -0.113515675 0.08368603 0.0052358704 -0.076250724 -0.10500866 -0.026811013 0.15549585 -0.053805415 0.19805853 -0.083261676 -0.05215641 0.16361561 -0.0030271548 -0.0057228496 -0.115718335 -0.10526266 -0.013674947 0.09753842 0.08739026 -0.0070289294 0.06961748 0.38242584 0.0799103 0.041019924 -0.060951483 -0.1424909 0.037065487 0.033334184 -0.049159214 -0.03554216 -0.0008081166 0.06879946 -0.01273737 0.053831544 0.03945687 0.06481824 -0.08253759 0.039597873 0.022699852 0.04316176 0.0522477 -0.02046697 -0.030762393 -0.017372854 -0.09802499 -0.12925117
ü -0.03829935 -0.09072673 -0.14485179 0.04305544 0.18263623 -0.028145079 0.03297858 0.027724955 0.05033389 0.030078383 0.010230634 -0.036435734 -0.093689635 0.05497806 0.018488215 -0.0045110146 0.03065575 0.071095794 -0.15514563 -0.22607057 -0.03300637 0.19274025 0.056377437 -0.059168316 -0.10822882 -0.084894165 -0.065425694 0.09015119 -0.23380668 -0.017489407 -0.075991735 -0.13052468 -0.06876443 0.05187598 -0.09464734 0.043929193 -0.014319162 0.16530868 0.056375835 -0.028642556 0.25033072 -0.18704775 -0.25761706 0.22695057 0.120848864 -0.19192536 -0.17182557 -0.020582039 0.03515985 0.0022072026 -0.047143117 -0.09403645 0.16842636 -0.059482288 -0.07757767 0.13952337 -0.0006086766 -0.07172084 -0.082914665 -0.034738794 0.10217128 -0.061302572 0.25032738 -0.08718319 -0.09631549 0.22621104 -0.02462086 0.042787235 -0.12403035 -0.051962487 0.008165922 0.12154953 0.13458051 0.021027429 0.0528806 0.40707412 0.09831164 0.0113094505 -0.057693776 -0.15664345 0.055365328 0.024854653 -0.05444826 -0.056382064 0.02760587 0.10129385 -0.042273182 0.019432435 0.024767034 0.059737712 -0.0874997 0.044305902 -0.014184917 0.087369926 0.036758438 0.03759611 0.03812747 -0.07139037 -0.09817009 -0.14690539
ο -0.031397793 -0.10368579 -0.1547236 0.031159349 0.18213971 -0.031095982 0.038516782 0.060713306 0.051954024 0.05110418 -0.01706844 -0.02633654 -0.096937776 0.024425682 0.012543735 -0.023572668 0.040321995 0.062217772 -0.1722358 -0.22544314 -0.05740164 0.16695698 0.05074489 -0.10451684 -0.10877468 -0.10462915 -0.06926476 0.045062706 -0.2104215 -0.016813079 -0.07940206 -0.14100048 -0.077626534 0.04763449 -0.080751725 0.05359817 -0.0036150727 0.1650025 0.03069907 -0.042667396 0.22191685 -0.17759581 -0.19728659 0.20135632 0.10866902 -0.21762939 -0.1627203 -0.027412834 0.042552117 -0.023066226 -0.024743032 -0.069660455 0.15174077 -0.036204018 -0.103214495 0.08548149 0.011015541 -0.0962139 -0.08517492 -0.03417867 0.14187805 -0.042504705 0.23718898 -0.09541257 -0.06819558 0.17676108 -0.03194739 0.04463157 -0.13376208 -0.09303464 0.0007686826 0.112863295 0.12560493 0.003941258 0.044217084 0.3890741 0.08390831 0.031612407 -0.029813934 -0.14409152 0.04639001 0.032996286 -0.033598498 -0.048127662 0.029719857 0.07196857 -0.04779677 0.037902195 0.028907271 0.06961501 -0.06579912 0.035216525 -0.0045718784 0.043303605 0.04829124 0.0023361177 -0.007876296 -0.03527225 -0.10137883 -0.15641949
ἶ 0.0013571369 -0.12487638 -0.15189353 0.015067614 0.1526476 -0.011542981 0.025041595 0.02288831 0.08257378 0.10041215 0.010447781 0.02459495 -0.08281075 0.032254096 -0.028043112 -0.015565295 -0.00039750268 0.055120245 -0.14530736 -0.13568792 -0.059756435 0.14833328 -0.0011640086 -0.061181292 -0.061916288 -0.12249952 -0.01644852 0.0074861255 -0.17050266 -0.040875882 -0.08610363 -0.09620309 -0.041805834 0.08900873 -0.050075278 0.017336108 -0.046045035 0.12242083 0.06664048 -0.099271245 0.15729357 -0.13338439 -0.15857182 0.15318069 0.06483202 -0.18238042 -0.124627545 -0.0004983413 0.020284131 -0.036253013 -0.065027304 -0.056921136 0.1416731 -0.04210549 -0.050601784 0.066873446 -0.019689944 -0.06892265 -0.06404841 -0.03397621 0.13567758 -0.020942451 0.15959926 -0.10894049 -0.061249208 0.08348884 -0.030506482 0.0027579009 -0.103390776 -0.089209765 -0.0076094978 0.08142764 0.07399441 -0.0031601365 0.03689072 0.32402378 0.03135946 0.0010142456 -0.046651654 -0.10042905 0.09807333 0.038043693 -0.03509993 -0.05197155 0.022921342 0.095690995 -0.061287247 0.010656931 0.0016588416 0.072712645 -0.096256316 0.024621945 0.0052733854 0.065467365 -0.0030006906 0.0002130369 -0.036471717 -0.022279963 -0.09451188 -0.15709656
δ 0.007210471 -0.10387886 -0.1371653 0.009893431 0.16336074 -0.008977978 0.008433048 0.021054469 0.07805639 0.08157392 0.00035100876 0.032624315 -0.08184365 0.03222347 -0.02088192 -0.0063005965 0.00012771462 0.072645396 -0.14824603 -0.14930649 -0.058960907 0.14046803 0.008163035 -0.06748448 -0.06937377 -0.11348107 -0.039338753 0.00947455 -0.17224126 -0.029644607 -0.09756777 -0.11263383 -0.05205604 0.07475222 -0.045470227 0.030751737 -0.04768834 0.13800465 0.07127565 -0.08829647 0.16100977 -0.15117905 -0.15755707 0.16676022 0.07953498 -0.20328982 -0.1306884 -0.02022878 0.023026807 -0.027600998 -0.054847077 -0.06422902 0.1206105 -0.033930935 -0.06945261 0.06724404 -0.0140481675 -0.07232536 -0.06856247 -0.04270654 0.13576584 -0.009380756 0.16049878 -0.091368124 -0.064343184 0.119691275 -0.022573723 0.0006639486 -0.10515524 -0.08098234 -0.0083027035 0.08174597 0.07669122 -0.0054696165 0.03934096 0.32820278 0.031572293 0.02243156 -0.0359292 -0.11056722 0.08217723 0.033130497 -0.04627819 -0.03996551 0.028887257 0.11330772 -0.06606596 0.024076702 0.0009868932 0.071213484 -0.1151343 0.01812834 -0.0023716628 0.053952698 0.0020317542 0.007939489 -0.040616386 -0.035501234 -0.11579093 -0.1498784
α -0.0038004776 -0.104328535 -0.14954305 0.020801846 0.13983613 -0.007895939 0.03047959 0.019334963 0.06922238 0.086499035 -0.010831183 0.011015504 -0.06597565 0.014443971 -0.025848437 -0.012885582 0.0138876615 0.0652445 -0.13445102 -0.15299258 -0.044973765 0.15419511 0.015095649 -0.06018012 -0.06366791 -0.10021321 -0.026625706 0.022471014 -0.16824277 -0.038387414 -0.089443475 -0.10001062 -0.034046534 0.082558475 -0.05093195 0.016941529 -0.05156203 0.13056658 0.06385574 -0.08157051 0.1546174 -0.1429389 -0.1666779 0.16919503 0.08344557 -0.18231678 -0.1392364 -0.021723147 0.016340423 -0.039473522 -0.051035855 -0.06667496 0.12093256 -0.04609714 -0.051188145 0.060669594 -0.02428038 -0.07900642 -0.071482114 -0.037450287 0.115481794 -0.031439867 0.15222892 -0.08503251 -0.06492006 0.10357659 -0.03227552 0.003837256 -0.10052494 -0.07844727 -0.0147405425 0.07065202 0.08341579 -0.005836755 0.030500112 0.3361164 0.0428072 -0.0050454643 -0.05512121 -0.1141038 0.098247 0.040160485 -0.042812437 -0.05534658 0.024377806 0.087155394 -0.069240555 0.02576625 0.0050348225 0.059065312 -0.10238896 0.027979627 -0.0034475145 0.06167984 0.019382836 -0.00060989824 -0.017206905 -0.022133246 -0.08502404 -0.14878923
π -0.040329944 -0.058558114 -0.091476984 0.031766113 0.13726944 -0.029309008 0.044050395 0.04097295 0.0151447 0.006323144 -0.007953661 -0.051418874 -0.06789445 0.015415026 0.022626236 -0.004831636 0.032136995 0.040910788 -0.10275594 -0.1553558 -0.041763183 0.12693594 0.039383274 -0.07023663 -0.08320711 -0.0586844 -0.05604195 0.04422787 -0.14919128 -0.013883085 -0.045116816 -0.09057012 -0.03603657 0.048187908 -0.072682075 0.042265147 0.015470279 0.13740206 0.027447978 -0.010907613 0.17542435 -0.12156903 -0.15020831 0.14563334 0.068458304 -0.12442231 -0.107897595 -0.0018244116 0.031096058 -0.019321933 -0.024547962 -0.038772646 0.11481213 -0.023143135 -0.076919794 0.06550454 0.012286195 -0.065145016 -0.03851483 -0.013857761 0.087408744 -0.036718797 0.14612947 -0.05524987 -0.05581755 0.124915935 -0.025850952 0.034333542 -0.10398726 -0.06042171 -0.0017626522 0.08986481 0.10642017 0.005993962 0.03966522 0.26539958 0.06997329 0.0154631175 -0.015264285 -0.10584162 0.03349042 0.016524514 -0.011221309 -0.023080759 0.008177008 0.044962846 -0.029110694 0.02031447 0.027731642 0.022624377 -0.03171126 0.033399303 0.008920997 0.041576643 0.042885974 0.010795241 0.011835986 -0.026266087 -0.033223264 -0.092680104
ν -0.03070603 -0.07074796 -0.10720051 0.019930266 0.12058029 -0.0163638 0.03144358 0.036701564 0.020639861 0.02497651 -0.016865894 -0.028632356 -0.059942186 0.011105467 0.009795045 -0.012888868 0.03532677 0.049617447 -0.118453085 -0.17058294 -0.0411808 0.12903064 0.046472307 -0.0703544 -0.083295666 -0.077247635 -0.039508015 0.03395368 -0.16301587 -0.006848698 -0.063538946 -0.10090273 -0.042258415 0.038387995 -0.059792925 0.04722017 0.008122248 0.12789895 0.026281126 -0.015145703 0.169175 -0.115197256 -0.14649422 0.13907884 0.07717039 -0.14060847 -0.107911296 -0.017458253 0.037914228 -0.028804824 -0.016081411 -0.054021988 0.11190541 -0.030146174 -0.0849407 0.068604045 -0.0013289887 -0.06915609 -0.054659937 -0.019712536 0.101914525 -0.032198567 0.15822355 -0.05948787 -0.04230813 0.13284017 -0.02615455 0.02480367 -0.10159429 -0.066852674 -0.00058889587 0.09695385 0.101202756 0.0008125474 0.05046021 0.2787009 0.068199836 0.012885694 -0.029179448 -0.10403048 0.02633619 0.014493643 -0.016835134 -0.03354325 0.0015184276 0.040010247 -0.0379475 0.023948789 0.02777727 0.037925534 -0.03411181 0.02417813 0.008944659 0.045040756 0.04499498 -0.0044457056 0.0022905308 -0.024877265 -0.065202825 -0.09495803
υ -0.033735756 -0.048041843 -0.09827057 0.02538763 0.124912046 -0.027675169 0.044240832 0.03794271 -0.0014290492 0.006990786 -0.0102425525 -0.057242256 -0.052658543 0.016460938 0.019571977 -0.017270386 0.040099945 0.046995692 -0.100036465 -0.17834662 -0.020335948 0.11353561 0.061398335 -0.06644249 -0.096785806 -0.041215494 -0.048236243 0.042484943 -0.16194381 0.0051088287 -0.043363765 -0.09697854 -0.0498013 0.023312332 -0.06333757 0.03932256 0.01753072 0.13584915 0.017330363 -0.007883514 0.1804907 -0.12147922 -0.15113395 0.15960617 0.07003838 -0.1334429 -0.105032675 -0.026294986 0.051130258 -0.023904718 -0.0315332 -0.059826378 0.12538989 -0.03844597 -0.06734478 0.07463575 0.019159071 -0.05597322 -0.04890209 -0.0075036036 0.08733894 -0.04386204 0.17206232 -0.046266798 -0.05930605 0.14679305 -0.031955272 0.034717806 -0.08074142 -0.050868716 -0.0053194053 0.07257301 0.10573419 0.008818009 0.040471096 0.25547045 0.065940596 0.02329687 -0.016035732 -0.10885076 0.022657756 0.017883018 -0.025100002 -0.045409773 0.0030251432 0.030500667 -0.02577336 0.025663983 0.044465676 0.023534432 -0.034534827 0.048322298 -0.010613159 0.039272513 0.05503908 -0.00030013866 0.022887882 -0.05145522 -0.04816781 -0.09970959
ς -0.026428739 -0.05148967 -0.10259838 0.015951835 0.13420661 -0.03172335 0.046634868 0.047210947 0.006213221 0.0008777943 -0.015183233 -0.048426416 -0.06709478 0.009080987 0.031343866 -0.0029085786 0.038946476 0.049698036 -0.09571755 -0.17652227 -0.022343375 0.120828405 0.04653563 -0.073281124 -0.091202185 -0.04075603 -0.060045727 0.05868389 -0.14993322 -0.007216062 -0.050871085 -0.09807619 -0.05635197 0.037882347 -0.057653338 0.050535407 0.014310712 0.1256197 0.012180638 -0.0012670348 0.16124995 -0.11974252 -0.14988706 0.14132456 0.08096513 -0.120211706 -0.115734324 -0.017143412 0.040329147 -0.023811013 -0.015343494 -0.047271203 0.117348984 -0.034055118 -0.061569527 0.061138023 0.01752237 -0.05767976 -0.04066578 -0.011354625 0.07585654 -0.05075656 0.16036953 -0.05832776 -0.053371813 0.12985487 -0.022586007 0.03077083 -0.09900245 -0.06769562 -0.014258829 0.088494286 0.09165796 0.0022317632 0.038852945 0.268779 0.07069011 0.023909606 -0.032036263 -0.103142925 0.013693711 0.024444891 -0.0056322785 -0.020179369 0.0121049415 0.037343338 -0.038936052 0.016211633 0.037868463 0.019580921 -0.021877537 0.03961786 0.002515027 0.02648116 0.06272419 0.0004682179 0.022124395 -0.03367986 -0.039431285 -0.07578622
å -0.03759409 -0.052836597 -0.07895554 0.022567987 0.10824647 -0.028993215 0.0401164 0.04186054 0.013334062 -0.00015738315 0.00949051 -0.044658568 -0.06608786 0.019877793 0.014378068 -0.014833912 0.03056253 0.041248035 -0.09817497 -0.14605094 -0.043289833 0.117335886 0.033616196 -0.037500188 -0.06547455 -0.057767242 -0.03307165 0.053424444 -0.122370414 -0.015803399 -0.0585731 -0.09173043 -0.053599715 0.04478216 -0.046165764 0.023595061 0.0068151606 0.09464828 0.038288843 -0.01720652 0.14143454 -0.108679526 -0.12075557 0.13338822 0.061182953 -0.12437417 -0.1163214 -0.011038916 0.038778655 -0.0021677776 -0.022793956 -0.073097445 0.122039065 -0.03341058 -0.065239586 0.084401965 0.008523648 -0.04662995 -0.04787675 -0.027862271 0.06455838 -0.037528124 0.15112424 -0.060880885 -0.057619806 0.14902037 -0.024384413 0.043057375 -0.081157915 -0.04778353 8.400492e-05 0.10386938 0.102361664 -0.005052806 0.039412677 0.2588554 0.07946179 0.008491916 -0.024869425 -0.099387005 0.025354568 0.0052411137 -0.02266446 -0.036764797 0.025633171 0.04689217 -0.038595498 0.011412244 0.017446121 0.048098132 -0.034321077 0.029001 -0.019451266 0.043106116 0.03153891 0.013808166 0.03095892 -0.040451087 -0.050720442 -0.08345602
ç -0.024028722 -0.05448194 -0.09834354 0.02175287 0.13005444 -0.011481552 0.034660213 0.024828844 0.024262192 0.0155096 -0.0036367127 -0.024054917 -0.067403875 0.02797266 0.020757416 -0.009456268 0.017642545 0.05202239 -0.093267396 -0.12636979 -0.036961228 0.11131222 0.03157633 -0.045642346 -0.06576512 -0.06258722 -0.04000465 0.031265724 -0.12952633 -0.017388837 -0.06256513 -0.08289613 -0.039123353 0.046066564 -0.06150659 0.01774084 -0.02081659 0.10141042 0.04690412 -0.026196394 0.12799917 -0.098698154 -0.12605755 0.12506261 0.06837679 -0.103688605 -0.10319075 -0.0077397865 0.03188037 -0.0058561773 -0.011967389 -0.053936493 0.10327695 -0.03549169 -0.05973685 0.06999755 0.0060459413 -0.038569268 -0.045409083 -0.013865066 0.057938654 -0.02943671 0.10390932 -0.049627516 -0.038926765 0.10209563 -0.041749645 0.02357584 -0.059603166 -0.038910538 -0.0030327106 0.06019328 0.08521205 0.005006144 0.021077694 0.21220547 0.059109893 0.012520105 -0.03316641 -0.09866547 0.03999523 -0.002482895 -0.02805392 -0.039067313 0.016161999 0.059785213 -0.025436983 0.015918283 0.019560445 0.039647955 -0.03199501 0.031913277 -0.00087690225 0.04163579 0.0208948 0.008860394 0.011124743 -0.028405348 -0.049122855 -0.085418314
î -0.033324648 -0.04257694 -0.06387861 0.018540835 0.12181401 -0.01668605 0.03903335 0.03411193 0.0028338092 0.0084998645 -0.010430932 -0.038444225 -0.059551604 0.005902659 0.03353633 -0.007772225 0.022264246 0.037960425 -0.0843865 -0.14175458 -0.031000927 0.0933516 0.028926406 -0.052210335 -0.0689265 -0.04748028 -0.04125813 0.04106187 -0.1273991 -0.016392825 -0.05756706 -0.07703162 -0.0384574 0.03858454 -0.05139078 0.03301759 -0.0030548135 0.08295343 0.017571123 -0.016375713 0.1404032 -0.10603518 -0.11335679 0.1225004 0.05816843 -0.090494454 -0.09445899 -0.017087042 0.017353864 -0.007909698 -0.02584713 -0.051447168 0.08765706 -0.037386432 -0.04404001 0.043615665 -0.009601274 -0.03702565 -0.03906498 -0.0062465686 0.06491931 -0.024168082 0.12949122 -0.05273396 -0.04646594 0.08732555 -0.01311148 0.026306856 -0.07637641 -0.044028617 0.0007495852 0.07646847 0.074638 -0.0059430627 0.03635492 0.21168053 0.045660835 0.009907576 -0.0164568 -0.09052329 0.017994639 0.025983222 -0.019304074 -0.010664908 0.009571313 0.05076857 -0.029446177 0.021350702 0.032642942 0.017361473 -0.039971396 0.018786097 0.007619353 0.040100202 0.021154627 0.0045040715 0.021782836 -0.030042673 -0.039826963 -0.08038242
