60 100
_ 0.12123366 0.11172316 0.047350936 0.13774379 -0.020166794 0.057342425 -0.10178964 0.052153926 -0.08431028 0.011894075 0.011430748 0.110418245 -0.17706574 -0.07251561 -0.19039497 0.023932455 -0.1949698 0.0691656 -0.08158168 0.04483919 -0.06426198 0.21800701 -0.18477233 -0.04316592 -0.08226033 -0.06976998 0.011654279 0.011804643 -0.40280515 -0.03331097 -0.13292311 -0.17873026 0.0024191085 0.085866876 0.046890758 -0.0020410132 0.046721958 0.10757288 0.018239623 -0.012807479 0.004167912 -0.06708627 -0.10765949 0.07007104 -0.09792154 0.071416445 0.09079955 0.04054038 -0.07056718 -0.039980326 0.02927382 -0.102498375 -0.100022085 -0.04357006 0.0020520228 -0.14178817 -0.10884522 0.11509233 0.06642351 0.020109024 0.162543 0.06251506 0.13076559 0.046382137 -0.0129461605 0.011359683 -0.010106142 -0.063159384 -0.08963215 -0.07855831 -0.0208098 -0.07531364 0.023778612 -0.0052911905 0.052618213 0.0006065634 0.030352069 0.032201953 -0.03600151 -0.020960424 0.046660114 0.026096249 -0.08544267 0.062523715 0.04768815 0.036708005 0.016335202 -0.010783588 -0.069560006 -0.012521247 -0.07063705 -0.049918637 -0.018944824 0.043536294 -0.04324122 -0.07596867 0.007717846 0.019934842 -0.024757981 0.010394012
e 0.043784995 0.0114112925 0.009378093 0.025590722 -0.035698544 -0.021092387 -0.08724573 -0.03942747 -0.020873709 0.010655134 0.015302841 0.100528196 -0.080973245 -0.01706342 -0.06893843 0.013796104 -0.22202563 0.12659095 -0.17468022 0.026589986 -0.09482244 0.22366957 -0.18708815 -0.022277288 -0.10908685 -0.05636571 0.08228621 0.03267882 -0.34322482 0.020861851 -0.16319413 -0.16846515 0.06731231 0.19075327 -0.08975896 0.11730015 0.009044053 0.08192827 0.112840526 -0.038062282 0.10263236 -0.12853242 -0.19481152 0.11406897 -0.09643584 0.09966127 0.16882072 0.12548706 0.02395542 -0.015071889 0.05977452 -0.04779012 -0.11572822 0.029708073 0.020653954 -0.0663123 -0.07300181 0.06672013 0.006930548 0.03527335 0.0027644632 0.033632 -0.03897075 -0.008092643 0.038670417 -0.021994246 0.03753425 -0.111149505 -0.0063461796 -0.06523061 -0.05129376 -0.0062852926 0.009248387 0.010323269 0.036146667 0.037441555 0.025349794 0.044865433 0.028889807 -0.0982236 -0.043071132 -0.030778464 -0.004967132 -0.01734607 0.038804576 -0.004082151 0.016668621 0.015744766 0.011435364 -0.019446192 0.021829477 -0.007108805 -0.04393176 0.025517127 0.024495598 -0.00079978514 -0.020630741 0.020906556 -0.14298487 -0.049011644
t 0.07064154 -0.011044589 0.037007216 0.028108552 -0.03156458 0.031246765 -0.08053061 0.08530957 0.021749174 -0.061929934 -0.0030040503 0.00503619 -0.121834815 -0.011124074 -0.09546267 0.024293818 -0.22732423 0.10299028 -0.11896643 0.06444701 -0.07085105 0.11313989 -0.15554821 -0.027705204 -0.1146647 0.028946714 0.018973505 0.06698675 -0.33626744 -0.04425414 -0.22175778 -0.10020841 0.06730414 0.054528035 -0.046880115 0.06402294 0.00023913235 0.01819766 0.028723754 -0.06650608 -0.0015200776 -0.14907897 -0.21054862 0.13611473 -0.12660569 0.12121318 0.1561155 0.06818981 -0.11024804 -0.09506179 0.008147707 -0.09751687 -0.045118026 -0.05828174 0.07831696 -0.121548764 -0.0054969103 0.024803191 0.05098856 0.046332534 0.06970371 -0.02260553 0.16384563 0.02783943 -0.10036953 0.11375332 -0.112335354 -0.18834221 -0.096257 -0.045449957 0.055219647 0.020525698 0.12783238 0.031400952 0.066520885 0.06603591 0.13185097 0.057007212 0.0002324308 0.025038462 -0.010805221 0.0042826063 -0.06471631 0.010414772 0.052031823 0.121542536 -0.09614294 -0.031442784 0.028454175 -0.02991071 -0.0065772664 -0.0071920273 0.08574962 0.029594813 -0.023464097 0.008148089 -0.019303853 -0.022027837 -0.024693156 -0.0073442003
a 0.06811619 0.019927623 0.011750326 0.11502876 -0.035260707 0.071058616 -0.1563425 0.01612868 -0.056371547 0.07791499 -0.038243886 0.16778937 -0.024105366 0.010570796 -0.06891748 -0.0048082205 -0.20437239 0.105312064 -0.107596025 0.05273855 -0.102685556 0.18923117 -0.19394486 0.04269831 -0.024289638 -0.052314874 0.09829567 -0.02070679 -0.45172164 -0.020018056 -0.15073365 -0.1544773 0.036869213 0.033268433 -0.043431606 0.12060966 0.062036972 -0.007141189 0.040747825 -0.05837562 0.07190691 -0.14210294 -0.17506206 0.00985166 -0.099406764 0.022648761 0.14001018 0.06800238 0.011325872 -0.046425395 0.0067573837 0.0460613 -0.03155265 0.04850008 0.008396092 -0.020506058 0.041888576 -0.07305405 0.030942319 0.039855327 0.023174103 -0.0487235 0.057171173 0.019922905 0.008126542 0.06866316 0.056057956 -0.02697541 -0.08261068 0.021195464 -0.027900413 -0.04471465 -2.0327403e-05 -0.07955933 0.0030997093 0.013694446 0.0038358993 -0.0013793205 0.0062178043 -0.057273544 -0.014987382 0.03972964 0.013340159 0.026530275 -0.021708094 0.06454154 0.0040873885 -0.01827542 -0.09958384 0.008766048 -0.044950467 -0.03092251 0.032223053 0.015190871 0.019720307 -0.047750663 -0.060312506 0.12349093 -0.059099894 -0.008874223
o 0.02060561 0.038549945 0.011369738 0.07637765 -0.022847464 0.032259714 -0.17855683 -0.027566705 0.0030531702 0.011040221 0.026599737 0.0728668 -0.07694276 0.00035076065 -0.07442015 0.04739714 -0.2934648 0.12773414 -0.10544975 0.12755223 -0.04839027 0.1482745 -0.17533493 -0.054874163 -0.032321855 0.014696214 0.010801799 -0.00480926 -0.3743177 -0.033513457 -0.15969379 -0.15342805 0.072538376 0.08218042 -0.06446365 0.093194135 0.09418929 0.08246278 0.021082465 -0.064588495 0.040656287 -0.11736242 -0.13930982 0.08268535 -0.14811699 0.058918808 0.16236198 0.10672581 -0.054534055 -0.11935184 -0.00462081 0.067668214 -0.06883533 -0.0009763819 -0.01752366 0.013727155 -0.08024128 -0.017794214 -0.04378645 -0.01470724 0.07185158 0.010462198 0.0929699 0.101929605 -0.0016289635 0.1000268 0.024787879 0.027997414 -0.046903443 -0.0074023292 -0.0247298 -0.038936816 0.05290075 -0.063482404 0.046459112 0.06429424 0.033532552 0.04907268 0.0023178419 0.008220497 -0.08888125 0.018233132 0.0053681107 0.045630213 -0.0044368766 0.04491445 0.012444153 0.028788669 -0.027425054 -0.013482728 0.0043853717 0.0034904217 -0.045921095 0.03556357 0.019726621 -0.097389385 0.029317537 0.10780308 0.0071279528 0.07851799
n 0.16218564 0.08726101 0.0124079585 0.021812066 -0.000451602 0.061321698 0.0022397728 -0.0064469785 -0.0019929444 0.0011525204 -0.063451126 0.08401765 -0.038675312 -0.020350702 0.030613687 0.02383996 -0.24134378 0.25750417 -0.09406485 0.06871294 0.0080588 0.17180079 -0.21547921 0.0388192 -0.10858572 -0.06793636 0.053147256 0.036423847 -0.3872486 0.01670101 -0.23429066 -0.15252246 0.0370566 0.04393881 -0.031210996 0.079462245 0.0060946327 0.010609808 0.030460263 -0.06334529 0.11459051 -0.0898747 -0.120145746 0.039879117 -0.047624625 0.012052492 0.11761326 -0.0152105605 0.026550988 0.0023199378 0.1076599 -0.10704787 -0.094959855 -0.04519553 0.01608036 -0.061673228 -0.09317051 0.086425506 0.040193435 0.05352011 0.060442418 -0.030169245 0.13240512 -0.095955916 -0.06198949 -0.0056316694 -0.0865037 -0.07983509 0.011097498 0.070343144 -0.0059073404 -0.025360322 0.054621078 0.030466698 0.080554694 0.06065817 0.03414233 -0.029804984 0.010151706 -0.06268513 0.0964173 -0.035165086 0.008769099 -0.05831928 -0.002083583 0.05162125 -0.07200487 -0.02522391 -0.07207067 0.08422362 -0.072007835 -0.06123971 0.10307004 0.018986998 0.08501698 -0.05489894 -0.16465491 -0.045943394 0.038494848 0.009538176
i 0.07324407 0.015065512 0.04230081 0.091392264 -0.047859754 0.03498065 -0.10920826 0.031099098 -0.05569928 0.019670732 0.010794211 0.13103306 -0.10833705 0.0441459 -0.15127629 0.042046946 -0.27305916 0.1253177 -0.20874631 0.06911429 -0.15258984 0.20610146 -0.20203014 -0.05803554 -0.1202657 0.0139038535 0.0007039195 0.049162578 -0.35076565 0.04449423 -0.13491474 -0.17355128 0.027420877 0.07143641 -0.06444423 0.1159822 0.014333382 -0.006847972 0.07365102 -0.053654328 0.05125017 -0.0943214 -0.10587702 0.02275055 -0.063047536 0.10910735 0.12824489 0.105821885 -0.028372144 -0.08830241 0.04677155 -0.09289061 -0.02590781 -0.04812926 0.03460919 -0.08848858 -0.09298095 -0.03903531 -0.027248442 -0.018991673 -0.051293686 0.0029430098 -0.012846923 -0.024857953 -0.06470667 0.12167056 -0.0035781085 -0.03255716 -0.063074924 -0.025802871 0.041035153 0.043580458 -0.014347676 0.0014167354 -0.035168923 0.0013033642 0.041164387 0.026100786 0.04522798 7.549883e-05 -0.05200181 0.04979442 0.059439708 -0.025210021 -0.0025703374 0.035788774 -0.04520884 -0.04830965 -0.036839448 0.02282755 -0.09433076 -0.055194568 0.055847578 -0.010235921 0.017826479 -0.009501755 0.022258231 0.052183427 -0.004385356 0.024388297
s 0.0046648914 0.045623925 0.028562548 0.05338704 0.020547535 0.057918902 -0.068622686 -0.043676782 0.023367697 -0.05179595 -0.031525135 -0.0026029993 -0.13699098 -0.04271728 -0.06600735 0.011934297 -0.30832624 0.16068573 -0.11993685 0.05452349 -0.022687128 0.081720985 -0.105072826 -0.08735187 -0.0769497 0.036834784 -0.018255224 0.079078585 -0.4344256 -0.022500666 -0.20712733 -0.15389274 0.110900074 0.047110528 -0.017697243 0.09211678 0.00910606 0.037994266 0.06317555 -0.0009855885 0.054179743 -0.05426455 -0.14185068 0.10064198 -0.09106352 0.04348216 0.09477342 0.058566414 -0.027526047 -0.05194242 -0.01302387 0.009580982 -0.11752619 -0.0025912314 0.0522984 -0.08153491 -0.07535088 0.03805134 -0.018477296 0.07276789 0.1249236 0.025861839 0.16223529 0.07446475 -0.019786777 0.054718424 -0.033813793 -0.07393561 0.06408705 0.039859556 0.032586966 -0.013791517 0.02857613 0.002616442 -0.018242478 -0.025343096 0.05183869 0.005363838 0.0133544495 0.007520189 -0.02299259 0.007708837 -0.017943181 0.051563308 0.0042115073 0.07380828 -0.07134495 0.029731428 -0.01255837 -0.021298843 -0.01733586 -0.03989562 0.076107495 0.053480424 -0.037784565 -0.031485446 -0.033361558 0.01325748 -0.02480215 0.0024893726
h 0.2180503 0.006780214 -0.035135236 -0.02706011 -0.0015708866 0.020527234 -0.08509715 -0.0494797 0.021929078 0.04039607 -0.06264577 0.19713819 -0.058571156 -0.020472353 -0.09326458 0.04412972 -0.2537501 0.21202587 -0.12382885 0.059551522 -0.05247916 0.11235309 -0.1719593 -0.0812755 -0.09148665 0.023850348 -0.0419073 0.064738624 -0.40480548 0.035422314 -0.21566942 -0.13839151 0.09412632 0.001702424 -0.01602632 0.07411967 -0.021062342 0.003778674 0.14613377 -0.06623897 0.12047858 -0.112948865 -0.1073012 0.016852852 0.04923265 0.11293437 0.13028492 0.04366372 -0.054247487 -0.047985215 0.06938645 0.053324852 -0.067047305 -0.028303584 -0.08695655 0.06686095 -0.049024835 0.041611217 -0.069579534 -0.03402169 0.13085976 0.12211009 0.063512795 -0.0031154868 -0.08712196 0.10689275 -0.005972947 -0.09412332 -0.036696672 -0.014663872 -0.037907526 -0.03218502 0.09945576 -0.01172648 0.04946185 0.058809172 0.057514284 0.0126455175 0.03365571 -0.060677618 -0.027297616 0.0006020837 0.020437842 0.015318118 -0.019119851 -0.0073607843 -0.045453582 0.039203346 -0.021370178 0.06709682 -0.04376038 -0.034950305 0.10411313 0.047146514 0.048627466 -0.103434175 -0.078676894 0.017603515 -0.03452749 0.055967152
r 0.060520787 0.057095405 -0.010739095 0.09197859 -0.030438602 0.1053143 0.02097932 -0.08587428 0.031942867 -0.016301287 -0.040248793 0.036175843 -0.15054387 -0.059772328 -0.049730454 0.028668394 -0.34068954 0.14319202 -0.101552606 0.07132666 0.058923077 0.14979634 -0.20651332 0.0047125053 -0.0747938 0.018636236 -0.017608594 0.09627277 -0.34940493 0.028576719 -0.11510489 -0.16491282 0.07186914 0.11791133 -0.010187007 0.14537582 0.10428937 0.037671246 0.02658819 -0.052398782 0.07095176 -0.02713881 -0.16032015 -0.019534921 -0.101832055 0.06892891 0.084156916 0.084253125 -0.05798188 -0.04930194 0.030995654 0.006681022 -0.0032090994 0.04063348 0.08502048 -0.15602958 -0.04957109 0.040974658 0.06685477 0.047169514 0.12968771 0.096613295 0.14886658 0.0073913215 -0.07290311 0.05636064 -0.059873443 -0.06687174 -0.08013608 -0.037391253 0.008071252 -0.015390735 0.05352698 0.002620456 -0.031102965 -0.0648857 0.059248585 -0.03582108 -0.023579806 0.0026197087 0.03505202 0.028316593 -0.030484708 0.039785363 0.0033306906 -0.03632068 -0.06832972 0.040032003 0.031048851 0.029459756 -0.060286984 -0.0026832386 0.047462523 -0.021743476 -0.016300075 -0.039932244 -0.015061133 0.028144717 0.04554799 0.101059586
d 0.023099616 -0.008049089 0.006581895 0.09858352 -0.08360312 0.079415746 -0.11511902 -0.122276135 -0.029945262 -0.06514577 -0.03343274 0.078680314 -0.06506953 -0.0018224175 -0.10415752 -0.024324102 -0.296282 0.123502016 -0.19818172 0.06959973 -0.07661927 0.13696806 -0.20634486 -0.050223887 -0.121133864 -0.014115233 0.032993406 0.052612964 -0.36043572 0.0070502753 -0.080740705 -0.17225793 0.050860252 0.025818432 -0.045133866 0.08184314 0.018077655 -0.016098576 0.006323854 -0.0068166456 0.00948335 -0.04833954 -0.13978557 0.061439548 -0.020412846 0.06077924 0.05036976 0.055169016 -0.078283966 -0.024735799 -0.039601285 -0.01812158 -0.113676935 -0.010117506 0.11997639 -0.12455647 0.0038184444 0.026558736 -0.070969455 -0.05682581 0.09710393 0.10564935 0.08856893 -0.0051987404 -0.0032471349 0.017901288 0.0056270137 -0.17016834 0.054955088 -0.049942333 0.0031335398 0.04469535 0.07133864 0.023503976 0.048027415 0.10474838 0.03663155 0.033759452 -0.0011824216 0.0059861573 0.0073949313 0.0224304 -0.018276982 -0.017180812 0.06443353 0.13448484 -0.11978785 0.01694878 0.0047035906 0.017975885 -0.014503716 -0.038577955 0.097933985 -0.016099313 -0.015972763 -0.015556872 -0.014218155 0.016542334 -0.09822756 -0.0013806476
l 0.09127422 0.058034986 -0.02097312 0.15533413 0.023337118 0.06578244 -0.086740404 -0.029713739 0.03595821 0.0024210268 -0.10147507 0.103870526 -0.05649637 0.0019668846 -0.015419945 0.012555274 -0.28830752 0.18338716 -0.05763586 0.094284974 -0.0196469 0.14233972 -0.17480648 0.048199642 -0.08505907 -0.05230523 0.043898426 0.04547251 -0.3649015 -0.01129412 -0.15492123 -0.12709355 0.010533477 0.026743883 0.010119146 0.08319473 -0.008135788 -0.030916626 0.0063468763 -0.03852363 0.09254641 -0.10672405 -0.1310743 0.053808082 -0.0407672 0.066016994 0.12839386 0.056298696 0.049939718 -0.02419234 -0.006453968 -0.014320073 -0.21261925 0.0021012414 0.15525514 -0.1858039 -0.054162372 0.017789397 0.038235426 0.089388765 0.07732995 0.036330428 0.07980135 -0.06976594 0.019507838 0.029428646 -0.006082697 -0.12877479 -0.020454917 0.023576016 -0.12757047 -0.017277395 0.05883953 -0.039194927 0.01493381 0.079234086 0.039122947 0.013251785 0.045660414 -0.019183794 0.048122775 0.03701613 0.033111997 -0.008416378 0.045677107 0.110449255 -0.12040887 0.028119769 -0.012088294 0.04432516 -0.014113875 -0.017702593 0.049557295 -0.034831155 0.045357328 -0.043267976 -0.050346192 0.030620005 0.02575097 0.032545984
u -0.033053774 -0.041366406 0.040551085 0.029191276 0.023792643 -0.0017936791 -0.16738074 0.19817695 0.021723919 -0.013821608 0.0025154527 -0.026226617 -0.030207641 0.08327185 -0.0071619344 -0.0004887019 -0.32300124 0.21376847 -0.120420195 0.16447175 -0.11326896 0.2816691 -0.09120981 0.06794232 -0.17463957 0.015680106 0.11885809 0.16159579 -0.35511798 0.009829926 -0.21874343 -0.14695378 0.0069415006 0.009519932 -0.08548523 0.094844565 -0.027909439 0.07914532 0.029073225 0.020606956 -0.02827445 -0.14889096 -0.05470022 0.11021997 -0.06999873 0.1162036 0.2436375 0.028246077 -0.034792643 -0.0021091534 -0.012039991 -0.08441688 0.011009345 -0.100633845 -0.006503848 -0.023239514 -0.0693947 0.038013313 0.12586765 0.111668736 0.04014474 0.015390919 -0.038694464 0.057736654 0.017370928 0.0026698222 0.047656298 -0.1004845 -0.1064545 -0.03371018 0.032629933 -0.0036781076 -0.021758026 -0.04187172 -0.0355359 -0.058689505 -0.013885523 -0.0071810563 0.05510659 0.04444711 0.05095742 0.03739959 0.06342653 0.027296275 0.0016333996 -0.07921242 0.054004103 -0.100956365 -0.008115255 -0.05959398 -0.0023819199 -0.08308496 0.18225579 0.0047968933 -0.08885229 -0.053604677 -0.004820148 0.12205502 -0.08703016 -0.07193792
m 0.12999289 -0.04334033 -0.098428875 0.13339016 -0.08209172 0.073526576 -0.09053778 -0.06192633 -0.09980734 -0.07769044 -0.05542532 0.016648106 -0.03273894 -0.038295038 -0.007022366 0.021177305 -0.24309671 0.119404495 -0.05991402 -0.022054374 -0.009750884 0.21392947 -0.15795164 -0.06419099 -0.08608982 -0.060510367 0.0444158 0.0390271 -0.3242456 -0.043592747 -0.14159094 -0.10376245 0.013036427 0.011284305 -0.035015684 0.13117212 0.087447025 0.08098858 -0.056676023 0.045496803 0.08114848 -0.124726385 -0.17824379 0.04515868 -0.09843529 0.11453256 0.17262003 0.11735848 -0.029060606 -2.1295244e-05 -0.043051824 0.012421067 0.027461752 -0.037549477 0.057234377 -0.055694874 -0.11238578 0.08654252 0.06640105 0.00076625036 0.098995335 0.10078181 0.03593994 -0.022887146 -0.03297892 -0.0056524263 -0.019556442 -0.1689401 -0.089670725 -0.026218526 -0.11787106 0.027253523 0.11492024 -0.03829593 0.021350227 0.06789286 0.060829412 0.045249376 0.036477502 -0.0051730163 0.07582148 -0.016271546 -0.03971108 -0.009113064 0.06566136 0.012798479 -0.0584558 0.021727836 -0.022907702 0.05866026 -0.0794479 -0.026958354 0.05092117 -0.022501715 0.044647116 -0.1514243 -0.041028142 0.06817668 -0.05835635 0.04013268
c 0.06855034 0.01506125 0.0158863 0.12613294 0.035492502 0.05736561 -0.028849436 -0.05755509 0.016336326 -0.05868728 0.040642183 -0.07562954 -0.14666931 -0.038785547 -0.002309345 0.036670532 -0.30459577 0.11573837 -0.08183402 0.11272421 -0.09485545 0.10444115 -0.041916016 -0.0654101 -0.031557962 -0.004078367 0.057818864 -0.013634673 -0.3472452 0.025487563 -0.17078453 -0.17380427 0.08173156 0.10879856 -0.06968203 0.10514335 -0.031172335 0.08196926 0.08867342 -0.07341005 0.060289163 -0.12321617 -0.16278778 0.13504514 -0.12131851 0.060621906 0.10685101 0.02879872 -0.03215969 -0.003993561 -0.07062635 -0.11366814 -0.13513647 -0.03923965 0.07071775 -0.09093531 -0.07955891 0.06817552 0.017066147 0.035616044 0.13051827 0.037093267 0.1577644 0.10101635 0.021044865 -0.024813218 -0.03169762 -0.15627149 -0.0307137 -0.026362652 0.025177637 -0.009598074 0.072467014 0.036086734 0.018092914 0.024875334 0.014291033 0.02968235 -0.032433927 0.06042973 0.005661348 0.03287867 -0.10762152 0.08802708 0.028537154 0.08390628 0.027059497 0.008033697 -0.013268102 -0.04158986 -0.079344586 -0.06461065 0.10334963 0.07437045 -0.0002344143 -0.09606135 -0.011678862 0.035871204 -0.09821068 -0.049057186
f 0.007998259 -0.08611241 -0.027868202 -0.090236 -0.10386103 0.038046125 -0.07499592 -0.026381452 -0.060903396 -0.018447736 -0.035058986 0.076291986 0.038275927 0.010469575 0.013804792 -0.023408467 -0.2736588 0.17476353 -0.10063556 0.08921488 -0.058285777 0.17762141 -0.18082887 -0.004645759 -0.027021263 -0.055956922 0.18756177 -0.04869203 -0.3212528 -0.06527147 -0.23609643 -0.04794857 0.08832204 0.11787554 -0.037528206 0.1270305 0.037472192 0.052813757 0.031534202 0.025974741 0.08574214 -0.104037985 -0.18118882 0.043088567 -0.0319501 0.07514532 0.128668 0.017628556 -0.09837373 -0.023993729 0.04252565 -0.09432751 -0.02866174 -0.045747325 0.02527741 -0.09117262 -0.02207875 0.089617595 0.068383165 0.014123254 0.15504174 0.077159874 0.21952772 0.012368782 -0.08073063 0.089761496 -0.05664109 -0.11237844 -0.013600259 -0.010626237 0.070739694 0.003843852 0.08022006 0.029617304 0.049719922 0.031095566 0.10204798 -0.010423495 -0.02802158 -0.10861466 -0.013366104 0.023860037 -0.081850015 0.043091502 0.036885362 0.010957076 -0.025379345 -0.01378662 -0.04741588 -0.025514899 -0.070444286 -0.02773781 0.09648344 0.0747075 -0.03738789 -0.113782294 -0.010817221 0.032927323 -0.13776578 0.0064393003
w 0.09369217 0.057070687 0.055051487 0.08125917 -0.038106155 0.042531952 -0.024326622 0.03513476 -0.15659212 0.054579347 -0.027673656 0.0593948 -0.075081095 -0.013698714 -0.111172736 -0.025240738 -0.19150715 0.07905541 -0.10037381 -0.045972444 -0.16143517 0.15445663 -0.05721615 -0.14192402 -0.09275962 -0.0664643 0.099250935 0.0029285264 -0.36600676 -0.07031043 -0.16208923 -0.07181875 0.11429081 -0.003108075 -0.021541404 0.1399255 -0.050841432 -0.028076768 0.09426619 -0.13008772 0.05255851 -0.1548339 -0.18263951 0.015612727 -0.036528688 0.14059363 0.19423474 0.07882958 0.031514026 0.063249804 0.030211342 -0.08340548 -0.054111246 -0.012456574 0.06877951 -0.17371571 0.0006009943 0.032029834 0.06289433 -0.007082424 0.1176995 0.038427345 0.12990808 0.005128806 -0.109209284 0.1544773 0.0012901523 -0.27043974 -0.14380153 -0.00965242 0.008101773 -0.00027821373 0.07753803 -0.0034141296 0.053342853 0.02234593 0.018809855 0.01571173 0.029716238 -0.012046564 0.10106189 -0.008710764 -0.040842254 0.007724052 0.040293008 0.10696844 -0.036395524 -0.050524592 -0.10781746 0.028237123 -0.07468755 -0.09723229 0.083052054 0.012672897 0.017609403 -0.080875136 -0.1226515 0.15274912 -0.15696368 -0.062456638
y -0.100158766 0.17687368 0.10012723 0.026089357 -0.10181205 -0.01530147 -0.1301372 -0.028785115 -0.031078141 -0.02717052 -0.012643426 0.00905809 0.049280897 0.027005786 0.08648527 -0.06152038 -0.31858677 0.19207944 -0.21489468 0.09471978 -0.012814872 0.16400827 -0.15761337 -0.0018012844 -0.11628754 -0.047801647 0.07895301 0.0034520335 -0.3892402 0.12558596 -0.06485308 -0.23125036 0.08244616 0.07639153 -0.1242455 0.1464384 0.04013298 0.0500154 0.030456027 -0.05756613 0.047592126 -0.048093148 -0.054547597 0.05754452 -0.05352233 0.01366766 0.17596401 0.02516449 -0.057992905 -0.11581079 0.1283785 0.11970316 -0.2445655 0.021357754 0.0032004872 -0.09309054 -0.10412065 0.018170688 -0.0856145 0.025343804 0.11958954 0.046446614 0.065936856 0.05561694 0.0021368207 0.014170444 0.047649913 -0.065853655 -0.051113214 -0.09983771 0.06642215 -0.036741316 0.034740973 -0.012647069 0.11489331 0.072293915 0.08837539 0.077941105 -0.010060029 -0.084175505 -0.1132223 -0.014522421 0.0514344 0.0017664146 0.044636622 0.10641464 -0.024986379 -0.0033113942 -0.04251106 -0.07829289 0.10358777 -0.023270592 -0.051453173 0.089562245 -0.03717831 0.029006762 -0.033271085 0.005305446 -0.063633025 0.039756034
g -0.015759887 0.06436411 -0.029804802 0.027611952 0.021299122 0.04418382 -0.04007666 -0.081842065 -0.056532983 0.03769829 -0.0034201767 0.038722664 -0.02950442 -0.019476704 -0.10873648 -0.020733995 -0.31767607 0.041379396 -0.11342794 0.07326645 -0.072594754 0.09870583 -0.16550632 -0.13707605 -0.072703436 -0.11157303 0.05832755 -0.036320243 -0.42363408 -0.10574925 -0.060558647 -0.074815504 0.01361654 0.010871182 -0.038988866 0.1253734 -0.0021685257 -0.011967114 -0.07517423 -0.078082986 0.056994107 -0.10351007 -0.19644187 0.11535899 -0.05550841 -0.006613171 0.055079687 0.03881224 -0.015702056 -0.048563823 0.0030399254 -0.080492586 -0.026222171 -0.013361122 0.053099923 -0.08631774 -0.19227047 0.019116092 -0.08143763 0.00635887 0.08201645 0.0059363646 -0.0069648745 0.06984922 -0.0060731503 0.10102538 0.008359743 -0.13948375 -0.05627493 -0.033942606 -0.08662895 0.01911869 -0.0022696948 0.05158786 0.031607114 0.031018386 0.109693855 0.08838251 0.029665515 -0.06359137 -0.04229812 -0.008673516 -0.095099166 -0.01892074 0.11220406 0.23096873 -0.12304738 -0.024990382 -0.07956661 0.03644691 -0.14140789 -0.14926378 0.055203132 0.03258377 0.04951988 -0.034940373 -0.10305378 0.14909187 -0.231003 -0.06165743
p 0.046278767 -0.047415234 -0.0034443762 0.119924515 -0.1300387 0.016770113 -0.07164179 -0.10731269 -0.08695479 -0.12687646 -0.011462018 -0.01981171 -0.120421365 -0.03974432 0.0816002 0.025892662 -0.264165 0.12506926 -0.16271761 -0.054099794 -0.15166524 0.20708069 -0.1589964 -0.037686694 0.0065800576 0.0039846837 0.08529839 -0.051704023 -0.2002119 0.096852474 -0.21103224 -0.117266685 0.08349246 0.07322054 -0.14542043 0.13485675 0.02097269 0.12264453 0.09254366 0.068669096 0.1513162 -0.12898502 -0.16697967 0.11641586 -0.12871689 0.01773972 0.07309262 0.14854045 -0.035266362 -0.09090495 -0.05903255 0.009943574 -0.0340899 -0.017914109 0.08549731 -0.027775615 -0.1303742 0.025301052 0.0022026526 0.046773817 0.1800017 0.023859983 0.26982078 0.04938075 -0.005018934 -0.041715894 -0.032172766 -0.191235 -0.033857826 -0.016601779 0.021078488 0.00902638 0.09042426 -0.041395947 0.013470528 0.11267011 -0.0271308 -0.012925924 -0.015079161 0.030333616 0.025509482 0.03486337 -0.015356725 0.0046663797 0.007911351 0.086806186 -0.016569266 0.02723062 -0.14626974 -0.03263182 -0.1998356 -0.031927343 0.09231436 0.14967379 -0.0023892706 -0.19136487 -0.04754075 -0.030754643 -0.023624554 -0.0028502645
<s> 0.08536477 0.20868991 0.096852325 0.092855796 0.073368855 -0.1676025 -0.18389355 0.40885028 -0.10655619 -0.10930819 -0.004892497 0.23828332 -0.18927363 -0.03458974 -0.28158298 0.07081724 0.23357971 0.3154532 -0.3693359 -0.49356902 -0.18985552 0.22539477 0.03194831 -0.47558406 -0.3145244 0.09680282 -0.27450553 0.29409155 -0.49856505 0.114579156 -0.18620275 -0.19069226 -0.04062423 0.022882745 0.10242552 0.15822303 -0.011285986 -0.2610498 0.24726419 -0.24053398 0.063062385 -0.24886486 0.03932916 -0.07537912 -0.029340781 0.20742175 0.2422688 0.03485252 -0.23461492 -0.2542834 0.05624431 0.078571446 -0.056259785 -0.15711316 -0.051926404 -0.10281306 -0.23387197 0.15458159 0.111941084 0.158307 0.24775364 0.06553391 0.20493127 0.10437919 0.09077899 0.22214703 0.058829013 -0.33118573 -0.1862702 -0.06561986 -0.27683452 -0.14399028 0.045457758 0.10276575 0.027155103 -0.012230932 0.1450312 0.16430119 0.13028955 -0.15477362 -0.07741301 0.11178071 -0.03195471 0.09341172 0.091179505 0.022103144 0.013912841 0.121672966 0.06177081 -0.020231824 -0.09291285 -0.15571408 0.3351341 0.018739196 0.23803215 -0.30314955 -0.0022761966 0.13369066 -0.18041366 0.05911626
</s> 0.0021597443 0.02402999 -0.09323068 0.59929895 0.18011858 0.18604274 -0.046769008 -0.11460189 -0.103365906 -0.18962033 0.07425474 -0.29519513 -0.035029802 0.102942355 0.12875268 0.027281763 -0.4447668 0.037130315 -0.10356298 0.16676357 0.035328507 0.32771826 -0.11940314 0.17210823 -0.16151732 -0.04901486 0.0688082 0.0726797 -0.3240163 0.12421457 0.09174118 -0.5367883 -0.20143577 -0.036696214 -0.17699304 0.19759314 0.28249258 0.4035702 -0.2573405 0.49529174 0.5327644 -0.18138233 -0.645314 0.41059288 0.19634822 0.005452164 -0.25858858 -0.24825701 0.2589581 0.16563216 0.24130717 -0.3474718 0.09994656 -0.068059966 -0.2268703 0.1580058 0.04432856 0.10399357 0.032850932 -0.092387244 -0.02962759 0.03701238 0.26442116 -0.056729432 -0.2694536 0.39727342 -0.23282422 0.10045575 -0.03333974 -0.06019876 0.0108523 0.11751141 0.20261538 0.016309004 0.042796828 0.11430624 0.2307798 0.09913996 -0.044004165 -0.11111566 -0.6211214 -0.018854253 -0.059620522 0.03214166 -0.050966043 -0.16646817 0.15166165 0.035205502 0.23146783 0.08835204 -0.03743421 0.07855749 -0.0018333799 0.074481234 0.3417794 -0.1791581 0.115708545 0.14369921 -0.21603096 0.008578452
, 0.1705187 0.0033388725 -0.014939874 0.09909123 -0.0044694864 0.01665174 -0.18352395 0.17397627 0.13275643 0.0012102836 0.0032020125 0.21132126 0.056765642 0.08362549 -0.18516614 0.07779084 -0.069739595 0.1657636 -0.15974034 0.062424373 -0.08121861 0.1333312 -0.26874036 0.028601605 -0.05367733 -0.01931531 -0.070168495 0.020201214 -0.37406656 0.15125935 0.0010932749 -0.21259473 -0.009366463 0.08190319 -0.14236598 0.17896765 0.12971278 -0.08514046 -0.045614526 -0.1061229 -0.047679022 -0.10439257 -0.057773814 0.014588187 -0.089788705 -0.042106945 0.06590083 -0.08159224 -0.09814068 -0.09644349 -0.058580093 -0.0258858 -0.22900647 -0.05085353 0.057997134 -0.123056464 -0.18781428 0.01834996 -0.004067242 0.06537204 0.04628003 -0.04882761 0.12793812 0.041021895 0.023208242 0.07108706 -0.032857157 -0.32158098 -0.14329964 -0.05731094 -0.138943 -0.07370011 -0.007440357 -0.03738457 0.0691989 0.04178001 -0.019111093 0.1383296 -0.035844833 0.03802933 0.016548 0.10137104 -0.10694608 0.112536676 -0.0882509 0.028937584 0.057228144 0.12974948 -0.07369878 0.02683923 -0.27001545 -0.12826824 0.2338506 0.0022412532 0.043190002 -0.22049214 -0.17997704 0.13164373 -0.17299412 -0.0065542287
b 0.059088223 0.050820068 0.02440719 0.15395086 -0.11803144 0.10912931 -0.13695228 -0.040739805 -0.13782032 -0.008519016 -0.06646502 0.050918635 -0.057578113 -0.0023283807 -0.09652452 -0.025408689 -0.2885161 0.156554 -0.14006147 0.08742341 -0.09276818 0.06138057 -0.17597568 -0.08897422 -0.08558732 -0.05037178 0.12668289 -0.065554686 -0.36035863 -0.14048086 -0.15393053 -0.045898944 0.02420251 -0.06749277 -0.020301158 0.15588956 0.063959084 -0.031721536 -0.03224442 -0.08564165 -0.0022726287 -0.09483457 -0.03249374 -0.010456266 -0.07516356 0.02143158 0.12831105 0.05582437 -0.007387928 -0.025915457 -0.004905277 -0.07380911 -0.07668241 -0.032283936 0.10798393 -0.14735451 -0.06420831 0.008328973 0.0022347367 -0.032039367 0.14486425 0.015098921 0.31534597 -0.010115938 0.028992038 0.060874242 -0.020217074 -0.15335041 -0.046309236 0.01434046 -0.0038262834 0.03216739 0.08698843 0.07002804 0.08025617 0.094119295 0.002009537 0.070020184 0.038283855 -0.059872314 0.055872317 -0.03387329 0.002318972 -0.008901231 0.0013256783 -0.0353213 0.011010811 0.038499117 0.023168748 -0.029875772 0.099511854 0.02601352 0.054817505 -0.053103495 0.079468 -0.062117774 -0.030935958 0.055238567 -0.07690869 0.015711322
v 0.074596755 -0.053501062 -0.04123273 0.023666672 -0.14426072 0.109836176 -0.14256226 -0.109077446 -0.06160567 -0.09260635 -0.047115292 0.042980388 -0.10682995 -0.00016978198 0.028761288 0.026839934 -0.18615589 0.16483386 -0.13790658 0.050639875 -0.027896825 0.15806566 -0.12001491 0.0076571507 -0.11853271 -0.019585488 0.0972751 0.08081013 -0.3563913 0.013242939 -0.17348695 -0.13090493 -0.00010135354 0.09514821 -0.060132653 0.092541195 0.014454554 -0.0765103 -0.020344475 -0.11791779 0.06106347 -0.08510311 -0.18762967 0.07155586 -0.031856745 0.027659616 0.035523854 -0.018135102 -0.063478455 0.0032068212 0.0057615265 0.0020902888 0.095863454 0.016142216 0.053183865 -0.025209773 0.11277416 0.058971733 0.14313345 0.07043143 0.16380322 0.09573213 0.09690231 -0.010442724 -0.017318616 0.0032231088 0.0056160474 -0.34938806 -0.21292612 -0.10354029 -0.09133363 -0.021821966 0.13463955 0.02137371 0.05370015 0.068467915 0.14548722 0.011028533 -0.02362286 -0.04186148 0.107007705 0.06985825 -0.01867235 -0.012131223 0.1097507 0.1354207 -0.14791004 -0.073053025 -0.06346817 -0.013069627 -0.061726563 -0.07215612 0.15680686 -0.029673234 -0.09140331 -0.013456014 -0.07034865 0.041006885 -0.11990401 0.023130728
. -0.02658421 -0.19516307 -0.35987848 -0.028309979 0.10268441 -0.1063464 0.053690422 0.07611586 -0.1542475 -0.062398143 -0.1956422 -0.012257398 -0.23638335 0.009821042 0.0076479437 0.10256822 -0.46875635 0.33357906 -0.10658952 -0.05985877 0.12145343 0.2751091 0.007214312 -0.021137208 -0.09595047 -0.1775295 0.05570706 0.0010902038 -0.44360217 0.11738248 0.078751735 -0.18338974 -0.12144883 0.0027924695 -0.3638037 0.3568462 0.13238578 0.33365673 -0.1436209 0.19254187 0.31973636 -0.19238752 -0.3277014 0.38781735 0.09286431 -0.080019765 -0.16153294 -0.0008549957 0.53270966 0.09619414 -0.06421792 -0.32832778 0.013401702 -0.08662915 -0.028316477 0.16222104 -0.041993093 -0.14946206 -0.14803559 0.05930747 0.14306271 -0.17643109 0.20764709 0.15750134 0.07646585 0.38519582 0.17864451 0.17939371 -0.26552892 -0.09652209 -0.055488445 -0.05504734 -0.035438865 0.030489478 0.04477835 0.05844926 0.11372368 0.080185026 -0.123222925 -0.2279274 0.07134684 0.11596896 -0.13834627 0.07280678 0.06775776 0.07347487 0.008413921 0.10497074 0.012457225 -0.0763375 -0.18237486 0.18255313 0.011607884 -0.06525579 0.255183 0.041747894 0.3484703 -0.17952621 0.17560975 0.11118414
k 0.053215727 -0.033829164 -0.06199555 0.08311334 -0.03499316 0.07232148 -0.1346925 -0.007863485 -0.008405502 0.08220915 -0.07949796 0.12793775 0.0015512911 0.014081035 -0.07496623 -0.036454696 -0.29227006 0.09046462 -0.08560912 0.06028051 0.013129963 0.17500943 -0.10978678 -0.040673252 -0.10191448 0.015012335 -0.039491568 0.11645371 -0.4557411 0.053943314 -0.059835702 -0.21652718 0.07320842 -0.0576917 -0.015162931 0.035244524 -0.017829193 0.013704312 0.0023483871 0.03625868 -0.03397769 -0.059956636 -0.1943366 0.05575548 0.1190408 0.15577815 0.10404569 0.01609028 -0.08116476 -0.044008944 -0.005487353 0.08325681 -0.1150594 -0.04383031 0.0319324 -0.07514593 0.063638985 -0.049178112 -0.017575812 -0.011313438 0.10188468 0.036940936 0.072154544 0.04157485 -0.21343087 0.2080196 -0.0142466435 -0.054370064 -0.0971581 -0.0066991635 0.11622419 0.078293525 0.11243018 -0.118493 0.0601876 0.023165202 0.04888568 0.0021851757 0.043862734 0.051675513 0.1257131 -0.0138636185 0.0019717037 -0.017957104 0.05777489 0.15844257 -0.17352873 -0.060546577 -0.04453098 0.049085405 -0.020125464 -0.07751251 0.19531135 0.014662753 -0.05872709 0.01564889 -0.17122826 0.14236373 -0.041405365 0.0033679875
; 0.35228333 -0.07194371 -0.09235784 -0.033196054 0.14121805 -0.026107514 -0.1702398 0.20036896 0.41896614 0.17968027 -0.023405043 0.26771015 0.094381146 0.10862396 -0.11235714 0.124391615 -0.18907171 0.26405984 -0.06794301 0.24461563 -0.031615935 0.027670704 -0.2957693 0.14129284 0.024887037 -0.092767544 0.049045574 -0.1303449 -0.2830659 0.11280577 -0.028088905 -0.08071977 -0.12962942 0.20358934 -0.17070149 0.22745977 0.037250947 -0.012957931 -0.047255415 -0.13370118 -0.16362701 -0.08937233 0.12768556 -0.07865619 -0.028978072 0.051828038 0.15134697 -0.112857156 -0.08920702 -0.14509702 -0.07905641 -0.07213441 -0.3280699 -0.0448592 0.14192829 -0.20652659 -0.27871245 0.011617681 0.0191757 0.121304 0.14643095 -0.013865111 0.20400523 0.052385833 0.014507791 0.15108974 -0.09737369 -0.3824898 -0.3732472 -0.22797084 -0.12919259 -0.14950728 0.048900962 0.008345467 0.08731489 0.058101073 0.07019339 0.20095918 -0.16512652 -0.018657211 -0.0033374599 0.15667006 -0.27947274 0.2396753 -0.07079989 -0.003909394 0.13769563 0.1970329 0.0082784835 -0.11662594 -0.36460108 -0.020534538 0.2424866 0.08018393 0.035801392 -0.20611167 -0.14411601 0.047074728 -0.24089837 -0.051929217
" -0.062454704 0.23856981 0.089934275 0.5952374 -0.33573663 0.05381122 -0.00044305934 0.2031749 -0.66067874 -0.4960401 -0.102351695 -0.25581756 0.14652975 0.030454254 -0.02741329 -0.085863896 -0.10717497 0.22171658 -0.27317548 -0.29494274 -0.05003542 0.2584654 0.032767087 -0.09795614 -0.2830225 -0.07747692 -0.032140274 0.17511643 -0.5262175 0.24668434 0.14308095 -0.3775001 0.18624258 -0.5201431 -0.28286767 0.40393275 0.20049745 -0.039225128 0.008330309 -0.14567502 0.30826414 -0.17290199 -0.22139293 0.093291104 -0.12801501 -0.12081359 0.19337535 -0.030264368 -0.11394981 0.118479736 -0.01141689 0.24816728 -0.06657436 -0.035195667 -0.112639055 -0.13268752 -0.02495324 0.15226015 0.001336318 -0.033267584 0.1046079 0.12540416 -0.13422066 0.12176755 -0.055685077 -0.032430504 0.19295493 -0.14555423 0.072816744 0.19715372 -0.04163101 -0.008374165 -0.054143775 0.037291985 -0.004124772 -0.16653925 -0.045423187 -0.040947944 0.11412783 0.19065133 0.16695005 -0.13301389 0.106453344 0.05237606 0.04271192 0.18067619 -0.053822923 0.005957258 -0.173592 0.18806814 0.30266693 -0.16089071 -0.073828995 -0.065420985 0.10064831 -0.19994003 -0.013597581 -0.013758313 0.18240434 0.17727545
x 0.14866668 -0.005154516 0.041824274 0.10274234 -0.12274076 0.016748747 -0.0007818429 0.005405627 -0.04140275 -0.31935808 -0.11367146 0.059856847 -0.22300586 -0.109130524 0.032291926 -0.017612971 -0.29633132 0.11908194 -0.16183977 0.0599043 -0.13441403 0.06903887 -0.23088899 0.10870349 -0.005691578 0.12995546 -0.035611227 0.10188062 -0.42656234 0.19455789 -0.2645379 -0.10066144 0.13936879 0.10339096 -0.030561484 0.13805261 0.05511212 -0.025717938 0.2463817 -0.082730144 0.1583625 -0.23121585 -0.13232526 0.072956875 -0.19198436 -0.18040738 -0.08606104 0.11630341 -0.076610476 -0.07142031 -0.11321647 -0.004244354 0.11566056 0.049536794 0.008529327 0.17951126 -0.0059424434 -0.05722197 0.027685987 0.22186147 0.03866078 0.05837736 0.034826245 -0.02513919 0.12036953 -0.2573389 -0.09594805 -0.32803223 -0.05847789 -0.0549093 -0.11209278 -0.002404272 0.068979226 0.017420134 -0.17186385 0.12691133 0.13263106 0.04123422 0.052022293 -3.0787192e-05 -0.29725793 0.18068288 -0.048565328 0.08578883 -0.059082434 0.0750348 -0.056863077 0.0148208495 -0.08215538 -0.04567752 -0.21066566 -0.07866447 0.22429794 0.15047818 -0.13710168 -0.060567 0.07306757 -0.2810489 0.047004875 -0.005371105
' -0.27460626 0.21619101 0.049101256 0.30253357 -0.039766315 0.029706841 0.2027795 0.30000725 -0.08421387 0.18568806 -0.2174467 0.048936192 -0.14275666 -0.19228789 -0.28915647 -0.22941855 -0.35321537 -0.050856806 -0.22180651 -0.0961466 -0.021380978 0.057648875 -0.15063971 0.055153277 -0.14451909 0.093810126 -0.2116184 0.22789764 -0.45116434 0.04707982 0.20205003 -0.17509712 0.015045472 -0.5372975 -0.061509263 0.2300372 0.1775137 0.15047677 -0.062347192 0.15022832 0.083895974 -0.32197315 -0.35293612 0.26466134 -0.10045764 -0.16022155 0.21182823 0.2151163 -0.038369965 -0.02682684 -0.04996954 0.21187142 -0.17859548 0.047400616 0.005852159 -0.19055271 -0.08049179 -0.13199809 -0.06833543 0.15684173 0.23714261 -0.05040738 0.15235564 0.043227594 -0.15884784 -0.021696955 -0.05767223 0.043822177 -0.12331407 0.024496328 0.06871803 0.05530912 0.18532887 -0.095611766 0.05512047 -0.0168196 -0.024420077 0.2148053 0.1518759 0.028666321 0.12688129 -0.09832207 -0.015637998 0.079941355 -0.17327176 -0.24589133 0.104245126 0.121330954 -0.11244216 -0.053533383 -0.02227463 -0.04674942 0.23655114 0.093444504 -0.08312014 -0.07753055 -0.468993 0.041266277 -0.0374091 -0.10457263
q 0.06924722 0.3137484 0.09324901 0.31970185 -0.086682476 0.05374393 -0.22816744 -0.04077665 -0.16956861 -0.12507659 0.008394425 -0.10932294 -0.007863026 0.012206547 -0.03456098 0.048647266 -0.5701533 0.099616595 -0.04981439 0.24186002 -0.1812068 0.13422987 -0.35221672 -0.15389365 -0.046799567 -0.010806406 0.07734043 -0.09417417 -0.027024945 -0.14664486 -0.26632148 0.2363831 0.017918445 -0.20586304 -0.0020566236 -0.022650708 -0.17598073 -0.13923869 0.043573875 -0.33750838 0.122701585 -0.31269187 -0.008988723 0.22230239 0.0040020626 -0.17767006 -0.08039373 -0.05406117 0.065991 -0.13104576 -0.11920353 -0.07691074 -0.17201473 -0.058212094 0.081254326 -0.076219864 -0.38596138 0.005251344 -0.09923136 0.06846013 0.27658638 -0.10346178 0.31499308 0.25229093 0.1660851 -0.07607363 -0.08610198 -0.1728322 -0.10331677 0.09969406 -0.2346607 0.031122055 0.25399864 0.025031189 0.15585095 0.2788942 0.08527864 0.16556758 0.12026151 0.056607585 -0.09003274 -0.10504715 -0.10153446 0.039148074 0.11082037 0.15216182 -0.024014054 0.090674974 0.05433034 -0.055828895 0.08582486 -0.012911707 -0.057118453 0.11628186 0.17211051 -0.2835196 -0.08568138 0.101563275 0.062412474 0.061895076
j -0.045663822 0.102878556 -0.08554985 0.33924133 -0.23689424 -0.030418882 -0.13759962 0.25924703 -0.15355037 -0.17391314 -0.109828465 0.0836713 0.057787187 -0.020357382 -0.16388898 -0.012963296 -0.40939605 0.034329694 0.05781996 0.22725032 0.030844398 0.37725145 -0.34135073 0.16358389 -0.15437238 0.024000105 0.045941837 0.22776876 -0.12563218 -0.04590843 -0.17441146 0.058446053 0.1539398 -0.08830403 0.0071323947 0.0029191952 -0.029015569 -0.0012430458 0.13192311 -0.15979636 0.040720887 -0.21396011 -0.13747652 0.16332805 0.0123700155 0.015785431 0.085225515 0.0421973 -0.13926572 0.027154543 -0.17602825 0.12282573 -0.0472349 -0.053335745 -0.0057226694 -0.04575516 -0.11352725 0.12891345 0.14500687 0.1354047 0.16977769 0.037268497 0.078761294 0.20380367 0.028133726 0.009839859 -0.017856492 -0.07458658 -0.017037274 0.013737495 -0.08245391 0.0059759384 0.14909314 -0.071491875 0.09941188 0.14598133 0.05043007 0.07506028 0.10516455 0.027655296 0.00058295985 -0.086851425 -0.1324062 0.058336742 0.104910314 0.01625773 -0.02032505 0.044271946 0.10454671 -0.0033366038 0.12326363 -0.009150164 0.06145468 0.084513955 0.011095766 -0.19971973 -0.038473655 0.046514135 0.026988672 0.04294977
z 0.02268316 0.28544948 0.043961287 0.3712097 0.13092837 0.056883782 -0.13181087 0.17459385 0.06860597 -0.017946376 -0.10017777 0.12789153 0.16609432 0.039872356 -0.012353839 -0.2019959 -0.3465064 0.12563826 -0.05601531 -0.029764373 -0.012538888 0.07861546 -0.10545942 -0.029275164 -0.18935949 -0.22179277 0.10376376 -0.009531246 -0.6038344 -0.05575444 0.019327926 -0.156336 -0.21023329 -0.16776317 -0.17146794 0.40765527 0.12786637 0.17926113 -0.21773301 -0.07160657 -0.119238615 -0.2675734 0.008591368 -0.08035026 0.14041194 -0.13440017 -0.0073752757 -0.11641391 -0.31189898 -0.050373014 -0.050200745 0.07265014 0.27786875 -0.1374836 0.075521566 -0.016057046 -0.24403593 -0.041027877 -0.09080637 -0.10549272 0.114766106 0.10827644 -0.09384865 -0.16575648 -0.2226518 0.20853205 -0.26792064 -0.10105616 0.0064042835 -0.10552422 -0.21933194 0.076752685 -0.17144062 0.21266134 -0.020442203 0.06833743 -0.16484374 -0.18659616 0.16372034 0.07541523 0.19002207 -0.18151689 -0.058982115 -0.38993484 0.26542905 0.32741016 -0.19949241 -0.14600359 0.087934956 0.2134617 -0.06258373 -0.085616656 0.084618546 0.044764932 0.20715977 0.15249972 -0.17677906 -0.093561724 -0.077747546 -0.35128263
? 0.052043516 -0.14456004 -0.28024822 0.036919776 -0.045538496 -0.18517645 0.0655864 0.52159387 -0.4606564 -0.28651467 -0.26171532 -0.11663815 -0.0329063 0.15168849 -0.15385127 0.11155759 -0.24162187 0.424907 -0.23667872 -0.41899586 0.21273205 0.38175607 0.017911721 -0.1559464 -0.3351331 -0.12198893 -0.12796254 0.30548733 -0.59010273 0.1640852 0.20397538 -0.16812453 0.003121348 -0.3644719 -0.5157558 0.40239793 0.21306391 0.24416839 -0.19232959 0.10419937 0.25685298 -0.19414644 -0.22699647 0.3172016 0.123917304 -0.23961195 -0.17952612 -0.12094921 0.5089207 0.1577103 -0.07162318 -0.34158245 -0.15096304 -0.16608547 -0.07097931 -0.04749578 -0.13039242 -0.16056135 -0.21961606 0.103453286 0.20251705 -0.17408061 0.12920262 0.36259046 -0.050528865 0.43303055 0.26374003 0.108862616 -0.31283864 0.03259001 0.011968477 -0.016737489 -0.08954732 -0.034980252 0.08413926 -0.13281482 0.054114733 0.05142919 -0.06448903 -0.024564011 0.34658554 -0.014758598 -0.18333939 0.18919921 -0.010683209 0.1099264 -0.03841652 0.1887127 -0.065542825 0.0977379 -0.08257933 0.037116528 0.09966676 -0.19485272 0.17196433 -0.046054576 0.16175717 -0.13139974 0.31527406 0.22694731
: 0.39965975 -0.18062231 -0.047568496 0.12839991 -0.09524182 0.018970985 -0.14745279 0.34016836 0.068271026 -0.18461375 -0.04729062 0.1738451 0.2959158 0.19288169 -0.28392315 0.06813858 -0.018512053 0.19286983 -0.22653759 0.13214856 -0.0951496 0.031904772 -0.32435912 0.10380032 -0.08891546 -0.02271175 -0.073476404 -0.027591119 -0.35222486 0.2510724 0.13397428 -0.23900907 0.06043324 -0.2658067 -0.3522025 0.31059077 0.31634203 0.016983742 -0.16361815 -0.021272704 -0.15678589 -0.0023453506 0.029053768 -0.06906396 -0.1641689 -0.12815952 0.107015334 -0.21353255 -0.3203226 -0.09343662 -0.09676223 0.015889509 -0.40003225 -0.17749181 -0.07001032 -0.057057362 -0.31700867 0.100622535 -0.17519876 -0.061207857 0.2426235 0.059486922 0.27458143 0.23646504 -0.1407766 0.11596465 -0.020146973 -0.3995375 -0.19233945 -0.08691167 0.044856902 -0.12920757 -0.050418597 -0.0076906434 0.15157942 -0.035623632 -0.031174688 0.14938784 -0.25949973 0.18422776 0.0818918 0.051814795 -0.26645893 0.2835711 -0.24595444 0.014363181 0.18354063 0.20053957 -0.21858047 0.079354726 -0.26028278 -0.13690901 0.1662052 0.064441435 -0.15520225 -0.32633153 -0.15806319 -0.025605384 -0.16530026 0.037885047
é -0.13787359 0.15533933 0.08560825 0.23431903 -0.122765206 0.081485555 0.075218916 0.28497088 0.07328979 0.029871458 -0.13644825 -0.009637476 0.05170875 -0.064595334 -0.15405738 -0.13590002 -0.37672436 -0.0014189603 -0.12735708 0.19979209 0.052310668 0.0181122 -0.2518393 0.19525585 -0.1382529 0.11146442 -0.03769446 0.17682782 -0.47173744 0.057050392 0.04351353 -0.20074424 0.098824896 -0.3756402 -0.08403863 0.06796245 0.16434902 0.124679536 -0.120885834 0.1136562 -0.07094615 -0.19672371 -0.23755589 0.30593014 -0.12174457 -0.27373958 0.14346538 0.042882722 -0.029297842 0.034974303 -0.06902426 0.1322207 -0.25904197 0.025881626 -0.0233213 -0.07630214 -0.038520884 -0.035512984 -0.040508997 0.20537694 0.19796939 -0.10680707 0.19871347 0.16540557 -0.13379292 -0.12076545 -0.09430717 -0.05581399 -0.039076243 0.041628342 0.1655005 0.05084524 0.12130791 -0.053368106 0.09019985 -0.043845247 0.028974738 0.15707307 0.075287774 0.12763841 0.12633811 -0.1307817 -0.07198716 0.11991275 -0.13790233 -0.11293573 0.017199675 0.083896615 -0.0972073 -0.07984945 0.0767466 -0.076236606 0.21703504 0.1155033 -0.20666853 0.03516425 -0.3986192 -0.0813255 -0.023179347 -0.13488267
æ -0.009216727 0.02960391 0.021166265 0.16658297 -0.02411123 0.039479807 -0.0046762675 0.14433481 -0.032146256 -0.14616108 -0.042352542 -0.13513449 0.010925302 0.05893506 -0.0200277 0.0032898637 -0.31387705 0.113593854 -0.10342834 0.16185996 0.020929076 0.17939353 -0.18929373 0.13297383 -0.16223979 0.02668851 0.016832363 0.16261469 -0.40173 0.077552974 -0.033276524 -0.23466574 0.044844475 -0.14756125 -0.20676991 0.12130207 0.072298035 0.13369988 -0.11250987 0.06594125 0.101243466 -0.1104362 -0.21912724 0.2893312 -0.021197842 -0.110976934 -0.006334143 -0.07608996 0.10077241 0.092315935 -0.036641743 -0.1332335 -0.15499796 -0.04391731 -0.042295236 0.02730863 -0.04894391 0.034163658 -0.048186716 0.04705277 0.07633474 -0.045336545 0.14678742 0.12245926 -0.11112909 0.07918934 -0.05955066 -0.08653952 -0.048468105 0.0056914166 0.1043925 0.055565678 0.11378623 -0.04397633 0.115380436 0.10664543 0.11673022 0.10316106 -0.08251336 0.03828222 -0.11891926 -0.031351853 -0.10697033 0.10061652 -0.038672548 0.098746166 -0.009158997 0.014172163 -0.026359443 -0.00679286 0.0051343334 -0.021476567 0.05050862 0.06534267 -0.029713167 -0.06496275 -0.04985266 -0.0063864747 -0.045679234 -0.009874622
ê -0.0035961438 0.042210456 0.027953945 0.2139071 -0.05030683 0.05916679 -0.018992107 0.10440946 -0.13504864 -0.11406415 -0.062458508 -0.08405006 0.02358006 0.06635903 -0.04011898 -0.04009383 -0.27235195 0.1260196 -0.14740975 0.06884848 0.04053836 0.15274172 -0.16906182 0.10781612 -0.15273486 -0.016666984 0.009485284 0.09616075 -0.40617198 0.1321879 0.044066057 -0.28578427 0.036589973 -0.2094328 -0.18229537 0.18239987 0.20467624 0.18374753 -0.10946525 0.17027126 0.17842515 -0.13363 -0.26150408 0.20540006 -0.0032396016 -0.080381475 0.023668222 -0.06946605 0.048012365 0.017555678 0.051655583 -0.044451125 -0.11309378 -0.03798023 -0.05580888 -0.012482165 -0.04681887 0.002700262 -0.069325455 -0.005481388 0.0909777 -0.0182533 0.19270146 0.068929076 -0.14576772 0.14751692 -0.02348029 0.0047948137 -0.08562784 0.0030212975 0.110942304 0.035488617 0.05439534 -0.015783392 0.08068309 0.016495463 0.06379422 0.08416253 -0.01239198 -0.0015009246 -0.063255586 -0.03207793 -0.02485074 0.062508106 -0.07350274 -0.023099292 0.037857834 0.020723382 -0.0053068674 0.039369073 0.017985253 -0.033602696 0.070271716 0.017479928 0.02666499 -0.029163664 -0.036774762 -0.013910447 -0.009621116 0.04106641
ö -0.028321166 0.02608108 -0.04044171 0.12338802 0.031451005 0.021104738 0.003691911 0.09144762 -0.08953435 -0.074684024 -0.05589742 -0.08882553 -0.020474765 0.04487146 0.0076952814 -0.013642963 -0.23877338 0.14357771 -0.14238581 0.023560852 0.02360825 0.18099727 -0.14060575 0.06942594 -0.13014066 -0.01795329 0.011340465 0.049936898 -0.4191213 0.117498316 0.036673304 -0.3056194 -0.008069011 -0.092274696 -0.21546096 0.22500096 0.18237618 0.23229116 -0.13179421 0.1903214 0.2466184 -0.17344238 -0.33655086 0.29095262 0.040385783 -0.06466211 -0.014583669 -0.0928618 0.18738034 0.05996808 0.074341126 -0.1754327 -0.07295966 -0.043378934 -0.07101952 0.03986651 0.0144984 -0.033291988 -0.070804894 -0.011644748 0.08411044 -0.044052646 0.24011397 0.057340078 -0.11832132 0.24028236 -0.0041742963 0.007653905 -0.14235094 -0.027691333 0.086148486 0.045893475 0.15745147 -0.019170603 0.12778403 0.116345584 0.13369095 0.1229495 -0.064804025 -0.096153125 -0.19202958 -0.0027968714 -0.074155636 0.08016861 -0.041518092 -0.008837571 0.030039586 0.0339588 0.0064003603 0.010349231 -0.030901326 0.023917373 0.08885373 0.027031867 0.11136677 -0.05636099 0.0013904748 0.02495977 -0.024506984 0.03873255
è -0.05223982 0.08011017 -0.006875378 0.21328431 0.0132563 0.017352927 0.0012003813 0.10215989 -0.09661997 -0.13283576 -0.05454274 -0.13846539 -0.015438987 0.04241148 0.026915155 -0.009276495 -0.24888498 0.08365867 -0.11199689 0.014494337 0.04649793 0.20574066 -0.14152311 0.06127821 -0.14867397 -0.00014520097 0.0035851013 0.13217932 -0.40299985 0.08110673 0.036468916 -0.27592987 -0.021420492 -0.11698306 -0.18724677 0.17453736 0.17001277 0.18358853 -0.1235983 0.15167612 0.24619535 -0.16204034 -0.33455247 0.2698094 0.027292278 -0.074299544 -0.04675673 -0.09625887 0.14968249 0.06866103 0.06869227 -0.14493425 -0.072192654 -0.030647079 -0.07974297 0.038367502 0.018733764 0.032059178 -0.002676717 0.046818066 0.07321122 -0.041704733 0.22117925 0.079317525 -0.12135846 0.19925992 -0.07054619 -0.030097937 -0.10714121 0.0012092891 0.028578177 0.06575134 0.19274679 -0.013681946 0.104372546 0.08567757 0.15146583 0.11845903 -0.023107916 -0.032512546 -0.20652302 -0.020058256 -0.08532539 0.0919523 0.0029418564 0.0020871963 0.00259757 0.04605394 0.046998516 0.0010464203 0.028795319 0.0018432052 0.06787566 0.017025376 0.09028165 -0.075473264 -0.010134218 0.034813832 -0.03950574 0.037035663
ë -0.07115353 0.02897673 -0.030510273 0.15490687 0.041179936 0.038815655 0.019196635 0.022270394 -0.041988548 -0.07849411 -0.051882524 -0.107520595 -0.029852606 0.044487983 0.062233023 -0.032378655 -0.3359925 0.107384086 -0.0942685 0.08315106 0.025015892 0.18807976 -0.14424115 0.116512574 -0.11218268 -0.04636161 0.08859072 0.056574572 -0.4017094 0.046723157 -0.0071430253 -0.24189103 -0.040504556 -0.03803357 -0.18121378 0.21428463 0.14040074 0.21889558 -0.1035509 0.15891606 0.20930685 -0.14162286 -0.3017025 0.21931088 0.019964369 -0.044702973 -0.019955723 -0.057951644 0.14598976 0.07648782 0.05249673 -0.18278441 -0.033632305 -0.022442898 -0.038330045 0.038805645 0.023029163 -0.004510775 -0.023003496 0.02960152 0.06900144 -0.0026878547 0.16875863 -0.003679447 -0.108517155 0.1540869 -0.072299264 -0.011120569 -0.07828199 -0.027153676 0.07288748 0.05507918 0.13396229 0.019497111 0.073452964 0.11119226 0.12979941 0.05891323 -0.049230352 -0.076612495 -0.15064202 0.011217087 -0.068705685 0.013740675 0.016162721 0.036417753 -0.022314558 -0.0045044287 0.015158683 0.0044577303 -0.039535724 0.019271854 0.043178495 0.03950395 0.057080712 -0.012909195 0.038703654 -0.026821468 -0.052584395 -0.024243705
à -0.055523306 0.08131318 0.016220914 0.24925137 -0.079040796 0.040316496 -0.017235309 0.1014309 -0.15933871 -0.1474095 -0.06270786 -0.10750003 -0.012467594 0.022412075 -0.026729206 -0.03575063 -0.28838646 0.08986055 -0.14333943 0.064524636 0.015722783 0.17674671 -0.16958848 0.07956043 -0.15058649 0.005234294 0.0134785455 0.116713904 -0.39966384 0.121459246 0.04191201 -0.28114438 0.059054147 -0.20428513 -0.16401027 0.15936314 0.15622436 0.13594802 -0.065273486 0.099123694 0.18705156 -0.1601339 -0.2667138 0.23137896 -0.05380101 -0.07719424 0.043494336 -0.009918163 0.050103012 0.045273 0.034061503 -0.026883334 -0.11868533 0.0018372013 -0.055444207 -0.042073254 0.0062088636 0.018391712 -0.024729468 0.027545335 0.0727144 -0.017559633 0.14488116 0.09506225 -0.06781441 0.09443326 0.022199163 -0.03175303 -0.10613935 0.0069708205 0.03936137 0.05733112 0.09720371 -0.033240795 0.07844506 -0.0006516162 0.053190425 0.08777332 0.027688762 0.03099818 -0.049570348 -0.02787759 -0.005794235 0.08246171 -0.029548572 -0.011201571 0.0034849686 0.013026763 -0.017765967 0.008865389 0.070117556 -0.041896902 0.042887915 0.00048779673 -0.0051480113 -0.0660853 -0.0679667 0.039238594 -0.0028787581 0.03790731
ô 0.003122721 -0.001986844 -0.054034177 0.180026 0.016767692 0.03793817 -0.0049096933 -0.00061184063 -0.1278895 -0.1590934 -0.04961568 -0.14652003 -0.048890434 0.048182912 0.06370888 0.0049207574 -0.31909823 0.112369 -0.08738384 0.04228409 0.011423398 0.20488058 -0.1446797 0.089455225 -0.11792192 -0.043281533 0.05789301 0.06655089 -0.3679014 0.061308526 -0.057429362 -0.2274544 0.018483464 -0.053476546 -0.17873278 0.17686532 0.14155203 0.19922322 -0.08008867 0.16461332 0.25121856 -0.14847098 -0.31466383 0.23601288 0.025434589 -0.050578695 -0.054520857 -0.035440356 0.17502916 0.070882514 0.06233733 -0.17591763 -0.021280922 -0.013445451 -0.033278164 0.07202341 0.018029805 -0.025058346 -0.030343018 0.01801725 0.050410103 -0.024701564 0.2073015 0.0113341445 -0.088648945 0.13520427 -0.050750177 -0.026695235 -0.05249702 -0.03143371 0.044985756 0.027745582 0.11451442 0.00085427955 0.06072964 0.11048406 0.117559016 0.04499904 -0.032063242 -0.070287876 -0.18273146 0.01180892 -0.038874112 0.027871307 0.00039176305 0.04955847 0.0031885328 0.01038291 0.015411007 0.019757276 -0.032272145 0.038815275 0.006112694 0.054512016 0.1031999 -0.036100373 0.059646595 -0.040028173 -0.0016297349 0.03489532
ñ -0.040960822 0.09935307 0.009718161 0.3162464 -0.014665499 0.020075535 0.024840927 0.14168552 -0.20737632 -0.21320882 -0.072948046 -0.14588834 0.033500317 0.05843954 0.007279688 -0.034759816 -0.27835914 0.096195884 -0.13560165 -0.023593638 0.013464173 0.22271962 -0.14646682 0.0617992 -0.1812848 -0.03753941 0.0032672845 0.10807996 -0.44225493 0.098463975 0.060264364 -0.3000354 -0.03886088 -0.18835229 -0.25502288 0.2817491 0.22972333 0.25586924 -0.1308352 0.17188643 0.2664633 -0.21103252 -0.31421432 0.23180363 0.042848974 -0.13807309 -0.07712645 -0.10275996 0.12434641 0.085172 0.06384078 -0.14953752 -0.027658038 -0.04872374 -0.062133398 0.0010933818 -0.03299389 -0.024685614 -0.07432587 -0.028897705 0.055950888 0.015498979 0.1363368 0.018902307 -0.12698022 0.1876827 -0.045987017 0.011527887 -0.050965272 -0.027077587 0.03890111 0.07389367 0.06645676 0.036368363 0.075122654 0.06462232 0.06842192 0.0468059 0.008226383 -0.027886886 -0.16951515 -0.06433263 -0.045619372 0.007848189 0.0049425988 0.043463446 0.002502613 0.008162685 0.037118427 0.06405603 0.018598815 0.010834968 0.021798324 0.031810183 0.15776065 -0.037437905 0.036353122 -0.023433367 -0.02284892 -0.012447731
ä -0.04866626 0.055973094 -0.024872638 0.14128044 0.032470137 -0.005278496 0.053401742 0.13177612 -0.11323727 -0.10391313 -0.07756016 -0.12180402 -0.018637983 0.048584517 0.040678307 -0.027271204 -0.26522893 0.09753136 -0.10921902 -0.016880166 0.040311284 0.1762915 -0.10945762 0.07117559 -0.14623255 -0.014927897 0.0115172835 0.13831215 -0.38433236 0.07756897 0.021743702 -0.22812189 -0.013566234 -0.13535228 -0.18808685 0.20874506 0.15221453 0.1747153 -0.1299544 0.16658807 0.18580039 -0.15359664 -0.27425998 0.2307725 0.035993498 -0.054733843 -0.030574061 -0.042054493 0.14330079 0.041647766 0.041600965 -0.15889132 -0.05012712 -0.04225792 -0.028461352 -0.00040193088 0.028113142 -0.025527332 -0.0029470108 0.0618326 0.03576489 -0.09569888 0.17813183 0.052642632 -0.105344035 0.1727966 -0.045963325 0.02238883 -0.104630664 0.030479176 0.04846678 0.06976131 0.14821734 -0.006420345 0.06320795 0.06518265 0.13705155 0.08297235 -0.01025097 -0.037487898 -0.14906988 -0.022355776 -0.06137504 0.05470049 -0.011733326 0.008152358 -0.0012793061 0.017255558 0.034699403 -0.0046215127 -0.0015534931 0.006375117 0.07023296 0.01783956 0.07131824 -0.042095363 -0.002074478 -0.00023624126 -0.0007372042 -0.0003087681
ï -0.055282876 0.017502414 -0.047342826 0.18543686 0.020492645 0.042218145 0.0016769344 -0.013530923 -0.107664034 -0.10787253 -0.045911826 -0.13252266 -0.045891926 0.030395184 0.07156831 -0.00930965 -0.28176072 0.072029516 -0.0820092 0.05469465 0.01811498 0.18730275 -0.14499927 0.10778077 -0.109471545 -0.034444783 0.049689908 0.05204277 -0.37073755 0.08102912 -0.01304872 -0.2674084 -0.013139837 -0.029331772 -0.16782828 0.18147796 0.15285772 0.22172369 -0.075433716 0.19925137 0.25696686 -0.15020697 -0.34700105 0.24700141 0.016866712 -0.015613265 -0.031210827 -0.022128705 0.18417172 0.06839644 0.08557755 -0.17363772 -0.018886248 0.0058186 -0.0320125 0.052700996 0.036719844 -0.0049879597 -0.033792548 -0.0047192196 0.01047907 -0.013397321 0.18607886 -0.015261017 -0.08870709 0.166227 -0.072250105 -0.009279499 -0.057434212 -0.03380326 0.048059355 0.063547164 0.14558777 -0.014625036 0.067827635 0.117627464 0.12605359 0.063389644 -0.0070763775 -0.07969775 -0.21878055 0.00073123706 -0.035459485 0.014592787 -0.01971468 0.0073699085 -0.00029586302 0.016275484 0.038030844 0.028194897 -0.013525427 0.03998073 0.008962561 0.05272327 0.11425405 -0.053579237 0.062437702 0.010813541 -0.020351483 0.030517034
â 0.008101091 0.036487006 -0.025696099 0.19561967 0.0037006293 0.03536722 -0.00956898 0.10101752 -0.089300446 -0.12980208 -0.07257514 -0.07019585 -0.0056068487 0.034090042 -0.0056846067 9.909979e-05 -0.2798696 0.11782506 -0.12971172 0.050043013 0.012021433 0.17536317 -0.16296937 0.07063083 -0.12223352 -0.023424573 0.03028982 0.059664574 -0.4011051 0.10883949 0.016644096 -0.24665938 -0.0122534 -0.09157028 -0.1964253 0.21101098 0.16102411 0.1808891 -0.103120245 0.11956724 0.19153543 -0.16584298 -0.24583645 0.21686961 -0.006240852 -0.091787696 -0.031755105 -0.07436841 0.07769622 0.041799713 0.031625606 -0.12975378 -0.069584884 -0.033432268 -0.040881213 -0.001719089 -0.018134218 0.0032650898 -0.052444614 0.013581917 0.07556361 -0.015849147 0.1818352 0.039051604 -0.0823514 0.15595502 -0.04265111 -0.041594893 -0.09026531 -0.04546116 0.026889993 0.04347558 0.07045021 0.010656826 0.0644307 0.04635614 0.081508316 0.058832493 -0.030710092 -0.00970958 -0.10725071 -0.009124774 -0.07195815 0.041676566 -0.031375058 -0.011259454 0.027630555 0.049934834 0.013332262 0.01958944 -0.04045396 0.008052406 0.05756478 0.041517336 0.076721534 -0.04432056 0.006829932 -0.02139139 -0.002703388 0.0018389411
ü -0.025969142 0.02231906 -0.03148858 0.1700858 0.022017257 0.025281888 -0.018657075 0.03776505 -0.113019064 -0.14028901 -0.056685716 -0.12163598 -0.01633537 0.051322076 0.0380407 -0.010050905 -0.30402532 0.111944646 -0.09448979 0.06843677 0.021929272 0.1762896 -0.1275328 0.07656217 -0.14100479 -0.027216494 0.035479125 0.08867801 -0.38685998 0.07212708 -0.014669324 -0.2479278 -0.009223069 -0.082488105 -0.1874493 0.17925778 0.13883497 0.20975482 -0.09409666 0.16797142 0.2279528 -0.14159383 -0.30531672 0.24482359 0.0255759 -0.038319476 -0.029219449 -0.039785508 0.13133048 0.07119272 0.046831314 -0.14971747 -0.016339777 -0.04164334 -0.04446835 0.08034368 0.015485676 -0.00265433 -0.0368298 0.005109745 0.039996054 -0.007874922 0.14195359 0.0065805097 -0.09171989 0.15072215 -0.049131896 0.008030147 -0.03581115 -0.016482124 0.038265847 0.041339852 0.09419072 0.011710103 0.05746066 0.11604554 0.103875354 0.04463633 -0.021181403 -0.06423595 -0.15987381 -0.0075571453 -0.03760383 0.026459068 -0.0010632663 0.042522456 -0.01557095 -0.009396786 0.031964846 0.013450925 0.0050153825 0.017974364 0.019173404 0.04395079 0.0846018 -0.016636876 0.054678403 -0.0147465505 -0.020868616 0.006972638
ο -0.026571998 0.018011106 -0.044263255 0.19667655 -0.03351008 0.054428935 -0.032349788 0.007851815 -0.09900323 -0.099969365 -0.07038242 -0.0675467 -0.047021516 0.03324021 0.025856026 -0.009754144 -0.35566604 0.107876614 -0.11889343 0.09425388 0.016037827 0.21140844 -0.1481273 0.07864637 -0.1166549 -0.042108264 0.050617643 0.048527133 -0.39540476 0.08518371 -0.02569038 -0.26342952 0.0065367 -0.04934446 -0.1811543 0.18603367 0.13050497 0.19642377 -0.08065273 0.14222096 0.23257113 -0.15703997 -0.31478956 0.23692328 0.0066633085 -0.039717846 -0.016294193 -0.02441123 0.13467015 0.06058764 0.05397616 -0.11769455 -0.046896365 -0.016119052 -0.026444942 0.0015532974 -0.018689513 -0.017824495 -0.039350495 -0.0032535791 0.07691478 0.0041136537 0.13484497 0.018043468 -0.06605238 0.13262157 -0.018285086 -0.02844626 -0.06486104 -0.018327896 0.016239677 0.020834506 0.077454284 -0.022133205 0.04575921 0.071741894 0.07187304 0.044122037 0.0056505026 -0.023831202 -0.06765086 -0.0010216037 -0.035682127 0.011313072 0.007305442 0.034492392 -0.01630299 0.011335476 -0.029548053 0.037042156 -0.019465609 -0.012512912 0.02902814 0.012719489 0.059381202 -0.046535455 -0.0043093828 0.017715601 -0.018936522 0.021861358
ἶ 0.029476734 -0.034685392 -0.06618044 0.1394639 -0.023774741 0.07145212 -0.034490358 -0.054996673 -0.044902653 -0.033770762 -0.03481232 -0.01810055 -0.030694501 0.044144303 0.014531148 -0.0013564914 -0.37266427 0.09252819 -0.07948691 0.16813812 0.0064327214 0.17409708 -0.18089709 0.11428271 -0.060174618 -0.06935611 0.10308755 -0.008881518 -0.31903958 0.051902026 -0.047177 -0.19455262 0.022552148 0.0012395137 -0.14857692 0.14703871 0.08161859 0.16601771 -0.055144113 0.07964101 0.18018083 -0.102895506 -0.25687364 0.18418561 -0.015238091 -0.034144387 -0.018730257 -0.011753169 0.10721558 0.044912957 0.012668879 -0.11577557 -0.04149701 -0.023645243 0.011382738 0.0028768063 -0.03913258 -0.002134569 -0.040498864 -0.017914774 0.0689223 0.005258806 0.095979474 -0.006129795 -0.07343187 0.07821329 -0.030207466 -0.036407057 -0.043781217 -0.022489274 0.015237963 0.012373868 0.046966713 -0.008882114 0.042488016 0.060137995 0.036794376 0.015628332 -0.028108796 -0.003124724 -0.0068626013 0.009097329 -0.039633907 -0.0022291455 -0.012162811 0.05374275 -0.022703161 -0.010642597 -0.04517885 0.033553883 -0.05855562 -0.012287822 0.031906243 0.029452456 0.018358942 -0.04801249 -0.019270284 0.016901746 -0.012289794 0.006775109
δ 0.03039373 -0.014822102 -0.052213483 0.13857572 -0.013232047 0.0767087 -0.05123873 -0.06054643 -0.042857096 -0.0402534 -0.040286347 -0.010006049 -0.0231242 0.039433267 0.020676145 0.009982042 -0.36258638 0.10216701 -0.0785796 0.15672247 0.0033552735 0.1622629 -0.17505574 0.100263834 -0.054272175 -0.069967076 0.078103945 -0.012992668 -0.30283615 0.04893176 -0.0545364 -0.2039628 0.017375527 -0.0022940454 -0.13938712 0.14899077 0.07016268 0.15456742 -0.054078735 0.07576247 0.15682673 -0.09740395 -0.2296292 0.17004402 -0.008179894 -0.04170998 -0.014376454 -0.020674828 0.09318839 0.04885233 0.021009399 -0.095267095 -0.05802057 -0.0025264607 -0.0016894221 -0.004364388 -0.03395519 -0.0067927158 -0.04169051 -0.03475955 0.06529616 0.021084664 0.08637675 0.016790802 -0.06367068 0.09244564 -0.0231806 -0.035159215 -0.037497137 -0.015044676 0.002125592 0.008740605 0.04413499 -0.01445387 0.035245676 0.04855885 0.025396489 0.026015207 -0.013245182 0.0033489799 -0.01983321 -0.0011518294 -0.04074223 0.0091106435 0.0013712315 0.06468917 -0.033388257 -0.005255304 -0.035428997 0.03229392 -0.06583702 -0.020238781 0.02467714 0.008793163 0.035114743 -0.04035722 -0.02812718 0.019080931 -0.032206297 0.013899801
α 0.023308301 -0.01895193 -0.06753914 0.14925633 -0.030101066 0.08274732 -0.020790018 -0.06609164 -0.05574134 -0.030763937 -0.055197854 -0.034882102 -0.013090518 0.018748099 0.015128668 -0.005342295 -0.36209136 0.092589796 -0.069823846 0.15311053 0.014204161 0.17680879 -0.16378106 0.10925049 -0.0513459 -0.061123937 0.09179072 -0.0048311236 -0.31646812 0.047793582 -0.047830533 -0.20609388 0.032150857 -0.014239373 -0.14787887 0.14430507 0.07909066 0.15520188 -0.061761778 0.08475456 0.15697402 -0.10251048 -0.248515 0.18330063 -0.009973444 -0.032808546 -0.027369259 -0.018616995 0.10986402 0.048952512 0.028882729 -0.116965614 -0.062451217 -0.014463645 0.009341207 -0.0036314116 -0.029403234 -0.02462093 -0.06064224 -0.03114144 0.060699817 0.0027277244 0.084881924 0.009503965 -0.0764809 0.08082343 -0.030996159 -0.030535204 -0.04010447 -0.012548598 0.0138808265 0.010165026 0.058985546 -0.018746318 0.038473878 0.057914067 0.045256276 0.0126463575 -0.027187152 -0.0040639094 -0.013319855 0.0040534073 -0.033991236 -0.00030957622 -0.014184599 0.04782143 -0.034587838 -0.00784262 -0.056375563 0.023940558 -0.056937195 -0.014019405 0.022674851 0.028949741 0.029709227 -0.045205925 -0.024126988 0.01589308 -0.018205686 0.006939437
π -0.03789482 0.0053214636 -0.03577155 0.14991769 0.004536304 0.025842171 0.007739887 0.013635638 -0.074740335 -0.08924742 -0.05683502 -0.08082686 -0.03865997 0.024893202 0.040085215 -0.004269717 -0.24914111 0.08534088 -0.07369559 0.04659332 0.024007497 0.15548617 -0.11008893 0.067819506 -0.091364406 -0.025658906 0.029368157 0.052285053 -0.29131424 0.060428817 0.008609766 -0.1884465 0.005163213 -0.047120433 -0.13526382 0.14628653 0.118739285 0.1570278 -0.061213188 0.12066024 0.18787417 -0.121413305 -0.24116866 0.18076779 0.02415244 -0.032849923 -0.033102818 -0.018485827 0.13425338 0.048023127 0.035515178 -0.10983462 -0.008364546 -0.008519938 -0.03972186 0.046562627 0.015492944 -0.023169558 -0.013845868 0.019037098 0.053716186 -0.003534332 0.12608828 0.0027103957 -0.0724584 0.11548143 -0.030680215 0.0051120683 -0.062335968 -0.010706987 0.032301396 0.033791788 0.084184505 -0.006642266 0.055212136 0.06630382 0.088116124 0.04252029 -0.0073297936 -0.045948036 -0.08017158 0.00065680034 -0.034362957 0.03177111 -0.01609212 0.027957616 -0.010816776 0.008386476 -0.0047778892 0.00571566 -0.020538425 0.019200888 0.034443926 0.036260244 0.04695277 -0.017495152 0.008579408 -0.009483847 0.006868143 0.016980287
ν -0.04171541 0.021387856 -0.026051782 0.14671761 -0.0029091742 0.023827929 0.010019982 0.036493957 -0.09012454 -0.09165631 -0.06023738 -0.08536513 -0.023519496 0.018901091 0.03298235 -0.0054508173 -0.19416298 0.07557512 -0.08601807 -0.0030046508 0.030143978 0.146437 -0.08558449 0.052976705 -0.10481015 -0.022044858 0.024492614 0.060639 -0.28101933 0.06436122 -0.000879338 -0.1915153 -0.003938561 -0.052760623 -0.12702826 0.14794315 0.12429756 0.15695722 -0.075658135 0.14625123 0.20599571 -0.12004901 -0.25297484 0.18288721 0.03154739 -0.03533228 -0.031809315 -0.041529648 0.1344664 0.03458268 0.059696723 -0.12555155 -0.012832093 -0.008334743 -0.049346384 0.036722247 0.013145202 -0.014936741 -0.008007455 0.018551871 0.031671386 -0.013271593 0.12802865 0.012927866 -0.05351166 0.11995382 -0.03647027 0.015856508 -0.05977123 -0.0073370393 0.026226882 0.046791434 0.09120123 -0.011765937 0.05396587 0.057005893 0.088576026 0.039329205 -0.015630957 -0.04523768 -0.12677076 -0.007866079 -0.029391387 0.025146231 -0.018128738 -0.0096785715 -0.005624181 0.012498099 0.027205093 0.012834014 0.00561304 0.015594054 0.03507467 0.023781933 0.08279166 -0.03287818 0.030623186 -0.0026055533 -0.00820067 0.03633281
υ -0.036398545 0.03315533 -0.026052091 0.1417797 -0.0030991076 0.022813689 0.00032245868 0.010711868 -0.085593656 -0.08473606 -0.05071476 -0.08112827 -0.034318198 0.0153961405 0.03133646 -0.016675517 -0.22714579 0.08402506 -0.06461225 0.039796557 0.023402726 0.13077562 -0.09428559 0.05369 -0.09603226 -0.009596621 0.027525496 0.043204397 -0.2897802 0.06308675 -0.01451093 -0.18107983 -0.003163145 -0.033415467 -0.11251673 0.12205092 0.10035576 0.1458507 -0.05221248 0.10970471 0.18294375 -0.11237169 -0.22700667 0.17624557 0.0033958554 -0.030982634 -0.009021871 -0.029508155 0.117313586 0.026769271 0.031834986 -0.0950459 -0.0054260455 -0.016070204 -0.02153129 0.02272068 0.025359109 -0.0037995218 -0.009580533 0.03201885 0.047516067 -0.0127279 0.12936874 0.011702759 -0.05645314 0.10780262 -0.037054785 -0.011694112 -0.043970585 -0.012721863 0.011945572 0.02784972 0.084720865 -0.014902949 0.04645132 0.069136605 0.07298938 0.0419482 0.0041365363 -0.04311742 -0.0927655 0.01109819 -0.027473867 0.01586674 -0.017071815 -0.003913569 -0.003092824 0.018505402 0.01817852 0.01072525 -0.0073347064 0.0162269 0.019339537 0.012371745 0.06092812 -0.038534816 0.016038664 -0.009861886 0.0019699815 0.017665977
ς -0.022052022 0.02302022 -0.023703277 0.11035001 0.0046823337 0.0052980413 0.0138673 0.030560007 -0.075311795 -0.10189659 -0.04263761 -0.08139616 -0.026904667 0.016700646 0.04171674 0.0043845503 -0.16032131 0.06523554 -0.057417817 0.0171471 0.024382003 0.11399093 -0.08012456 0.048427597 -0.08689148 0.0019465811 0.0017926826 0.050222423 -0.21443856 0.06623081 0.0093210945 -0.16729842 -0.010409068 -0.039411694 -0.09999262 0.116646424 0.0982367 0.12629408 -0.054329157 0.11845642 0.15918301 -0.0960261 -0.19878477 0.14704463 0.02065545 -0.03401913 -0.042872358 -0.04165847 0.106313 0.031425856 0.04791465 -0.08687211 -0.011732352 -0.012772373 -0.029261976 0.026997145 0.024748536 -0.0027948692 -0.020743191 0.0074289073 0.020205619 -0.015495546 0.09933322 0.0052616 -0.039323997 0.08136664 -0.014775179 -0.006049526 -0.03891855 -0.022619959 0.004456222 0.024302872 0.05428333 -0.011167901 0.039801512 0.05331226 0.063388325 0.047992896 -0.00759414 -0.028320407 -0.115895264 0.007416436 -0.004793879 0.026130108 -0.012461185 0.008409008 -0.008704431 0.008737662 0.012887131 0.0053801206 0.004253164 0.019668523 0.011088749 0.009981799 0.06752139 -0.03832788 0.028997248 -0.0068407157 -0.0007103393 0.035277855
å -0.029834865 0.01373127 -0.014683813 0.105496705 0.0015342378 0.017337134 0.0050399327 0.0023443536 -0.06790286 -0.085466824 -0.02159228 -0.07995462 -0.033400964 0.023542423 0.03268584 -0.007168561 -0.18041636 0.059682503 -0.050531805 0.047913548 0.0062749013 0.11010504 -0.08041395 0.06077924 -0.06656917 -0.022576533 0.032280993 0.05038309 -0.19873483 0.036167823 -0.022393871 -0.14272772 -0.003684223 -0.023571482 -0.087157786 0.098602295 0.08814157 0.099946946 -0.03084763 0.088580035 0.1394759 -0.088890016 -0.18406564 0.13766803 0.004345467 -0.018253095 -0.024870744 -0.012981559 0.0830532 0.041197546 0.032244295 -0.101277106 0.0021553796 -0.015169184 -0.018346023 0.04167392 0.017540313 0.001739603 -0.012569749 0.0002189019 0.00769123 -0.0017479316 0.081556164 -0.008083466 -0.048137385 0.08626954 -0.022410369 0.0064268964 -0.019613212 -0.010160488 0.02140415 0.042446967 0.06430689 -0.009154885 0.03229192 0.059367668 0.06853162 0.016196849 -0.0079086805 -0.031047435 -0.09529281 -0.0020602397 -0.016255675 0.013696403 0.00878272 0.015661824 -0.013751397 -0.008963557 0.009346727 0.015736207 -0.0016634015 0.009885227 0.00010323299 0.014253162 0.061195496 -0.012482877 0.0460227 -0.016023811 0.004225829 0.019640623
ç -0.0019777273 0.003195303 -0.03771298 0.100190155 0.010398608 0.040618844 -0.015624389 -0.02242045 -0.030515576 -0.058634177 -0.025840545 -0.039718367 -0.03777235 0.017473139 0.03182539 -0.006272245 -0.22976258 0.082102835 -0.057660393 0.09229405 -0.0026204754 0.10983544 -0.09899136 0.061501242 -0.05902536 -0.03584615 0.047101308 0.007743842 -0.22260803 0.037686855 -0.047500134 -0.14723752 -0.0022219606 0.00047127283 -0.101488546 0.093385704 0.060621068 0.11462074 -0.031183572 0.07940288 0.12938303 -0.081869684 -0.16975869 0.14456075 0.0023635458 -0.017832587 -0.027723864 -0.010618678 0.09434396 0.033600114 0.029065207 -0.1011947 -0.021797722 -0.0190353 -0.01983376 0.025696693 -0.0028744133 0.0068612914 -0.027893025 0.009641755 0.036192548 -0.0015158318 0.087758064 0.011848578 -0.028382337 0.05217506 -0.042019755 -0.01157979 -0.026659338 -0.025604201 0.006818276 0.020321084 0.0608066 -0.003205531 0.02869192 0.049019426 0.04184385 0.0285637 -0.009919632 -0.030580867 -0.063706554 -0.0034740474 -0.024065059 0.015321635 0.0065386035 0.03520483 -0.007968965 -0.0007399359 0.007131826 0.010258979 -0.016906055 0.017630197 0.02360263 0.026470605 0.04170231 -0.021842588 0.013934346 -0.0029075383 -0.009945474 0.0022658424
î -0.027646536 0.0020552287 -0.013975748 0.09081304 0.006541291 0.012564512 0.011973181 0.018090794 -0.07420787 -0.080431305 -0.03161806 -0.06880979 -0.026204763 0.007083953 0.037424535 -0.0057217367 -0.15105551 0.056193378 -0.057772655 0.0029963967 0.012947476 0.10577811 -0.059863914 0.04737141 -0.06708199 -0.0240204 0.024065768 0.032679114 -0.20364484 0.036274225 -0.01736382 -0.13423336 0.001359457 -0.031026848 -0.09581277 0.09806293 0.06950179 0.11031919 -0.038886037 0.096012965 0.14587952 -0.090133 -0.16803147 0.14104064 0.016755681 -0.010948276 -0.025193892 -0.0260798 0.08024589 0.04424332 0.0235353 -0.087280534 -0.004115041 -0.019179324 -0.02401319 0.035127066 0.013459121 0.008475116 -0.017359724 0.023803331 0.021564296 -0.003866121 0.08929984 0.0011005338 -0.05459231 0.08391643 -0.01697948 0.0128119765 -0.030029874 -0.0068317316 0.026314095 0.02324209 0.06218184 -0.0071936836 0.040528744 0.045536928 0.06420417 0.034086417 -0.0020913482 -0.049125955 -0.08576006 0.007251585 -0.024721155 0.023673153 -0.002735972 0.022639666 -0.012256702 0.012084757 0.023923796 -0.0048068035 -0.0034951335 0.009146467 0.02326611 0.02770457 0.045146998 -0.01686033 0.03453992 -0.025160883 -0.00087357697 0.003996831
